tree
version=v4
num_class=1
num_tree_per_iteration=1
label_index=0
max_feature_idx=71
objective=quantile
feature_names=ttf_eur_mwh eua_eur_t load_forecast_mw forecast_solar_mw forecast_wind_onshore_mw dow is_weekend sin_tod cos_tod sin_doy cos_doy solar_elevation_deg solar_is_day solar_clip_pos day_length_h is_holiday is_holiday_eve is_holiday_after days_to_holiday ccgt_srmc_eur_mwh res_total_forecast_mw residual_load_forecast_mw res_penetration solar_load_ratio wind_load_ratio collapse_risk solar_surplus_midday national_solar_radiation spike_likelihood spike_likelihood_daymax dam_price_eur_mwh_lag96 dam_price_eur_mwh_lag672 dam_price_eur_mwh_rollmean96 dam_price_eur_mwh_rollstd96 dam_price_eur_mwh_rollmean672 dam_price_eur_mwh_rollstd672 mtu_15m_active gen_lignite_mw_lag96 gen_gas_mw_lag96 gen_hydro_mw_lag96 gen_renewables_mw_lag96 gen_crete_renewables_mw_lag96 gen_crete_conventional_mw_lag96 production_total_mw_lag96 load_hv_mw_lag96 load_mv_mw_lag96 load_lv_mw_lag96 system_losses_mw_lag96 load_crete_mw_lag96 demand_total_mw_lag96 load_total_mw_lag96 volume_mainland_mwh_lag96 res_share_lag96 net_export_mw_lag96 gas_share_production_lag96 da_price_it_sud_eur_mwh_lag96 da_price_bg_eur_mwh_lag96 da_price_ro_eur_mwh_lag96 da_price_it_sud_eur_mwh_lag672 da_price_it_sud_minus_gr_lag96 da_price_bg_eur_mwh_lag672 da_price_bg_minus_gr_lag96 da_price_ro_eur_mwh_lag672 da_price_ro_minus_gr_lag96 gr_avg_temperature_2m gr_std_temperature_2m gr_avg_wind_speed_100m gr_std_wind_speed_100m gr_avg_cloud_cover gr_std_cloud_cover gr_avg_shortwave_radiation gr_std_shortwave_radiation
feature_infos=[22.934000015258789:61.852001190185547] [49.665000915527344:86.629997253417969] [3154:10815] [0:8050] [47:3603] [0:6] [0:1] [-1:1] [-1:1] [-0.99999073973619013:0.99999073973619013] [-0.99996295911626554:1] [-75.413667364843505:75.413667364843505] [0:1] [0:75.413667364843505] [9.3586941500149283:14.641305849985075] [0:1] [0:1] [0:1] [0:30] [64.244050369262695:145.8910524368286] [0:10436] [-4424:8815] [0.01443001443001443:1.9376854599406528] [0:1.5835140997830803] [0.008505857807735516:0.97015765765765771] [0:178.2153287636456] [0:1.5835140997830803] [0:977.5] [0:0.76886642072644573] [0.34149999999999997:0.76886642072644573] [-50:942] [-50:942] [22.290312499999999:235.79083333333332] [0:219.34180354638778] [48.745773809523811:183.97595238095241] [12.446760825727464:158.98514087468882] [0:1] [10:1779] [108:5562.3070000000007] [0.001:2814.2649999999999] [372.81400000000002:9485.9699999999993] [2:226] [2:548] [1833.674:12897.556] [366.88299999999998:1384.9590000000001] [578.072:2349.8620000000001] [1608.3210000000001:7247.697000000001] [4:359.5] [174:759] [3223.8159999999998:11315.18] [2859.1590000000006:10314.68] [3546.3240000000001:12957.556000000002] [0.058906241606852226:0.95321652084771291] [-2675:2667.3040000000001] [0.010922671430569587:0.8515361841156347] [0:291.10000000000002] [-100.63:950.00999999999999] [-106.36:1021.61] [0:291.10000000000002] [-694.29999999999995:208.71000000000001] [-100.63:950.00999999999999] [-470.94000000000005:699.50999999999999] [-106.36:1021.61] [-470.94000000000005:771.11000000000001] [2.6750000000000003:38.5] [0.062915286960588832:8.9014980012729676] [1.3:46.300000000000004] [0.10801234497346436:36.483820614988595] [0:100] [0:57.735026918962575] [0:977.5] [0:356.76170852078099]
tree_sizes=6515 6802 6789 6814 6791 6827 6808 6803 6795 6824 6823 6827 6852 6798 6816 6853 6854 6813 6842 6843 6848 6845 6832 6871 6840 6849 6856 6873 6811 6867 6869 6846 6891 6863 6857 6864 6842 6857 6859 6876 6878 6885 6852 6883 6870 6873 6889 6861 6883 6907 6894 6885 6882 6922 6880 6901 6913 6897 6864 6919 6890 6896 6901 6923 6936 6905 6899 6926 6878 6887 6921 6930 6897 6911 6907 6876 6902 6920 6900 6908 6908 6939 6927 6912 6876 6918 6900 6898 6926 6897 6896 6886 6898 6884 6891 6896 6878 6962 6899 6892 6917 6921 6903 6932 6925 6931 6905 6893 6931 6906 6932 6949 6930 6923 6936 6936 6937 6893 6941 6905 6910 6914 6902 6893 6972 6920 6930 6931 6937 6917 6971 6918 6938 6908 6949 6943 6942 6896 6933 6952 6953 6972 6975 6953 6934 6917 6941 6926 6946 6924 6942 6954 6891 6910 6959 6906 6924 6959 6871 6889 6851 6915 6885 6878 6897 6915 6896 6869 6904 6918 6865 6925 6898 6868 6911 6889 6932 6895 6879 6865 6843 6913 6887 6836 6921 6876 6854 6863 6901 6891 6877 6883 6922 6939 6843 6900 6901 6867 6864 6876 6894 6885 6848 6919 6878 6875 6885 6891 6891 6891 6940 6874 6900 6901 6861 6844 6868 6898 6910 6888 6905 6906 6893 6868 6900 6889 6915 6877 6912 6878 6908 6899 6893 6895 6889 6897 6890 6882 6872 6910 6864 6910 6915 6916 6915 6887 6900 6936 6859 6895 6931 6893 6923 6903 6876 6924 6888 6900 6868 6945 6919 6881 6888 6901 6883 6864 6878 6907 6940 6864 6915 6904 6874 6886 6881 6906 6928 6854 6946 6923 6913 6897 6929 6889 6869 6900 6889 6899 6929 6900 6928 6928 6886 6885 6897 6882 6870 6871 6899 6869 6913 6900 6901 6882 6890 6912 6939 6925 6879 6909 6903 6925 6872 6893 6881 6937 6918 6832 6897 6907 6915 6919 6855 6875 6884 6933 6923 6918 6930 6914 6901 6899 6927 6907 6897 6892 6835 6868 6876 6885 6870 6910 6892 6878 6885 6918 6875 6896 6915 6907 6928 6893 6905 6909 6911 6897 6893 6888 6938 6910 6893 6899 6892 6899 6865 6884 6897 6918 6870 6866 6892 6864 6958 6870 6892 6889 6914 6924 6865 6921 6874 6869 6848 6939 6921 6937 6934 6879 6918 6927 6900 6930 6952 6905 6924 6950 6912 6911 6926 6922 6929 6908 6937 6917 6963 6922 6899 6932 6918 6891 6944 6902 6905 6872 6910 6922 6928 6897 6881 6916 6922 6935 6935 6927 6929 6880 6870 6933 6911 6917 6910 6893 6940 6929 6891 6881 6882 6924 6886 6922 6895 6895 6940 6909 6911 6921 6900 6932 6890 6923 6922 6902 6901 6886 6920 6932 6963 6914 6931 6896 6942 6900 6889 6877 6878 6939 6904 6923 6918 6906 6917 6929 6918 6901 6822 6929 6909 6881 6880 6897 6902 6900

Tree=0
num_leaves=63
num_cat=0
split_feature=8 30 23 0 44 25 21 1 29 66 7 31 21 2 0 43 25 33 11 68 60 43 0 21 2 31 49 45 2 44 53 40 45 29 52 33 33 10 35 45 21 53 18 45 7 64 40 71 11 61 21 52 52 21 21 11 20 20 30 35 64 30
split_gain=8711.36 1351.58 807.996 372.152 329.969 205.171 194.937 169.077 139.263 132.829 120.325 109.317 103.347 97.4549 70.1476 92.1674 64.0602 60.7917 84.7135 111.946 59.0703 59.0663 58.3121 52.5522 49.3931 48.9744 45.8532 45.8201 45.6106 44.2157 42.4066 42.0603 38.7736 35.6691 35.1882 33.4366 41.2866 31.6427 30.9967 30.9377 29.8385 29.293 30.9353 28.7979 26.7837 33.4969 59.4448 25.0879 25.0387 24.4606 23.8201 21.3488 23.3414 20.3703 19.4857 19.3809 19.3794 23.1151 18.6393 18.0475 17.7863 17.0354
threshold=-0.44228869021900119 109.92500000000003 0.23314199388215326 41.22349929809571 832.60275000000013 67.584483233416449 2500.7500000000005 67.399997711181655 0.61515769087549232 15.603125000000004 -0.58216583101416131 100.14500000000002 2187.1250000000005 5487.1250000000009 50.813499450683601 5105.904375000001 0.94571236424948812 55.962300145610733 -22.598408580688787 22.968750000000004 127.075 3340.5930000000003 33.098001480102546 3597.8750000000005 4663.1250000000009 127.15500000000002 6423.9540000000006 896.7722500000001 4878.1250000000009 610.67600000000016 729.83937500000104 5017.0010000000002 806.25625000000002 0.7196009098243098 0.58516552969802171 57.327970242206035 44.255607479175474 0.1500498401600889 35.994287133575156 814.51637500000015 3482.8750000000005 2335.4650000000015 21.500000000000004 944.90525000000014 0.35206144883412582 13.828125000000004 1079.5626250000003 43.853775647405079 3.1370622926394893 -36.954999999999991 3040.1250000000005 0.44952266366907773 0.28199561231560483 4640.2500000000009 3160.2500000000005 51.133288886539326 2338.1250000000005 2917.6250000000005 111.93500000000002 51.912470810313742 10.228125000000002 101.01500000000001
decision_type=2 8 8 2 10 10 10 2 2 2 2 10 10 10 2 8 8 10 2 2 8 8 2 10 10 10 10 10 8 8 10 10 10 2 8 10 10 2 10 10 8 8 2 10 2 2 10 2 2 10 8 10 10 10 10 2 2 2 10 8 2 8
left_child=2 3 8 11 16 23 9 13 40 47 31 61 29 14 15 25 -3 18 19 28 35 -21 53 -4 50 38 27 -17 -8 -12 -19 -7 -33 54 55 36 59 -10 -6 -9 -1 42 -23 -22 -24 56 -47 -5 -20 -36 -13 52 -32 -18 -14 -31 -46 -58 -41 -11 -16 -2
right_child=1 4 5 6 7 10 17 39 37 20 12 24 33 -15 60 26 22 30 48 21 43 41 44 -25 -26 -27 -28 -29 -30 34 51 32 -34 -35 49 -37 -38 -39 -40 58 -42 -43 -44 -45 45 46 -48 -49 -50 -51 -52 -53 -54 -55 -56 -57 57 -59 -60 -61 -62 -63
leaf_value=100.8296737278398 104.76899795532226 103.47199802398681 100.45299797058105 101.27016130778772 104.10049781799316 106.48749809265136 104.95299797058105 104.90106330136481 107.42799797058106 105.35699806213378 105.90179028693491 105.07358502325901 105.55549812316895 107.14799766540527 105.49094357548914 104.58865512801691 105.6919979095459 106.42578915652031 107.52099800109863 105.67017833147177 106.54771826933242 106.17849807739258 107.95349769592285 106.76799812316895 105.99449806213379 106.45099792480468 99.675845430654192 106.44999809265137 106.05180765458151 105.34849815368652 105.67011024104222 105.85922355339987 105.29349784851074 106.48849792480469 105.80849800109863 106.39250366349454 105.24699783325195 105.77749786376953 105.95899810791016 105.08699798583984 106.05249786376953 105.4094299484933 105.05711488019537 100.19634687874357 106.67749786376953 105.61071647155902 106.39599800109863 105.75985052282854 105.94321480390848 102.70449790954589 105.64699783325196 105.340983624353 106.61836125723266 106.74749794006348 106.80349807739258 106.35192979156706 105.63602662384149 106.1260766582925 106.69649810791016 106.44949798583984 105.31106064838575 105.32199783325196
leaf_weight=230.49099188574922 1949.8182389659351 199.87607951316087 23622.015800109526 895.11025728033098 383.71329881724046 357.77793284171378 514.55429562127347 35.158938407897949 1129.1703912288772 52.547313926536773 231.33820166415427 293.88967875339443 207.58481429132371 336.82377638836579 601.54325675964355 77.043952942458418 304.77725130622366 1681.3150258986375 663.96891286016364 142.22626736861815 63.05243748047485 810.31868837411912 19264.157502723792 116.52651407236044 800.66464769098752 84.613864483185807 72.759094620542214 632.51591711453671 97.555232087105878 67.010842562990064 157.34551883834001 124.7712180614472 176.90028926887845 202.04612989280088 120.04370304495251 360.25470700965542 97.668107933270676 153.68272385899786 88.068049028143491 27.669481909791557 44.178788592785224 63.008554935452594 73.205655721449602 181.32433847639425 3928.1853548927975 113.46070030206943 243.55983745746721 102.72738653421402 255.13152563829783 3013.621786666984 199.61870479359487 148.80758865922689 268.00030088424683 221.95766042247033 42.574077279744756 62.755652057130646 172.04658245965004 396.1757320894734 1349.8359165554812 206.16919901281426 245.77273392677307 302.0624382465121
leaf_count=278 13283 25 15050 336 67 572 185 3 276 321 59 816 607 611 79 27 2267 237 162 65 38 355 8694 1364 4708 96 34 606 63 642 39 10 126 215 29 62 122 2025 273 134 260 10 408 89 830 163 666 7 48 2421 684 42 42 2802 194 7 93 68 2546 83 31 1834
internal_value=105.74 105.755 105.719 105.74 105.761 105.718 105.747 105.747 105.755 105.733 105.727 105.727 105.724 105.74 105.736 105.743 105.763 105.752 105.747 105.74 105.747 105.75 105.763 105.716 105.738 105.727 105.754 105.758 105.723 105.721 105.758 105.747 105.733 105.746 105.72 105.754 105.743 105.761 105.721 105.761 105.722 105.754 105.757 105.725 105.764 105.76 105.746 105.721 105.759 105.718 105.726 105.746 105.752 105.747 105.734 105.745 105.761 105.753 105.762 105.753 105.725 105.72
internal_weight=69062.5 39160.1 29902.5 10380.3 28779.7 28345 6834.29 3935.52 1557.52 1958.85 4606.42 3546.05 3946.98 2522.85 2186.03 1338.71 24844.2 4875.44 2619.97 1700.87 961.016 1088.76 24644.3 23738.5 1294.17 556.395 782.319 709.56 612.11 3494.77 2255.47 659.449 301.672 452.205 3263.43 716.639 356.385 1282.85 471.781 1412.66 274.67 946.533 883.524 244.377 24117.6 4853.43 357.021 997.838 919.1 3133.67 493.508 574.153 425.346 526.735 250.159 129.766 4496.41 568.222 1377.51 258.717 847.316 2251.88
internal_count=68289 44154 24135 24039 20115 21296 2714 4507 2839 1058 4882 21325 4174 1824 1213 1103 15608 1656 1296 1086 715 838 15583 16414 6208 436 667 633 248 3158 360 708 136 1016 3099 588 526 2301 340 2683 538 773 763 127 10514 1820 829 343 210 2450 1500 123 81 5069 801 649 991 161 2680 404 110 15117
is_linear=0
shrinkage=1


Tree=1
num_leaves=63
num_cat=0
split_feature=3 56 54 28 0 22 4 8 61 35 0 7 43 7 10 52 19 29 69 1 7 42 6 7 9 58 21 51 26 6 27 62 11 54 39 39 52 8 54 21 0 8 41 29 60 1 11 3 35 63 63 39 41 11 27 21 66 4 54 60 56 0
split_gain=8451.34 909.835 527.923 440.605 272.936 258.065 193.509 175.217 171.718 135.612 127.248 110.727 109.15 105.464 144.454 103.21 118.357 102.355 91.6739 85.6639 80.6829 76.9566 79.987 69.8144 66.6861 60.1532 59.4113 58.2203 57.4126 57.2702 97.848 51.2616 51.1272 52.247 44.5644 44.2177 44.0947 40.7445 40.3909 37.4664 32.2893 32.0289 47.2549 31.9735 31.7909 30.5432 29.422 27.7454 34.4225 27.0521 26.638 24.2715 23.9254 22.7525 22.6256 21.5671 20.2188 20.027 19.7091 19.5066 19.3393 19.0393
threshold=2201.7500000000005 100.68500000000002 0.31528046883112631 0.43795581737759254 36.924001693725593 0.16677950915308026 3200.2500000000005 -0.4124860612920454 -81.809999999999988 53.729554301180521 33.080499649047859 0.065403129230143103 4089.1552500000003 -0.22695468355932449 0.20088311396693925 0.36143783257238399 131.34657093048096 0.74993750000000003 4.868852602226986 63.545000076293952 -0.75183980747897738 101.06250000000001 1.0000000180025095e-35 0.95642797789208711 0.99906486341235867 13.715000000000002 3852.6250000000005 5363.4660000000013 0.76425614056482061 1.0000000180025095e-35 1.9062500000000002 117.48500000000001 -23.910805107627631 0.34552903699948867 36.053571428571438 1335.7500000000002 0.44019695450392776 -0.16280825711808977 0.27916076598458933 4815.7500000000009 42.56200027465821 -0.47114434510950048 106.12500000000001 0.57780382811579334 100.01500000000001 67.240001678466811 -50.68820424501309 1540.3750000000002 63.132244731514639 10.310000000000008 1.0399999999999998 571.25000000000011 139.12500000000003 52.796930665552829 636.03125000000011 4144.1250000000009 6.4218750000000009 2640.1250000000005 0.27177238918059715 139.94000000000003 85.265000000000015 36.303499221801765
decision_type=10 10 8 8 2 10 10 2 8 10 2 2 8 2 2 8 2 2 2 2 2 10 2 2 2 10 10 8 10 2 2 10 2 8 10 8 10 2 8 10 2 2 8 2 10 2 2 8 8 10 10 10 10 2 2 8 2 8 10 10 8 2
left_child=1 4 8 5 20 61 10 38 45 12 39 49 27 -12 29 16 40 24 -19 -8 44 22 41 35 37 -24 -17 -9 31 34 -31 -26 33 -14 -15 51 -23 -10 -6 59 -13 42 -4 60 -1 -2 -11 -36 -49 -7 53 57 -27 -20 -52 -51 -22 -16 -25 -5 -34 -3
right_child=2 3 21 6 7 11 19 9 17 46 13 15 32 14 23 26 -18 18 50 -21 56 36 25 58 28 52 -28 -29 -30 30 -32 -33 43 -35 47 -37 -38 -39 -40 -41 -42 -43 -44 -45 -46 -47 -48 48 -50 55 54 -53 -54 -55 -56 -57 -58 -59 -60 -61 -62 -63
leaf_value=-0.43859973907470717 -1.1226498985290527 0.028050193786621238 -1.1226498985290527 -0.44095005035400381 -4.5847248840332027 0.63810029983520522 0.35523807177176797 -1.0460081416833311 -5.0226498985290533 -0.10491338371062486 2.2743252372741702 -0.36389304465224037 -0.67287996461702826 -0.20185591185644824 0.54157520294189465 -0.95629211894481903 -0.16403932539617105 -1.730149974822998 0.79853891388274079 -0.36384981155395479 -0.31444972991943348 0.76832509994506859 -4.4814739894343614 -0.28113689708029671 -0.42692500054617882 1.2283253288269045 0.7796000099182131 0.093449405974017546 -4.9587248969078068 0.60725196958377736 -0.37787475585937502 0.33819598798448969 -0.15954980850219727 1.1098694421748581 1.1296003150939939 0.2016396893052432 -1.705949821472168 -1.3005401289847227 0.97735010147094747 0.87612493515014622 0.48212509155273442 1.1400187876120522 0.60190347990406901 1.7928298890870413 1.167775402069092 0.866940747123217 0.6286251068115235 -0.73271914890861733 0.97294118718734435 -0.30191797130889886 0.34317509542380603 -0.6161500358581542 -3.9521499061584473 -1.4174742868151968 -0.09258936175885496 0.7809469828395017 -0.90895008087158191 -1.4036500358581543 1.5701961060502185 0.76190011978149386 -1.8186576966567547 0.78512496948242194
leaf_weight=308.70661030968256 72.489185708152718 104.30305672904569 142.32907281547176 396.50300538938956 572.88688593413099 521.22963952751911 303.80009955167873 540.67602781047515 24131.800108276129 63.182381880626508 16349.11838480513 111.71711010385582 171.26306361981608 178.78359530166108 137.75797854654456 1279.5820731365343 274.63696384429932 666.73458799393961 71.882548279582807 384.93219297854637 256.34995295276462 143.68857414248578 240.47529834136361 42.581850944111579 539.58685065619648 169.19102141158379 81.544002515981447 112.13754232111637 664.39680284261703 1126.9416175112933 296.74584671065122 151.63290378451347 75.949863568126716 127.02930597040415 7417.8743044846042 319.82745301417219 410.77730706845932 51.39064097402661 63.15082425523542 297.44478554166676 612.66453694870756 659.71091905483524 264.60861809915599 628.75644582006885 225.20041663812083 235.18869310741684 1601.0494765776007 96.920163303461095 97.645708319770847 314.54937769081835 276.01920026546827 411.0074817519635 36.300026060443088 137.08069210434769 63.388155185523829 106.20612879713713 1795.5347319672358 72.38845581427006 541.4166510080546 146.28806793824964 72.96183877030569 1294.6327557160862
leaf_count=1844 88 766 307 2883 202 1037 71 918 13929 165 9194 866 230 401 1136 1353 18 45 60 335 1415 1239 12 22 142 218 308 224 76 106 52 20 108 546 1339 1392 2885 7 196 3055 168 63 400 417 615 54 740 57 21 380 157 268 29 31 25 270 12340 128 850 1184 149 733
internal_value=4.01205e-05 0.0149784 -0.0204395 0.0183412 -0.00195978 0.00415485 0.0206715 0.0061767 -0.0222999 0.0106912 0.0213172 -0.00347013 0.000883545 0.0219116 0.0180624 -0.00925446 0.00295013 -0.022727 -0.00854871 -0.00551065 -0.0146376 0.00391576 0.00975677 0.00380796 -0.0234016 -0.00802501 -0.0182122 -0.0152458 -0.0126102 0.0204213 0.0112002 -0.00252208 0.0106696 -0.00692881 0.0221063 -0.00462007 -0.0120188 -0.0240065 -0.0179062 0.00215424 0.013547 0.0171913 0.00615962 0.0174199 0.00267679 0.0148405 0.0208792 0.0226858 0.00404736 0.0110225 0.00659476 -0.0123975 0.0118399 -0.00744984 0.0152416 0.00159173 -0.0191429 0.00142489 0.0173878 -0.00566163 -0.00341277 0.0221533
internal_weight=69062.5 39933.9 29128.7 33319 6614.84 4701.07 28618 4029.04 27061.6 3393.01 27929.2 3302.13 1728.77 27089 10739.9 2360.14 999.019 26753.9 1215.11 688.732 2585.79 2067.08 1512.61 1524.98 25538.8 445.966 1361.13 652.814 1355.62 9214.91 1423.69 691.22 1075.96 298.292 7791.22 940.981 554.466 24183.2 636.038 840.236 724.382 1066.65 406.938 777.668 533.907 307.678 1664.23 7612.44 194.566 941.985 548.371 621.154 205.491 208.963 339.407 420.756 2051.88 210.146 583.999 542.791 148.912 1398.94
internal_count=68289 48502 19787 28393 20109 5899 22494 3895 14634 3497 22088 4400 2592 14966 5772 2713 1052 14492 318 406 16214 5153 1029 3796 14174 259 1661 1142 238 1976 158 162 1450 776 1818 2924 4124 13936 398 7122 1034 770 707 674 2459 142 905 1417 78 1687 273 1532 247 91 182 650 13755 1264 872 4067 257 1499
is_linear=0
shrinkage=0.05


Tree=2
num_leaves=63
num_cat=0
split_feature=52 30 21 19 28 25 33 31 21 32 7 42 31 64 28 67 21 25 28 7 68 31 25 29 7 21 25 11 61 52 29 21 34 40 47 30 62 19 7 1 25 8 48 33 64 38 5 34 25 32 48 40 21 20 30 18 59 10 39 30 8 61
split_gain=8165.71 1267.94 715.112 413.119 295.012 210.365 171.585 135.189 132.841 136.187 122.27 106.704 96.5522 96.7632 89.3454 77.1471 73.6198 65.3935 63.271 60.3784 59.9305 56.1811 55.7044 53.1981 51.3316 51.1663 48.4939 48.2247 47.2519 46.2974 45.9832 49.062 46.0707 45.9262 45.2174 43.6478 43.2762 41.152 40.1754 39.9632 47.8367 39.2187 38.8124 37.7113 36.6223 36.2091 34.9532 34.6428 32.5336 29.551 26.9607 26.2033 26.0193 25.0936 24.0975 23.826 23.4133 23.2214 27.2369 21.2188 22.4998 21.1281
threshold=0.65329876370875162 113.23 3101.1250000000005 109.6584991836548 0.43795581737759254 59.849847157176491 31.56155794046818 100.14500000000002 2500.7500000000005 100.84973958333335 -0.58216583101416131 161.06250000000003 118.58500000000002 11.309375000000003 0.53650306785370561 14.1473339245437 1891.3750000000002 1.0000000180025095e-35 0.54425950917048782 0.95642797789208711 22.031250000000004 95.625000000000014 37.398337095093808 0.71688314982353474 -0.065403129230143256 2320.1250000000005 40.643879823618029 -44.828146289225252 -62.394999999999989 0.9078845517534494 0.62985653969488231 3597.8750000000005 79.060744047619053 3864.3355000000006 79.312500000000014 4.995000000000001 149.00500000000002 139.95077262878422 -0.32143946530316142 70.68500137329103 63.173507689505797 -0.47114434510950048 224.12500000000006 38.79410674165932 19.115625000000005 2108.6515000000004 4.5000000000000009 94.021614583333346 3.9434441959035458 139.25567708333338 380.62500000000011 1305.4021250000003 3040.1250000000005 6280.5000000000009 101.01500000000001 11.500000000000002 12.884999999999993 0.26780438508363441 1354.1055000000003 126.49500000000002 0.84874750804349197 -44.609999999999999
decision_type=10 8 10 2 8 10 8 10 10 10 2 8 10 2 8 2 10 10 10 2 2 10 10 2 2 8 10 2 8 8 2 10 8 10 10 10 10 2 2 2 10 2 8 10 2 8 2 10 10 10 8 10 8 2 8 2 8 2 8 10 2 8
left_child=1 3 5 7 6 18 36 54 9 21 43 24 13 25 15 22 29 -13 19 28 -17 45 30 56 33 -6 -24 -19 41 61 32 51 -10 -8 -29 47 50 -11 -9 -15 -41 -2 -27 -7 -45 -5 -37 -4 -14 -30 -3 -32 -40 -31 -1 -28 -18 -33 -59 60 -44 -12
right_child=2 4 35 8 12 10 11 38 14 37 16 17 48 39 -16 20 23 27 -20 -21 -22 -23 26 -25 -26 42 55 34 49 53 31 57 -34 -35 -36 46 -38 -39 52 40 -42 -43 59 44 -46 -47 -48 -49 -50 -51 -52 -53 -54 -55 -56 -57 -58 58 -60 -61 -62 -63
leaf_value=-0.98500221061706561 -4.0220174150466921 -2.8972185720609915 -3.4332474460050273 -1.0488119892782146 -0.06894802941506821 -0.30132882550369688 0.89240884494781492 0.24488620471954337 -0.59918157696936991 -3.4821934556274479 0.1577502099459788 -4.2475262036349717 -0.051197562217712544 0.8407545738349953 1.0299054510533157 -0.613729055559603 0.050365457711371422 -0.044520981699985765 0.62462023830413793 0.53072820429617706 0.45397025203704833 0.5056240491753059 -0.163322958201534 0.498416501576466 -0.51423257282721624 -0.87712523934914877 0.45392000865936311 -5.1965067021021216 -4.7715174036026005 0.012711349368095882 0.047291475251788742 0.58718215206391089 0.55573043486655038 -0.87761424848288305 0.76489688114624577 1.1431199941635128 0.077545849737320094 0.15787578927538898 -0.58444575871366344 0.44169526195526104 -3.6935889189583779 0.87780098809897622 -0.09788465271462031 0.94341535979733582 -0.019587310741343344 0.11609821989550353 -1.2631555960125718 0.51762026882171597 2.1601084871292118 0.20169622942794377 0.72809910105518871 -0.11099871646668796 -0.024772313283820326 -0.31565742842792316 -0.37700252342224161 -0.34550346945870813 -1.2290174798965454 -1.0829990315366604 0.46894035567771369 1.0495372564440035 0.49351992702484115 -3.4845924119949339
leaf_weight=2207.9861259497234 125.97280193538867 508.13822265045343 119.23051976593385 281.71154360788796 220.63959874358702 200.78352969697733 233.37381293391712 771.23917011573121 113.45859336853337 701.41985914533848 85.802184743995582 106.170311351907 36.752006792914472 4470.8919930581997 1500.2073884128949 316.19696734577269 50.791262114356712 251.62838776988519 109.09348713714644 91.999793334103742 133.29674197492182 803.21316877249956 223.01575052786029 263.15661430209946 412.80789547677239 170.82806028546651 248.920539262266 54.970824554418414 22287.927881115345 426.52953869522503 156.02562079291013 390.88231971859926 1404.2255362152662 73.533605997076563 2180.210460355107 1046.5040492122971 59.291597957222052 156.78209336660802 325.23817323335976 112.91215594177086 105.71035686175307 104.89604555469174 224.94339309453082 356.13293773461254 104.66181972504904 139.97132403531737 45.806391487426254 59.670938858237406 18527.179621525425 77.09231396055111 35.811205289319616 221.08720692364588 449.77462643591929 128.51771186229666 419.36916602898282 161.42388097583097 532.88754069379661 73.009067984706249 108.03756739202167 760.06444886562542 167.68389458615721 2825.0582148849885
leaf_count=15883 158 608 53 98 113 76 538 3315 52 764 23 10 73 2351 527 42 62 48 167 122 69 123 46 184 762 221 76 62 9811 124 108 28 357 66 2003 1037 162 74 1551 797 68 23 486 48 196 49 102 43 12701 145 371 134 3444 54 2990 155 715 45 145 746 207 2678
internal_value=-2.19229e-05 0.0146242 -0.0202041 0.00044149 0.020209 -0.0218827 0.00745536 -0.0120531 0.00775232 -0.0028716 -0.0125667 0.0119216 0.022223 0.0168389 0.0121348 0.0078111 -0.0156369 0.0166494 -0.0239154 -0.0240981 -0.0115472 0.00782948 0.0106179 -0.00242096 -0.00511129 0.0059829 -0.00260911 0.01829 -0.0242627 -0.018866 0.0140141 0.00538122 0.0194125 0.0103752 0.0206262 0.0164675 -0.0170712 -0.018145 -0.000322902 0.0204136 -0.000459473 -0.00175832 0.00969904 0.00744808 0.0153281 -0.00694928 0.020217 -0.00642582 0.0240309 -0.024495 -0.0214927 -0.00861902 -0.00836279 -0.00563222 -0.0189565 0.00759046 -0.0108357 0.0146126 -0.000191177 0.0129952 0.0035566 -0.0213895
internal_weight=69062.5 40020 29042.5 11306.5 28713.5 27771.3 3915.94 4173.61 7132.89 2083.1 4974.32 3312.7 24797.6 6233.67 5049.79 3549.58 4312.74 2592.98 22797 22687.9 449.494 1224.9 3100.09 846.835 719.715 1544.16 633.36 2486.81 22595.9 3465.91 2466.73 949.042 1517.68 306.907 2235.18 1271.21 603.241 858.202 1546.25 4689.51 218.623 230.869 1323.52 661.578 460.795 421.683 1092.31 178.901 18563.9 22365 543.949 377.113 775.013 555.047 2627.36 410.344 583.679 571.929 181.047 1152.69 392.627 2910.86
internal_count=68289 52468 15821 30075 22393 14586 4630 27183 2892 1108 4160 3489 17763 4989 1784 1257 3840 2123 10426 10259 111 270 1146 961 1366 1773 277 2113 10137 2879 869 460 409 604 2065 1235 1141 838 8310 3216 865 181 1660 320 244 147 1139 96 12774 9956 979 242 4995 178 18873 231 777 218 190 1439 693 2701
is_linear=0
shrinkage=0.05


Tree=3
num_leaves=63
num_cat=0
split_feature=22 30 54 30 44 28 19 25 31 22 28 25 67 4 4 30 65 63 29 31 2 25 1 0 45 38 45 22 43 63 49 11 63 35 63 0 28 39 45 71 44 26 19 43 34 34 54 51 59 45 47 65 34 30 22 66 31 23 55 65 8 30
split_gain=8041.89 1496.73 410.039 361.393 233.435 187.504 164.494 156.311 154.924 169.228 121.068 104.578 101.497 121.85 98.0948 95.7066 118.681 81.1702 73.4194 69.9764 60.78 59.5897 56.242 51.0159 50.9678 50.4633 48.4903 44.9316 39.3577 39.2661 38.4826 38.4356 35.1365 44.911 34.238 32.6265 36.7347 34.8983 32.2709 37.3143 30.6754 30.3341 30.0925 29.3469 28.759 28.5024 45.9652 34.3601 28.3816 27.1605 27.1082 26.9656 26.9112 25.6526 44.908 41.0321 33.0119 24.388 24.3682 23.1864 21.5869 21.4141
threshold=0.72033504212066191 114.51500000000001 0.29300367964519863 89.915000000000006 830.40387500000008 0.47951594881963261 108.69944828033449 103.44474860072758 99.205000000000013 0.31483764908349759 0.43795581737759254 4.5424951516274481 11.73974175414652 1858.6250000000002 3200.2500000000005 109.02500000000002 1.4862564830248302 -81.629999999999981 0.74993750000000003 99.995000000000019 4730.1250000000009 68.748385989128039 66.322502136230483 33.098001480102546 1491.5812500000004 1164.4315000000001 1519.8755000000003 0.21800950427882657 7233.3318750000008 110.75500000000001 6030.4962500000011 -42.41155940345579 12.680000000000001 64.550382632000876 -35.684999999999995 53.242000579833991 0.37175724220689838 131.08333333333334 1265.6853750000002 53.752906829672575 637.05000000000007 0.92675401267490065 133.09309833526615 7451.6130000000003 98.522187500000015 87.846502976190479 0.53875208337037839 5005.6999999999998 -12.735000000000005 1406.2502500000003 110.06250000000001 2.8861017529052333 99.697120535714305 119.17500000000003 0.37655103907298848 16.928125000000005 64.935000000000016 0.72057541830510197 139.55500000000004 0.89846512638684761 -0.98611507088852035 104.22500000000001
decision_type=10 8 10 8 8 10 2 10 10 10 8 10 2 8 8 8 2 8 2 10 10 10 2 2 8 8 10 8 10 8 10 2 8 10 10 2 10 10 8 2 8 10 2 10 10 10 8 10 10 8 10 2 10 10 10 2 10 10 10 2 2 10
left_child=1 3 7 8 11 20 19 17 18 25 12 -3 13 27 -7 42 30 -2 40 -5 28 -19 -18 -13 45 -10 35 -8 48 34 -17 -29 33 38 -11 36 37 -22 39 -23 -1 49 -4 -14 -42 59 47 61 -6 -9 -48 -49 -46 54 56 -56 -25 -41 -20 -12 -40 -47
right_child=2 4 15 6 5 14 10 41 9 29 24 23 43 -15 -16 16 22 21 58 -21 26 32 -24 53 -26 -27 -28 31 -30 -31 -32 -33 -34 -35 -36 -37 -38 -39 60 57 44 -43 -44 -45 52 46 50 51 -50 -51 -52 -53 -54 -55 55 -57 -58 -59 -60 -61 -62 -63
leaf_value=0.59338922638893121 0.53379187131581363 -5.8535365116083415 -3.1034949619934027 -0.42675246629714964 0.13725470835768833 0.88951459422111512 0.56860381026732643 0.9502141670383466 0.68296397202415049 0.8866444156440707 0.012386388290626871 0.26285990581447577 -0.58730552035199746 -2.141623021645072 -0.10689580966483386 0.016092575944892218 -0.25523297581672749 -4.5329415334224699 -0.012487882947921492 0.14324298175114905 -2.3109124768747455 -0.83727291045188901 0.65754953297103924 -0.24491250266644329 -0.34312679193165752 -0.0021426962123214824 -2.7959743487199731 -0.11160789977587698 0.023478949002620909 0.49173925538063018 -4.0734197680254338 0.12470953942521788 -3.3103627913951872 0.28647980718008659 -3.2615850737047758 -0.53024843474113292 0.4105997987140711 0.81247001804862229 0.086602959594133472 0.49263737263679563 -1.6263399354935935 -0.74803582308838756 0.39456785282005602 -0.0051152518721574794 0.3025619391652562 0.16237138829851078 -0.28343254924163758 0.64614704045726157 -0.66130801149760765 -1.8133627646923061 0.31578409057468804 -0.17738535389900179 -1.159941579198837 1.8955709110253522 -0.076961510697065097 0.77357754420199076 0.75183961405754118 -0.077623229274749017 0.59424241781964227 0.77148109728964698 -1.8461800834724571 -0.086219476722224908
leaf_weight=80.467226008665662 179.60419865713993 157.93343955792807 620.45302360320954 1177.8216236045114 37.623799269402866 2162.6141455168899 577.54798920383496 229.90525725996349 699.84402565479786 68.661664349620878 250.06319844722634 423.20485708423803 447.87270338481665 247.2383874969305 138.83781680464699 151.6137418966772 129.8165176319759 22104.429215647822 34.537944918811718 1125.7922529859948 138.94825324891497 160.85299769078782 835.41434132673089 85.153742551811547 250.90581728396319 353.33568721222514 191.12332067508555 162.46874581500606 54.564670766993004 87.010144690845209 304.00087394119123 572.54680058877625 1265.3560499428963 155.29657420000149 999.33577515308457 131.54545835219324 597.76933064057209 87.931222113764306 118.76469311698634 150.35315048997671 2453.8909476371959 210.17061626238473 93.422808969393373 93.222247273739526 97.071427695086669 34.476173117540156 151.89529872382445 1729.3014563676122 508.28447059422012 36.879667189064833 80.801803900898449 82.751835829432821 215.61014127814767 21084.34229698596 174.71450691927666 127.27652141296872 1281.4811308380704 102.53007243429957 132.77002253092905 1818.2971768649347 721.35458070762832 83.443980173105956
leaf_count=180 65 156 2389 7929 109 3003 141 136 119 164 18 5129 161 137 19 54 140 9544 357 6368 91 277 561 6 114 885 639 69 17 53 58 275 992 107 1839 66 606 70 69 120 9236 14 30 37 223 79 275 454 323 118 241 514 1940 9885 210 183 677 62 26 195 303 32
internal_value=0.000103012 0.014011 -0.0208281 0.000781199 0.0208275 0.00974548 0.00691584 -0.0225946 -0.00965724 0.000404375 0.01094 0.0227506 0.00103606 0.00750892 0.0191218 0.000219998 0.00772427 -0.0231364 -0.017028 -0.00458376 -0.00260105 -0.0233792 0.0176525 0.0230269 0.0155825 0.0148997 0.00414439 0.0135741 -0.0154895 -0.012813 -0.0133089 0.00537381 -0.0163301 -0.0108994 -0.0154444 0.00873997 0.0124288 -0.00470066 -0.0140408 -0.00261043 -0.0189196 0.00575947 -0.0147159 -0.0176231 -0.0198047 0.0168809 0.0128676 0.0153987 -0.0195365 0.0169513 -0.00812518 0.0171006 -0.00552362 0.0233468 0.017379 -7.0426e-05 0.0212349 0.00936526 0.0151617 0.0210773 -0.01967 -0.0107538
internal_weight=69062.5 41492.3 27570.2 14109 27383.3 4049.24 8886.45 25435.5 5222.54 2208.19 6582.83 23334.1 2100.9 1559.8 2301.45 2134.72 1420.85 24958.5 3014.35 2303.61 1747.79 24778.9 965.231 23176.2 4481.94 1053.18 1147.32 1312.56 600.473 1155.01 455.615 735.016 2674.51 1409.15 1068 956.194 824.649 226.879 1253.86 413.736 2847.04 476.956 713.876 541.095 2766.57 4231.03 2162.67 1929.97 545.908 266.785 232.697 1812.05 312.682 22753 1668.63 301.991 1366.63 252.883 167.308 2068.36 840.119 117.92
internal_count=68289 53250 15039 32061 21189 4943 17039 11807 15022 3060 2742 16246 820 622 3022 3232 813 11539 11962 14297 1921 11474 701 16090 1922 1004 1472 485 449 2056 112 344 1930 938 2003 833 767 161 831 459 11579 268 2419 198 11399 1808 1595 1079 432 254 516 968 2163 10961 1076 393 683 182 383 213 372 111
is_linear=0
shrinkage=0.05


Tree=4
num_leaves=63
num_cat=0
split_feature=21 54 30 19 25 30 44 28 25 7 31 61 30 14 21 68 54 33 56 55 28 22 21 25 7 60 0 20 60 59 39 21 11 66 32 46 32 33 7 4 25 54 3 60 54 54 1 30 7 25 19 67 14 1 2 18 0 2 50 19 57 27
split_gain=7889.92 1066.21 1051.96 300.8 206.969 181.129 172.284 183.492 152.92 141.042 117.512 110.654 102.491 92.8909 71.1857 90.0116 74.6986 66.4991 65.2212 65.0622 62.1697 64.977 59.8257 73.8537 56.1005 53.7744 50.2333 50.2131 49.8715 49.8648 46.6482 43.5695 119.838 55.3169 43.1423 40.6027 38.1412 36.4184 33.0951 31.6148 28.1177 27.4581 27.1934 24.3774 23.9607 22.4993 28.2963 21.4923 21.2057 47.5675 27.7069 20.692 20.5284 20.0269 27.225 19.8041 28.2186 19.6325 44.4844 19.5292 19.5203 23.3461
threshold=1970.1250000000002 0.32469106505467754 114.51500000000001 108.69944828033449 68.748385989128039 15.030000000000001 830.40387500000008 0.47951594881963261 76.397563169501822 0.29012925520284133 100.14500000000002 -62.394999999999989 134.59500000000003 12.38804142469964 3889.3750000000005 24.718750000000004 0.26825067908753436 52.522189679642963 71.325000000000003 169.465 0.50500252934034806 0.12877527777394149 3870.1250000000005 43.845427133029297 -0.8814490726585632 100.68500000000002 33.098001480102546 5970.1250000000009 112.33500000000002 -2.4350000000000018 115.07500000000002 3020.1250000000005 -29.566847944667114 16.278125000000006 85.531458333333333 2355.0755000000004 105.54255208333335 14.698818795096637 -0.32143946530316142 2970.3750000000005 72.117619184838546 0.22552178187380018 5394.6250000000009 151.37000000000003 0.31528046883112631 0.53875208337037839 66.157501220703139 101.01500000000001 -0.8814490726585632 0.010357880208673528 99.904273815155037 14.031615158419664 13.08176797332429 66.322502136230483 4599.3750000000009 11.500000000000002 41.269500732421882 6416.3750000000009 5514.0680000000002 124.91479892730713 117.51500000000001 571.09375000000011
decision_type=8 10 10 2 10 8 8 10 8 2 10 8 10 2 8 2 8 10 10 10 10 10 10 10 2 10 2 2 10 10 10 10 2 2 10 10 8 10 2 10 10 8 10 8 8 10 2 10 2 8 2 2 2 2 10 2 2 8 10 2 10 2
left_child=1 4 3 10 11 18 26 22 12 17 47 24 25 14 15 51 40 41 -5 35 21 -15 23 59 -1 55 -4 -19 -23 -14 -27 32 33 -28 -24 -10 45 -11 -12 -32 -17 60 -29 -38 -34 -18 -47 -2 49 -13 -51 -7 -46 54 -9 -3 -57 -39 -59 -8 -6 -62
right_child=2 8 6 5 9 13 7 53 19 37 38 48 29 20 -16 16 36 27 -20 -21 -22 28 34 -25 -26 30 31 42 -30 -31 39 -33 44 -35 -36 -37 43 57 -40 -41 -42 -43 -44 -45 52 46 -48 -49 -50 50 -52 -53 -54 -55 -56 56 -58 58 -60 -61 61 -63
leaf_value=0.79495642490629437 -0.69766033448218678 -1.4229352406406344 0.24971691052375178 -4.0888042429263791 -0.89032327085370311 -0.098629456876794683 0.17293704123947082 -0.22566309404324869 -0.40657509742122128 0.26036285501863138 0.41695330543023207 -5.1889056198059293 0.7678203837117572 0.51863113984918241 0.88116334021928988 -0.99955290449019696 0.51592487928556707 0.53551026678280067 0.25927218442847527 -5.4175853635160616 0.86149721179706662 -0.40922610949482929 -0.52341064027660344 0.053138567314750418 -3.4904275781639194 -0.8012849139492062 -0.064439895850933196 -1.1924495000260258 0.17951425212323316 -0.037758357762450435 0.53505518984691269 1.8697926096147102 0.013455177866854604 0.30206114480021856 0.67674920151443274 0.63795350868199641 -0.026551271008792555 -4.4024524736981867 -0.21952627094563512 -0.069993376039477376 0.51008109854220762 0.13172989550860234 0.32964275536325016 0.074398604081532732 1.3462084582795888 -0.34076093703834476 0.28311101617036816 -0.24836460914134975 -4.3062944567513464 -1.0852969792199134 1.0662302280854015 -0.55738474716677844 -0.02967499449726603 0.94821374167680761 1.3234028228688246 -1.3298192855486499 0.083051742965291456 0.468005504004956 -1.5192944961857791 -0.64979694546151023 -0.0055982399657558274 -0.14165224224430789
leaf_weight=238.71397396301472 1809.1079794013149 669.25044482683984 423.27209920938185 562.73166786133868 478.53340714583317 152.11012133604009 90.115999045798503 61.018440763599585 51.430074840780662 43.355260794474361 673.21301095924559 884.77932464010144 555.24371027068355 578.72224044799805 1034.9777541811927 444.39659073884047 1323.7096339040368 520.29209352471867 406.94165015220642 80.142639729851226 1516.6518649756908 482.07926246523857 84.335474249664571 390.79209628263277 210.60509486502116 150.44861596102356 270.51120017503803 120.28537539768121 760.22116470336914 126.18168025315481 327.10830255446757 19024.331761644455 153.46089022505518 89.801389111900846 316.31190453412989 1352.8702062993475 420.62433329064021 1577.8775191899301 759.27907596570299 168.0415081409642 70.453804917879893 137.4827747333054 212.96377630641069 123.50497566982011 2362.834924814284 106.08834378679762 90.722052511621769 406.32888457852869 22215.990713831528 70.01622736431284 99.517353202658342 328.28012994103 84.48592293242109 1577.3218730442761 160.29605360788918 173.06922130288027 191.62450079378854 75.016673110425529 238.90234557202569 590.0326666906476 262.6452155706171 101.09459018707275
leaf_count=56 14943 905 5057 38 479 205 275 100 45 61 3066 115 149 29 662 164 402 188 38 20 108 47 46 600 192 624 61 78 39 21 220 9695 77 68 781 736 1025 1021 5071 138 80 374 46 109 804 40 51 2792 10617 212 24 63 150 2153 612 1800 202 12 267 125 105 6
internal_value=0.000128214 -0.0184164 0.0155293 0.00334152 -0.0218662 0.00854674 0.0212486 0.0105279 0.00624324 -0.0109813 -0.00864758 -0.0235955 -0.00166296 0.0111984 0.00615187 0.00231781 0.00601861 -0.0010432 -0.0117779 0.0188178 0.0173897 0.0111621 -0.00256601 -0.00873223 0.000981187 -0.00829859 0.0228131 0.00915934 0.00471574 0.0146922 0.00302358 0.0231416 0.0174997 -0.00952456 0.0139165 0.0213185 0.0102675 -0.0203963 0.00251261 0.0104321 -0.0110203 -0.00993142 -0.0059939 -0.00109278 0.0212437 0.0143329 -0.00144075 -0.0158637 -0.0240701 -0.0171415 0.0071207 -0.017554 0.0224454 0.0212408 0.00715572 -0.0153682 -0.0059941 -0.0214347 -0.0100152 -0.018685 -0.0133132 -0.00458252
internal_weight=69062.5 31333.5 37729.1 12050.1 27488.1 8402.22 25678.9 3270.22 3845.41 3768.45 3647.93 23719.6 2360.97 7432.54 4094.87 3059.89 2579.5 1833.3 969.673 1484.44 3337.67 1821.02 1471.59 1070.94 449.319 1679.54 22408.7 853.541 1242.3 681.425 645.598 21985.4 2961.09 360.313 400.647 1404.3 2064.65 1935.15 1432.49 495.15 514.85 979.756 333.249 544.129 2600.78 1520.52 196.81 2215.44 23270.3 1054.31 169.534 480.39 2447.32 1798.64 221.314 1033.94 364.694 1891.8 313.919 680.149 842.273 363.74
internal_count=68289 18713 49576 28972 13853 3100 20604 4692 4860 2637 25872 11216 4059 3024 2801 2139 1871 1276 76 801 223 115 1827 1000 248 3889 15912 312 86 170 982 10855 1160 129 827 781 1627 1361 8137 358 244 964 124 1134 1031 493 91 17735 10968 351 236 268 954 2865 712 2907 2002 1300 279 400 590 111
is_linear=0
shrinkage=0.05


Tree=5
num_leaves=63
num_cat=0
split_feature=21 30 54 31 25 68 28 21 35 28 7 44 30 67 19 44 31 61 9 9 44 54 44 64 34 39 33 1 54 40 4 5 3 51 4 21 54 64 25 53 44 1 21 7 31 60 25 25 5 68 25 21 55 59 60 25 69 58 44 33 67 65
split_gain=7528.63 1127.15 729.997 372.477 204.708 182.761 161.082 155.076 145.682 140.473 138.558 132.568 113.747 91.5604 91.0081 76.6502 73.4563 67.4953 64.8139 56.9736 56.9375 56.7547 55.2911 62.3445 55.0466 51.4494 50.3245 44.7553 44.4736 41.8667 40.2603 39.2871 38.8013 38.6309 38.4219 36.5155 34.2634 33.9659 33.6847 32.21 32.0156 31.8543 31.7951 31.1752 30.9789 32.7993 30.7384 30.2221 29.9275 29.4827 29.3189 28.3409 27.7802 26.5324 24.9941 23.8749 22.8919 22.4975 22.4661 22.458 21.138 21.0084
threshold=1690.2500000000002 119.17500000000003 0.31528046883112631 100.88500000000001 62.309167052300076 88.531250000000014 0.44413336919470814 3597.8750000000005 53.729554301180521 0.4277240092932732 -0.22695468355932449 828.21412500000019 89.585000000000022 7.5803851857573958 109.6584991836548 866.56162500000016 115.04500000000002 -59.224999999999987 0.96683886033945965 0.97109105924028427 643.54250000000013 0.56765247121946294 758.72950000000026 9.1281250000000025 95.091056547619061 240.12500000000003 50.134595979035687 68.322502136230483 0.043728491810367559 762.87824999999998 810.12500000000011 1.0000000180025095e-35 5489.1250000000009 8962.1896250000009 1674.1250000000002 3160.2500000000005 0.33657707768111905 11.309375000000003 23.332486697522729 1527.8838750000002 838.69337500000017 67.240001678466811 3386.3750000000005 0.91037613702198772 103.95500000000001 110.00500000000001 43.845427133029297 6.0640409255726055 2.5000000000000004 74.031250000000014 67.003561886604786 -67.874999999999986 178.91000000000003 -4.1550000000000002 -1.0000000180025095e-35 35.376293383970484 51.282002191333078 190.00500000000002 846.3515000000001 23.387424266102752 9.9827507479351496 1.7964519429512535
decision_type=8 10 10 8 8 2 10 8 8 8 2 10 10 2 2 8 8 8 2 2 8 8 8 2 10 8 10 2 8 10 8 2 10 10 8 10 10 2 10 8 10 2 10 2 10 10 10 8 2 2 8 10 10 8 8 8 2 10 10 10 2 2
left_child=2 3 4 5 17 12 11 9 33 22 26 34 20 14 -14 19 29 27 55 61 -2 56 -5 35 42 -7 -6 -1 32 49 -13 38 39 -4 47 -24 43 40 -15 -12 -31 -21 -20 -26 45 -25 -32 -3 50 -8 -22 -28 -46 -36 -30 -11 -9 -56 -38 -42 -23 -10
right_child=1 6 8 7 10 25 16 21 15 18 28 30 13 31 -16 -17 -18 -19 24 41 48 60 23 44 36 -27 51 -29 54 37 46 -33 -34 -35 53 -37 58 -39 -40 -41 59 -43 -44 -45 52 -47 -48 -49 -50 -51 -52 -53 -54 -55 57 -57 -58 -59 -60 -61 -62 -63
leaf_value=-2.6292481154179188 0.64537147746501355 -2.838877290454159 -0.76823659826166946 0.20048333449491482 -0.23690882773160085 0.57477490581488266 0.34294005807508371 0.8085214515891388 0.4046609526615399 -0.32550401758226571 -0.72496249959264603 0.16623219611475548 -0.2775465297462944 -0.010475930587387541 0.64838124235397565 -1.2482569477074188 1.9336863010490195 -4.0909797339137794 0.532574755766688 0.013660788409275516 -0.56955208658742296 0.27418881162366432 -0.10157864627244849 -0.59610961083926672 -0.092667482621936026 -0.089656655304013816 -0.11060905979760778 0.66406784867694713 -1.4991113208038642 0.99687026265480938 -0.47094293523221292 -0.38719865974373424 -1.5567435152815694 1.055854643507635 0.30768502445253887 0.42270075451351663 0.6064305080726613 0.87730319275702162 0.74958629263591592 -1.3440156196812674 0.43777406468325641 0.77766599990660468 0.047890209124136607 0.092249652155750955 -0.90355037130947835 0.41601281864897288 0.019648073186752414 0.855556090781046 -1.948466870273174 -0.057749256295258539 0.46424486108140145 0.86591952037419451 0.49851928923316002 -0.21681486873593769 -3.9018971975844674 0.14175720982420401 -0.62154294315372671 -0.59999185649758047 -0.069347697509078904 -0.66864545729397307 -0.43106256672038373 -0.39440273553394295
leaf_weight=287.66026826594242 84.922215559417637 34.485336448666189 688.64046546608836 293.57333650661656 445.39515653251772 663.83608801712489 55.135241900718057 2936.8938834780124 140.31408572868165 285.75617660901804 312.23074761070745 343.13395992129574 583.82276745686443 151.26976013546604 875.64365059440809 182.36354945337166 17756.8278864491 21547.280165926153 1508.3509400747716 551.79850393533707 935.620150494722 281.97125135743534 175.66704554451417 60.428066673466958 288.81296655535698 217.30741230196145 244.59602082051794 113.78240505012855 81.389103889465332 706.30618085653759 490.99956681331867 1303.6708658470732 190.23012933135033 111.00834160028353 74.884234022976031 178.81959854253728 412.58198046684265 2727.6343471102596 158.07347530346047 164.64691433310486 45.200350543875231 997.25300332903862 351.66637912578881 223.11122266948223 1015.8249392406445 97.304084863551168 198.86889057027929 1363.7760234024288 1391.6174837768699 106.05473329553112 113.69568633778465 351.60605857086745 36.193548759153259 83.975535906476082 1766.5675888340356 463.28300087154543 37.455801091675312 117.00042536291494 95.595208287239075 190.20548370382852 144.69240770325825 240.31296817007322
leaf_count=202 212 32 2077 668 459 760 209 3699 315 1001 146 487 4086 161 400 253 12207 9003 137 50 4583 2171 120 209 72 958 54 30 4 690 268 4032 21 168 284 45 109 1837 266 22 42 63 25 41 1084 97 259 1841 5591 97 260 179 14 127 2164 2176 89 18 117 290 464 724
internal_value=0.000392501 0.0145165 -0.0191817 0.00392834 -0.0218777 -0.00518862 0.0212464 0.0105748 0.00454215 0.00537504 -0.0109537 0.00946423 -0.00852009 -0.00205803 0.00701603 0.0114239 0.0226601 -0.0237061 0.011099 0.0143521 -0.0163806 0.0189636 -0.00580652 -0.00954336 0.0145066 0.0159778 0.00448233 -0.00339251 -0.0170622 0.0163804 -0.00442375 -0.0102683 -0.00590766 -0.013634 0.0186776 0.00889685 0.00517264 0.017476 0.00575087 0.00170841 0.0092889 0.0186108 0.0196257 -0.00395731 -0.0149468 0.00571684 -0.0113853 0.0213249 -0.0177808 -0.00855976 -0.011405 0.0139815 -0.0180449 -0.00462399 -0.0208492 -0.00200347 0.0214099 -0.0220214 0.0143699 -0.00668017 0.00190987 -0.00297984
internal_weight=68079 39544.9 28534.1 15367.5 25622.4 6479.48 24177.5 8887.98 2911.69 5486.97 3673.66 2590.12 5598.34 3072.48 1459.47 2112.04 21587.4 21948.7 3629.16 1929.68 2525.86 3401.01 1857.81 1564.24 2880.12 881.144 1041.6 401.443 2632.06 3830.54 1033 1613.01 667.108 799.649 1557.12 354.487 1020.1 3669.35 309.343 476.878 941.712 1549.05 1860.02 511.924 1209.75 157.732 689.868 1398.26 2440.93 161.19 1049.32 596.202 1052.02 158.86 1964.96 749.039 2974.35 1883.57 508.177 235.406 426.664 380.627
internal_count=68269 52317 15952 33647 12302 21309 18670 12338 3650 5915 3067 3298 19591 8945 4486 1405 15372 9235 3678 1152 10646 6423 2237 1569 501 1718 692 232 2375 3165 1014 4459 189 2245 2284 165 339 2859 427 168 1022 113 162 113 1404 306 527 1873 10434 306 4843 233 1098 411 2186 3177 3788 2182 226 332 2635 1039
is_linear=0
shrinkage=0.05


Tree=6
num_leaves=63
num_cat=0
split_feature=22 30 25 30 7 19 5 44 28 61 44 35 9 28 21 24 32 22 7 34 21 60 41 40 54 34 35 66 24 32 1 25 9 30 58 71 54 48 41 29 18 46 9 30 32 64 28 51 25 24 44 22 19 11 58 45 29 2 34 45 39 46
split_gain=7349.09 1236.84 488.15 359.192 293.019 175.15 169.945 160.812 137.901 132.603 120.495 98.5531 97.0788 99.083 83.573 81.3313 80.7671 75.1392 70.7681 70.3209 64.3747 60.3706 56.0258 50.2929 49.1235 48.4751 48.1122 47.706 45.3218 45.7658 43.4729 42.7459 41.5443 39.4917 38.9975 38.6725 38.3203 38.1447 37.0296 35.7718 34.1196 32.3048 31.846 31.0851 35.261 29.7008 34.9718 29.5607 29.5127 28.2353 27.8179 27.7324 27.5482 26.4498 26.4075 26.1337 28.6967 25.6078 25.2712 24.6669 41.3183 30.8355
threshold=0.72566226392341526 119.17500000000003 62.309167052300076 89.195000000000007 0.0327015646150716 108.69944828033449 3.5000000000000004 830.40387500000008 0.51850467632695785 -59.224999999999987 833.87250000000006 60.158654462322197 0.93535928755917841 0.39276969578783155 2643.1250000000005 0.29333165955310075 87.292343750000015 0.53789086143478471 -0.8814490726585632 80.039851190476199 3248.6250000000005 122.64500000000002 108.12500000000001 762.87824999999998 0.34552903699948867 73.417633928571448 47.223303978515411 21.734375000000007 0.17416346335331967 83.415572916666676 67.11999893188478 81.970076495738098 0.89001933454452098 130.10500000000005 149.07500000000002 140.45219936021547 0.28603361128455052 216.75100000000003 72.125000000000014 0.60756250000000012 6.5000000000000009 2326.3693750000002 0.99628894895067466 1.0000000180025095e-35 102.51536458333335 13.378125000000002 0.56550501182488178 7094.3087500000011 43.545284107133568 0.29588584008132829 835.08025000000009 0.66268602890328887 92.178301658630389 -40.198769351324025 115.90500000000002 1305.5160000000003 0.65293750000000006 5245.1250000000009 59.996666666666677 896.7722500000001 209.12500000000003 2261.3398750000006
decision_type=10 10 10 8 2 2 2 8 10 8 8 10 2 10 8 10 10 8 2 8 10 10 10 8 8 10 10 2 8 10 2 10 2 10 10 2 10 8 10 2 2 10 2 10 8 2 10 10 10 8 10 10 2 2 10 8 2 8 8 10 8 8
left_child=1 3 9 6 18 21 12 20 28 11 14 -2 -1 -14 27 41 39 22 -4 25 23 49 -18 -3 40 -16 34 45 37 -30 57 50 -26 42 -6 38 -11 -9 51 -12 -25 -15 -31 -43 -45 46 -7 -35 -49 -5 54 -19 58 -47 -20 56 -38 -10 -22 -21 -61 -62
right_child=2 7 4 5 26 10 -8 8 30 36 16 -13 13 15 19 -17 17 35 31 59 52 -23 -24 24 32 -27 -28 -29 29 33 -32 -33 -34 47 -36 -37 55 -39 -40 -41 -42 43 -44 44 -46 53 -48 48 -50 -51 -52 -53 -54 -55 -56 -57 -58 -59 -60 60 61 -63
leaf_value=-0.54707461958715342 -3.7021578348384816 -0.041209454356785254 1.1685964675846179 -0.12068659675910781 -0.44740215068739175 -1.0450103026227431 -2.6246288956616546 -1.5489182170392413 -0.063105785129555156 -3.8864307472180899 0.22715900292257063 0.37635298481556251 -3.8860647157783621 -0.48311283190995341 0.74063160507629011 -0.53453652799578677 0.40914225660996806 -0.086662167988510036 -0.47437236716344205 0.82451828214809886 -0.19804532258254787 0.31031154136013805 -0.06545142268408384 -0.16030362183224517 -0.11926452733889192 -0.1624353505924514 -3.7075386050835881 0.49161041431516922 0.66758420967151444 0.012140255566609345 0.90261880057567234 0.062933785765270756 1.1598298708077877 0.2624558990360818 0.44668665643723604 -0.075029484779557537 -1.3416691087047561 0.66019561789525061 -0.89804228306428735 -0.59870718546638846 1.4596092179616511 -0.42769814302348924 -0.63862697354217823 0.51199504731413936 -0.029090410576363204 -0.036999326324827567 0.12767507117492718 -0.38218255203672702 0.9198791940161215 -0.51070382393196001 -0.95560522309742457 0.99068553926201097 1.8430136476239243 0.3075596596187829 0.36645891325266189 -2.3217350049231986 0.13347013593997303 1.0958229094489902 1.6530114196978829 0.57426411476594696 -0.053756767410000933 0.45589692184039238
leaf_weight=1036.772696706541 298.36150166017177 113.06232790236703 720.18912125993734 1363.1832093707023 324.55904213610665 364.83340006206924 1674.2583273544915 71.80144441896897 210.15300339550686 20858.629285544928 176.87333069741896 331.43499355720888 439.64336539525539 53.839604399167001 261.23556089400745 348.91821853956208 1271.2130873970093 142.57933928914326 105.70849070918536 2159.8161826760515 90.09908032789599 685.58111188343082 300.72490053390175 211.97193585680228 206.4655366715856 301.48764801025391 1833.4567705552158 228.23590565458949 106.43744492596818 131.14408648379867 1423.6649539535233 974.64938106500404 3735.6739412099123 209.62585599498232 122.899517378984 85.22047213412975 142.47517722166887 579.429833644474 313.28814965607739 418.56453536177071 208.99332108608556 193.96524786949158 416.86503106355667 1122.9170833844692 97.739862024784088 85.545429237282576 226.16666881510173 128.21084643746934 45.028033223184877 581.61238159960726 242.99607656256302 88.100452025992809 16414.088898011447 286.11396009289268 150.32734900352898 496.18169900944815 86.846761813391964 121.01243039806923 457.54663502687117 1046.0760611190817 96.63442481934031 1057.8946428885063
leaf_count=7438 249 54 202 9445 972 163 5684 64 241 8381 47 103 151 255 88 718 873 101 775 316 59 3176 282 63 1511 32 1336 250 35 410 1534 540 417 151 118 23 427 1086 218 82 93 15 48 431 24 8 65 74 195 3778 261 55 8536 142 268 1046 93 362 3860 268 25 552
internal_value=0.000408764 0.0136003 -0.0200494 0.00298935 -0.00498297 0.00782823 -0.00825154 0.0206408 0.010611 -0.0230843 0.0111749 -0.000469108 -0.00165839 0.0041594 0.0151072 0.00931203 0.00257777 0.00699724 0.00806315 0.0179823 0.0222518 -0.00350876 0.0128418 0.0169182 0.0177713 0.00134787 -0.0175312 0.00322152 0.000410438 -0.0060801 0.0204262 0.00178539 0.019505 -0.00963141 -0.00283174 -0.00760461 -0.0237442 0.0107489 -0.012511 -0.0137595 0.00153606 0.014468 -0.0182395 0.0159147 0.0188693 -0.00165125 -0.00861585 0.00268967 -0.0125932 -0.00800621 -0.0101154 0.0026918 0.0236593 0.00942363 0.00138512 -0.0124478 0.001511 0.00410909 0.0126276 0.020129 0.0164034 0.00988184
internal_weight=68079 41390.3 26688.7 16509 4474.79 11541 4968.05 24881.3 3443.37 22213.9 8910.6 629.796 3293.8 2257.02 6114.04 1817.38 2796.56 2201.13 2193.87 4923.14 21437.9 2630.38 1571.94 4476.17 4363.1 562.723 2280.92 1190.9 1688.54 1037.31 1754.83 1473.68 3942.14 930.874 447.459 629.188 21584.1 651.231 543.968 595.438 420.965 1468.46 548.009 1414.62 1220.66 962.659 591 382.865 173.239 1944.8 499.032 230.68 16961.7 371.659 256.036 725.504 229.322 331.165 547.646 4360.42 2200.61 1154.53
internal_count=68269 53498 14771 34705 4472 19989 14716 18793 4200 10299 3590 352 9032 1594 1909 1443 1681 1552 2046 1281 14593 16399 1155 2138 2084 120 2426 628 2063 913 2137 1844 1928 878 1090 397 9947 1150 374 129 156 725 458 470 455 378 228 420 269 13223 1304 156 12455 150 1043 1566 520 603 3919 1161 845 577
is_linear=0
shrinkage=0.05


Tree=7
num_leaves=63
num_cat=0
split_feature=21 30 54 19 25 21 44 7 1 35 31 21 25 10 38 2 54 33 29 21 68 61 1 4 18 48 1 32 30 33 47 5 59 58 0 2 59 30 0 41 38 61 58 31 68 32 68 0 21 38 25 58 0 29 60 10 14 30 67 30 7 40
split_gain=7041.28 1109.08 678.916 262.216 254.506 195.356 181.55 157.929 144.765 111.425 103.848 102.855 93.9332 90.4739 83.9185 81.2232 76.4896 71.3075 70.4617 86.1259 69.1023 63.1931 61.2779 57.9142 56.3061 79.6865 54.6515 48.9833 45.9874 45.5635 45.4213 44.4781 41.8252 41.0331 39.6885 39.1908 46.4177 38.4499 37.8276 37.8269 36.7305 36.4763 35.3711 33.8001 32.6856 31.8841 31.4684 31.4353 30.6271 30.3148 30.1439 29.7801 28.2882 28.1855 31.5698 27.8112 26.5566 25.8184 25.4721 25.1888 24.3814 23.5447
threshold=1630.1250000000002 115.19500000000001 0.31528046883112631 108.69944828033449 62.309167052300076 2643.1250000000005 830.40387500000008 0.097964660725097366 67.399997711181655 53.729554301180521 108.55500000000002 3264.3750000000005 18.705759794714815 -0.19244445339415753 1552.3785000000003 4747.1250000000009 0.32128021954773561 52.788387445621865 0.74993750000000003 3728.8750000000005 8.5312500000000018 -59.224999999999987 67.240001678466811 265.62500000000006 7.5000000000000009 218.00100000000003 67.652500152587905 86.440156250000015 93.495000000000019 23.633134921289237 131.06250000000003 1.0000000180025095e-35 14.094999999999994 142.00500000000002 36.662498474121101 6416.3750000000009 111.50500000000001 -1.0000000180025095e-35 33.098001480102546 67.910000000000011 4018.0730000000003 -6.4150000000000054 35.025000000000006 104.09500000000001 27.281250000000004 101.38734375000001 1.03125 50.813499450683601 3386.3750000000005 3315.7160000000003 17.72271021706359 149.07500000000002 32.667999267578132 0.47905526779525592 124.52500000000002 -0.23449138957041016 12.262532580692435 98.75500000000001 7.5001631925532557 88.925000000000026 -0.35206144883412549 4294.0465000000013
decision_type=8 8 10 2 10 8 8 2 2 8 10 10 10 2 8 10 10 8 2 8 2 8 2 10 2 10 2 10 10 10 8 2 10 8 2 8 10 10 2 8 10 10 8 10 2 8 2 2 10 10 10 10 2 2 10 2 2 8 2 10 2 10
left_child=2 3 4 10 21 13 11 17 15 40 52 12 58 -5 31 33 44 41 19 20 48 26 30 -22 25 -25 -1 -26 -24 -17 32 37 49 50 -18 -9 -37 -15 -13 47 -4 -6 -19 59 -14 -16 -36 -31 -7 -11 -8 -38 -2 54 -40 -30 -48 -54 -3 -21 -12 -46
right_child=1 6 9 5 7 18 8 35 -10 22 60 38 16 14 45 29 34 42 -20 43 23 -23 28 24 27 -27 -28 -29 55 39 -32 -33 -34 -35 46 36 51 -39 53 -41 -42 -43 -44 -45 61 -47 56 -49 -50 -51 -52 -53 57 -55 -56 -57 -58 -59 -60 -61 -62 -63
leaf_value=-3.7689801041089752 -0.7896366410392418 0.08664051644002678 -0.69271096139256016 0.41335683110784505 0.071518785122462611 0.09387269568918484 -1.3791195154514215 -3.7783848663217139 0.71498831831056087 -0.42417971305729413 0.51166274437816528 0.20570346956259727 -0.52749518406607965 -4.1553346194872285 0.12497830340501802 -1.7608497149815983 -0.0097392969100013726 -0.030458377554368355 0.70576008629187215 -0.46044216691601858 -1.6462001155395658 -3.6921092098571857 -0.3350397219767125 -0.11837324511825163 -0.034725225186919582 0.57699732748402299 0.76919759781708752 0.11575058280102767 0.051992601386950811 0.97356860875522244 0.54376024261816047 -3.6267276820629029 0.62844623360859331 -0.49120150196017631 -0.15201862545428246 -2.59385415139909 -0.62450318370904123 0.90842702702174172 -0.050999561376492156 0.64578590480505582 1.3705803174002718 -0.89720328427573726 0.37595635289283508 0.56218662447825807 1.0587883978908388 -0.22024683282829971 0.96871482975937306 -0.21387726010002758 -0.55664170531619439 0.1249976027403001 0.092058824595763866 0.13502141345182245 -0.44096406594189191 1.7648863032949682 0.23546793592396043 0.90949072061537073 1.1878384383025549 -0.02863747188030601 -0.040399912240557258 0.31370732412818131 -0.12991190211332154 -0.68077036409761504
leaf_weight=235.65508122528189 1163.998481071761 210.12087866538968 673.40513859072519 279.1834716796875 146.22996028930118 266.94702913847038 134.66691685740301 1597.9616234746443 1386.151097666334 330.54502099868324 575.31873048392742 329.15060803482993 132.72787571046754 85.175882339477539 772.51427106888377 157.33595047821018 237.73005261741946 354.54955381226137 814.84653560861625 155.54555610645843 132.44646852682581 21408.807969377362 70.116343008324975 167.84001977984667 622.63573919981729 1482.1775608979524 140.05537915381774 1021.7103428608326 151.34544470724745 143.0799796690593 290.32604311058572 1124.3596779789539 183.2239439876152 378.67031841424625 76.377260572343857 290.42934835925382 118.71398536554045 139.72473496957832 114.40571070321209 1091.0617750677061 69.211119910152775 327.21100196269316 611.59227623156994 1508.6555734527569 124.27786036125579 259.39149016042393 1104.0159786773488 184.12179756164551 270.39326052719991 56.017316587474852 300.94748502356236 149.10214181606716 1222.632538188223 16984.863490971198 311.91902169605339 931.35741824620163 2426.9463799417372 579.9565112150658 469.99380326460232 377.28968438814286 558.48305289235861 63.378102697838074
leaf_count=176 12898 31 2004 14 184 38 141 1395 2968 240 2269 4288 43 6 260 139 984 42 150 106 31 8848 350 111 112 300 49 814 82 570 92 220 121 41 14 364 49 95 165 653 40 659 264 486 33 653 1144 24 26 31 231 27 6963 8633 281 389 194 3115 51 244 3261 63
internal_value=0.000205737 0.0137015 -0.0189536 0.0020937 -0.0215128 0.00666269 0.0196817 -0.00918891 0.00953366 0.00461819 -0.00847061 0.0213783 0.0149221 -0.00482939 -0.00798666 0.00207774 0.0177351 0.00363529 0.0111452 0.00927324 0.00497633 -0.023547 0.0107252 0.00759042 0.00889375 0.0154193 -0.00321871 0.00234573 0.0182605 0.00870428 0.000625414 -0.0161954 -0.00757639 -0.0107443 0.0196909 -0.0177509 -0.00634613 0.00410258 0.0231417 0.0115363 -0.0119353 -0.0122614 0.0114252 0.0176169 -0.00573726 0.0027466 0.020995 -0.0033748 -0.0116947 -0.0169028 -0.000279535 0.00866804 -0.0133898 0.0234591 0.0107613 0.0208019 0.0216818 -0.00946636 -0.00230637 0.00679128 0.00440054 0.00769387
internal_weight=68079 39943.2 28135.9 13581.2 25380.3 9480.84 26361.9 3595.79 3776.04 2755.55 4100.39 22585.9 4845.57 2660.35 2381.17 2389.88 4165.45 1439.58 6820.49 6005.64 3964.15 21784.5 2012.93 3426.81 3294.36 1650.02 375.71 1644.35 1152.82 1575.6 860.112 1349.26 569.786 814.285 3845.07 2156.21 558.245 224.901 17740.3 1418.26 742.616 473.441 966.142 2041.49 320.384 1031.91 3607.34 327.202 537.34 386.562 435.614 267.816 2966.59 17411.2 426.325 1082.7 3530.96 1802.59 680.115 532.835 1133.8 187.656
internal_count=68269 52863 15406 32172 12057 3666 20691 2984 4767 3349 28506 15924 2557 1248 1234 1799 2475 1149 2418 2268 1432 9073 1305 1368 1337 411 225 926 821 1386 484 321 392 413 2336 1835 440 101 13367 1247 2044 843 306 836 139 913 1352 594 64 271 372 76 22976 9079 446 471 1338 10078 82 350 5530 96
is_linear=0
shrinkage=0.05


Tree=8
num_leaves=63
num_cat=0
split_feature=3 30 25 0 7 44 28 61 28 21 8 35 21 32 31 9 1 2 0 10 27 9 35 59 52 40 29 40 44 55 21 21 2 24 39 7 27 55 32 30 58 10 39 31 67 21 66 9 59 51 37 46 60 66 21 2 64 41 48 24 38 40
split_gain=6845.8 966.956 677.286 268.013 265.882 226.846 193.213 160.449 152.905 179.217 149.5 147.977 98.3373 90.1796 86.0644 74.5204 72.6451 68.2209 69.5981 68.153 66.2941 67.1949 65.9647 57.5394 56.5968 55.9759 53.358 49.4631 47.2501 44.2276 43.6802 43.4522 38.7785 36.732 36.6455 36.4954 44.068 35.5196 33.7975 32.3024 31.031 30.761 30.6285 30.3111 29.769 29.1921 40.9912 30.1855 29.545 28.7293 28.5321 27.0677 26.9068 26.0384 24.4616 24.0333 23.9392 23.9166 23.7262 23.6711 23.2787 22.6152
threshold=2201.7500000000005 114.51500000000001 52.935098496695282 41.22349929809571 -0.58216583101416131 795.54425000000003 0.47500249737118833 -59.224999999999987 0.51250740401311989 3728.8750000000005 -0.38268343236508956 47.223303978515411 4032.3750000000005 105.23671875000001 99.995000000000019 0.99906486341235867 67.200000762939467 3555.5000000000005 33.098001480102546 0.18399153619612912 166.81250000000003 0.99628894895067466 58.063105458076713 105.44500000000001 0.69519609221603085 5017.0010000000002 0.74993750000000003 5527.8030000000008 854.10550000000012 134.67500000000004 1442.1250000000002 3418.1250000000005 5547.6250000000009 0.29588584008132829 1624.3750000000002 -0.75183980747897738 539.15625000000011 115.63500000000001 87.850312500000015 87.215000000000018 151.58000000000001 0.34963450400049079 525.37500000000011 94.77500000000002 10.426998209732679 3905.1250000000005 7.7406250000000014 0.95992380042979863 28.539999999999999 7903.1302500000011 342.02350000000007 2522.9884999999999 108.15500000000002 16.990625000000005 2774.3750000000005 5619.8750000000009 16.353125000000006 25.875000000000004 311.00100000000009 0.31045973654329578 2108.6515000000004 1698.3045000000004
decision_type=10 8 8 2 2 8 10 8 8 8 2 10 10 8 10 2 2 10 2 2 2 2 10 8 8 10 2 10 10 10 10 8 10 10 10 2 2 8 8 8 10 2 8 10 2 8 2 2 10 8 10 8 8 2 10 10 2 10 10 10 10 10
left_child=1 3 7 14 25 17 12 22 9 10 32 29 20 15 -1 23 28 -3 -19 -10 21 60 52 31 35 -4 50 55 51 49 -18 33 -5 -12 -32 36 43 -27 -33 -35 -34 -11 -15 58 -16 46 59 54 -49 -6 -13 -8 -2 -21 -48 -28 -24 -43 -9 -20 -7 -14
right_child=2 5 4 8 11 6 16 24 19 41 13 26 61 42 44 -17 30 18 45 53 -22 -23 56 -25 -26 37 27 -29 -30 -31 34 38 40 39 -36 -37 -38 -39 -40 -41 -42 57 -44 -45 -46 -47 47 48 -50 -51 -52 -53 -54 -55 -56 -57 -58 -59 -60 -61 -62 -63
leaf_value=-0.49608842248335777 -3.5892136942536874 0.0059365131788436378 0.91336309911762781 -3.5783579209588896 -0.97034726362993884 -0.064886885759693536 -0.89847612272315702 0.31588900061370107 0.73036182954301676 0.42641387755433424 0.44166822694509317 -3.3328310042277729 0.00070904176316162199 -0.50876334315051608 0.15512333849010107 -0.88699250875775337 -0.06223828248955679 0.092933971298388943 1.3778683705652632 0.37165416451423772 0.51623394843924364 -0.46087749188209398 -0.96069644487623906 -1.5128958306800051 -3.5075037493643269 0.26905843662486789 -3.8971571269397516 0.2491218391508376 -0.093716831708709245 0.417601252942783 0.85473862773682974 -0.048233374133679098 -4.0245558078314714 -1.5399844772942672 -0.048449583307667868 -3.50550374940903 -2.8867313389984441 -0.4682473023508153 0.095347582949348308 0.21110741799198252 0.15300489563019282 0.82228881719283042 0.023442729866551562 0.23076848934017918 -0.27714052683585066 2.1432558182829782 -0.14848361648275463 1.0908795576702477 0.028771934458510597 0.0084711829504570454 0.32832501013115734 0.73823645116507497 0.86300567567065445 -0.055913644798022237 1.2790424862568195 -1.1289203424453889 0.88113541170008325 -0.47039396846290105 -2.3873690909578622 -0.33314433198290461 0.042780870129723071 0.54973926078850255
leaf_weight=2353.6104406169798 262.46506854352947 611.03109526781918 1252.7822587329601 798.31355675106329 179.42356681711519 141.77336463620702 51.788246714097006 71.575569104403144 1981.1091214269441 1222.4555554538972 995.69404571779887 2535.6700897944575 138.86317276952229 472.41263030914729 1114.1890983817759 224.31887435913086 221.19002779839911 409.1805351837902 46.833791685583094 663.15538875501557 267.76851903108059 842.89414900541306 67.387136831879616 119.0293903350821 19709.418220846856 201.01407698577168 119.62513038516033 413.26641879916838 288.0019831106905 543.67727507868813 3064.3444739434594 258.16068971362245 113.35366212858008 77.952436570246775 43.629474907182157 793.47010466531492 374.16653244036343 219.65187128610705 257.82305956018342 777.91159164585304 105.33614524832404 66.867560004240033 209.48213450778553 316.68072200264044 496.91572520251771 11338.955769145705 153.4532217453758 6337.8639757186174 472.61976191401482 356.01781272472431 81.373907053158291 767.3257782504968 39.002959867939296 392.23959286919057 613.42690517841709 304.9033476763824 267.79059278499318 115.95901782945833 301.7593045025701 79.353327790233777 567.06765465103047 394.24815464377923
leaf_count=16984 286 43 1533 101 867 83 40 13 241 109 136 2716 624 201 5557 16 18 4512 64 519 185 88 17 9 7252 339 5 98 576 750 2816 39 97 76 59 2194 995 61 51 284 38 81 661 209 2419 6581 421 442 29 1273 868 821 24 628 1231 108 125 254 150 13 824 415
internal_value=4.86207e-05 0.013467 -0.0186863 0.00216754 -0.00408569 0.0188602 0.0109599 -0.0227681 0.00700662 0.00225786 -0.00269727 -0.0103725 -0.000623157 0.00234314 -0.00863613 0.0064315 0.0171025 0.0215336 0.0220503 0.0161007 -0.00615648 -0.0101211 0.00197035 0.00892141 -0.0234983 0.0129474 -0.0154208 -0.00443851 0.00600735 0.00579 0.0207922 0.0106268 -0.0195124 0.0142026 0.0223201 -0.0151553 -0.00910377 -0.00283361 -0.00220468 0.00660666 -0.000858148 0.0178071 -0.0139102 -0.00161127 0.00026779 0.0224888 0.0201137 0.0205843 0.0216433 -0.00440992 -0.0189366 0.0121323 -0.0150001 0.0058378 0.0111798 -0.0164253 0.0172341 -0.0013216 -0.011263 -0.00814955 0.00122486 0.018262
internal_weight=68079 39667.9 28411.1 12816.3 6207.41 26851.6 6788.89 22203.7 8851.57 5815.07 4409.79 4533.96 2352.62 3392.78 3964.72 2710.89 4436.28 20062.7 19451.7 3036.5 1819.5 1551.74 636.646 2486.57 21567.1 1673.45 3454.84 837.795 1107.12 1079.12 3329.16 2367.54 1017 1851.56 3107.97 1857.65 1064.18 420.666 515.984 855.864 218.69 1405.28 681.895 690.016 1611.1 19042.5 7703.55 7577.36 6810.48 535.441 2617.04 819.114 301.468 1055.39 766.88 424.528 335.178 182.827 373.335 126.187 708.841 533.111
internal_count=68269 48386 19883 28501 8618 19885 6549 11265 3541 2153 1709 6685 2219 1473 24960 611 4330 13336 13293 1388 1180 995 452 595 10813 1933 3795 211 1437 2890 2893 586 236 496 2875 3561 1367 400 90 360 135 444 862 372 7976 8781 2200 2123 471 2140 3584 861 310 1147 1652 113 142 335 163 77 907 1039
is_linear=0
shrinkage=0.05


Tree=9
num_leaves=63
num_cat=0
split_feature=22 30 25 28 22 31 7 19 7 29 25 7 29 0 22 7 1 24 42 31 62 4 22 48 11 28 24 30 2 66 45 28 48 9 53 65 38 31 62 1 53 31 65 44 7 19 48 66 55 29 55 65 2 56 25 31 32 4 33 19 25 7
split_gain=6705.02 1056.84 446.338 438.484 276.966 270.861 241.36 151.905 123.258 107.016 101.943 86.3786 82.852 76.2765 68.3921 66.3106 64.682 60.4237 59.7249 55.5778 54.0102 53.0533 47.4597 43.4527 43.3835 41.7982 41.5774 41.0055 40.5953 54.6437 38.8567 37.9481 36.5592 36.2992 36.1971 35.9888 35.374 37.9237 38.2122 40.682 34.6292 34.6021 42.3138 35.0092 33.959 33.9263 33.8099 33.6608 49.5875 30.609 29.9959 35.5344 29.8584 39.1798 28.3144 26.4894 25.7749 24.9628 24.7916 23.3233 22.5194 51.8842
threshold=0.72566226392341526 130.77500000000003 59.441308712505595 0.44112505420735959 0.16174424302771309 115.04500000000002 -0.72947329433276231 95.076600646972665 -0.8814490726585632 0.74971560650887581 0.010357880208673528 0.0327015646150716 0.53510520361990965 38.177000045776374 0.48848351806152412 0.22695468355932452 66.322502136230483 0.30522848723028856 99.062500000000014 93.765000000000015 104.06500000000001 1530.1250000000002 0.59866710545618085 222.12500000000009 -46.721324800672278 0.46190165583911935 0.34868333235442001 141.04000000000005 6416.3750000000009 11.915625000000004 1495.8215000000002 0.28856936356726653 222.12500000000009 0.99906486341235867 481.25175000000087 2.9522193276099733 1938.1525000000004 98.745000000000019 101.00500000000001 67.652500152587905 1730.195750000001 26.655000000000005 2.1647507521332723 851.58312500000011 0.9946518923062071 109.43015029907228 274.0100000000001 16.928125000000005 147.17500000000004 0.6147154246124743 150.00500000000002 2.1858148261093819 7120.6250000000009 0.66500000000000015 40.113263077379017 122.00500000000001 121.82817708333334 1530.1250000000002 24.820971388772453 112.60717536926272 13.33901875051072 -0.58216583101416131
decision_type=10 10 10 8 10 10 2 2 2 2 10 2 2 2 10 2 2 8 10 8 10 8 8 10 2 8 10 10 10 2 8 10 10 2 8 2 8 10 10 2 8 10 2 10 2 2 10 2 10 2 10 2 8 10 10 10 10 8 10 2 10 2
left_child=1 3 8 4 13 7 31 46 10 23 49 20 17 -1 16 47 40 19 -12 -3 54 24 32 45 -7 -19 -22 34 -17 -30 41 -4 -14 44 -24 59 37 -18 -39 -40 -13 42 -25 58 -16 56 -5 48 -8 -2 51 -47 53 -49 -6 -27 -9 -48 -43 -26 -10 -62
right_child=2 12 6 5 11 21 15 9 60 -11 18 14 22 -15 33 28 36 25 -20 -21 26 -23 27 30 35 55 -28 -29 29 -31 -32 -33 -34 -35 -36 -37 -38 38 39 -41 -42 43 -44 -45 -46 50 57 52 -50 -51 -52 -53 -54 -55 -56 -57 -58 -59 -60 -61 61 -63
leaf_value=-0.17726722507707962 -3.2879980037433807 -0.31757862982111917 -0.11133755744955637 -0.6235665824522294 -0.63934594981941761 -0.036384241875747847 -0.57954965727036201 -0.15002355703083056 -3.3321285618961101 0.44593429815670504 -0.02232358388132152 -0.1238911988601565 0.087048452297752016 0.2641391498323124 -3.3029923730091797 -3.4192933998332857 -1.2365232531740262 0.24008768343812933 -1.3129658130747488 1.1200799227805056 0.33873725792506093 0.23849697708696171 1.3043704909474285 0.39220370882388822 0.42611897018085831 0.16525886016817282 -0.36276709643396643 0.84227384565780672 0.3418710508313561 -1.6697829267594928 -0.43359673409675142 0.99596947337949193 1.8020933935797665 0.11420470339102373 -0.052065914501675081 -0.15102136592718438 -0.39435685934502235 0.43580405159209978 -0.11382160238462982 0.1002609099144767 0.3038187361074286 -0.055814633428403232 -0.27500958096565448 -0.026578262955505496 0.17268213013894071 -0.12186774155241237 0.05430265390832361 -0.57247432532311959 0.30408406594245907 -3.8296201946126645 0.30873686154884439 0.0016062935722899853 -0.47057520598693831 0.321594328061034 0.0085184785244386777 -0.073208692480440096 0.2275752543292876 -0.44063679017749924 0.3511523617297499 1.1461597430051025 -0.19209156735225436 -2.4991285695255048
leaf_weight=366.27389290956307 824.23133068101129 173.92645850807531 181.42820326146375 545.69579303516753 313.82793538239252 147.29391540054257 672.24722189349529 69.0982554389808 17357.390170648323 1236.4037148123207 483.4762869141997 351.84766287189086 215.39258550336854 1351.8428709995424 1995.3470354348892 1583.6050689333531 347.68575447366595 235.23935111569881 164.76903262473081 1227.3021627553524 611.61734450949973 1789.0597855632041 104.9864160436921 103.90295777774281 965.24056638483808 136.45697971128732 113.33140566354973 578.20889048269964 183.84361501118929 327.80097475922389 375.93654990707955 847.2212089032837 15499.88702008536 110.52550524286926 302.00263820245323 149.16927201416365 1064.0222761773568 152.29127658711604 355.82027254100501 258.42547385142075 423.60434868706398 211.49033022773119 239.15472636467894 514.51997386087533 92.321573835365143 551.10588773911672 571.77833452387711 117.5569217572862 185.61481999169837 211.94645702466369 127.13837409381813 327.0459705718323 137.1583412414551 531.65513826598919 386.81657577902649 265.43615930040175 154.56137625712745 369.36880127672282 2296.991607400098 3610.9138406200686 425.72895821060501 2453.04141735537
leaf_count=2465 156 66 243 4507 1334 512 1081 310 4639 501 50 1854 54 705 3890 1611 401 162 467 1132 1188 2717 36 44 2044 26 251 289 144 413 409 292 11766 49 162 707 2846 35 49 136 97 334 168 913 82 158 4269 32 33 28 24 546 313 756 1842 87 59 2394 1480 398 875 3638
internal_value=-0.000234601 0.0123656 -0.0197757 0.00509871 -0.00405272 0.0103869 -0.00591165 0.00399636 -0.0227914 0.00743473 -0.009796 -0.00872207 0.0211498 0.013823 -0.0117362 -0.0118117 -0.00676636 0.0116334 0.00575544 0.0174383 0.00217046 0.017768 0.0223113 0.00416056 0.0204717 -0.00113313 0.0117381 0.0116658 -0.0177099 -0.00546574 0.00683957 0.015537 0.0229787 -0.0184141 -0.000492695 0.0213047 -0.0111811 -0.00495452 0.00125797 -0.00430069 0.00563458 0.00854231 -0.0065063 0.0102501 -0.0198924 -0.00399669 -0.0103584 -0.00429562 -0.0111451 -0.0195252 -0.00791518 -0.0112015 0.00317653 0.00765478 -0.00772908 -0.010931 0.0136159 -0.00461713 0.012687 0.0220925 -0.0238731 -0.0197774
internal_weight=68079 41390.3 26688.7 22651.5 8295.6 14355.9 4768.13 7694.19 21920.6 6207.35 1684.42 6577.48 18738.8 1718.12 5151.89 3739.48 2953.7 2038.36 648.245 1401.23 1425.59 6661.68 16700.5 4970.95 4872.62 637.132 724.949 985.198 2095.25 511.645 3742 1028.65 15715.3 2198.19 406.989 4725.32 2178.25 1114.22 766.537 614.246 775.452 3366.06 343.058 3023 2087.67 1228.95 1486.84 1644.23 857.862 1036.18 1005.29 878.152 786.37 649.212 700.645 401.893 223.66 941.147 2508.48 4576.15 20236.2 2878.77
internal_count=68269 53498 14771 39718 17224 22494 4918 16116 9853 4946 701 14054 13780 3170 9439 4383 5418 1473 517 1198 4615 6378 12307 4445 3661 275 1439 487 2168 557 3348 535 11820 4021 198 3149 3467 621 220 185 1951 2939 212 2727 3972 1097 11170 2215 1114 184 728 704 1101 788 3176 113 369 6663 1814 2442 9152 4513
is_linear=0
shrinkage=0.05


Tree=10
num_leaves=63
num_cat=0
split_feature=8 30 25 30 21 31 58 68 33 28 4 45 25 29 24 30 65 14 31 45 34 30 29 8 53 53 50 4 47 11 31 40 2 58 21 52 48 28 5 42 53 59 38 28 47 25 34 11 42 11 4 45 14 1 65 66 54 52 48 60 39 46
split_gain=6337.79 1010.24 746.32 295.709 258.302 169.763 133.225 120.101 116.932 128.226 96.3363 91.8462 91.7817 90.7159 119.4 83.2369 77.2599 64.6277 60.07 60.0155 74.7434 59.9639 56.475 54.6192 54.0395 51.7591 50.8721 61.6205 50.6279 48.9622 48.1654 47.4703 46.7155 46.4714 44.5737 44.2698 42.5669 40.3283 46.5726 43.3217 43.2858 40.6348 39.1567 38.3677 35.7086 35.2511 34.7645 34.6997 33.4252 32.4185 35.305 30.141 30.654 29.9822 29.1824 29.1476 28.3386 28.3017 27.945 27.8483 27.8309 27.7521
threshold=-0.5 121.61000000000001 45.035964687292271 99.545000000000016 2643.1250000000005 120.65500000000002 138.45000000000002 53.593750000000007 48.015939150606535 0.45250157787265649 740.12500000000011 1421.0510000000002 24.352745697483048 0.53510520361990965 0.30522848723028856 141.04000000000005 2.6941825831006208 12.220598238056658 93.465000000000018 940.92350000000022 79.462693452380961 0.015000000000000001 0.65468042334328969 -0.38268343236508956 -713.77199999999868 925.2675000000005 3981.6865000000003 1621.3750000000002 108.93750000000001 -41.887856683462125 108.81500000000001 1950.3877500000001 4258.8750000000009 131.30500000000004 4165.1250000000009 0.58516552969802171 222.12500000000009 0.41250201061605279 1.5000000000000002 109.06250000000001 1476.1207500000003 76.365000000000023 1792.9073750000002 0.4971194620569615 62.062500000000007 103.44474860072758 106.83358630952382 -37.998474394173378 151.06250000000003 -43.666204417309473 3200.2500000000005 1205.8112500000002 10.89852869539482 65.382499694824233 0.91861535119550586 19.665625000000006 0.4881293448057909 0.14222778052031268 205.12500000000003 89.765000000000015 525.37500000000011 4336.906500000001
decision_type=2 10 8 8 10 10 10 2 8 8 10 10 10 2 8 10 2 2 10 8 8 10 2 2 8 8 10 10 8 2 10 10 10 10 8 10 10 10 2 8 8 10 8 10 8 8 10 2 10 2 10 10 2 2 2 2 10 8 10 10 8 10
left_child=2 3 43 6 7 15 18 45 9 34 32 37 -12 14 -7 25 19 -18 44 20 -10 -20 -6 -14 -16 42 -21 33 -27 -29 -11 -23 -8 -28 60 -13 -33 38 39 -9 -39 -41 -3 -1 -2 -4 -17 55 -47 -15 -51 52 -38 -32 56 -25 -44 -46 -22 -31 -5 -24
right_child=1 5 4 8 22 13 10 11 16 30 12 35 23 49 24 46 17 -19 21 26 58 31 61 47 -26 28 27 29 -30 59 53 36 -34 -35 -36 -37 51 40 -40 41 -42 -43 54 -45 57 48 -48 -49 -50 50 -52 -53 -54 -55 -56 -57 -58 -59 -60 -61 -62 -63
leaf_value=-3.1655221338013044 0.19598292969330766 -0.073491592709934342 -3.1303528737273201 -0.35751448881921494 -1.1329687566111317 1.172589336405585 -0.029958819923583121 0.27379308215722065 -0.032856442369379728 -0.0053520950785242169 -0.56477116484535628 0.40926740019021468 -2.8535340555037707 0.31909237670820545 -0.06480759846251119 0.88959436398133607 0.21058980636106811 -0.65259517496964592 -3.1235981035562115 -0.039702266869559112 0.065418528539485668 -0.36364656621021857 0.83427929569564585 -0.060369850523508878 -0.069181051847870156 -0.11656699386599251 0.18119823284905154 -0.15615867973919806 0.37777569705040082 -0.22847574093978482 0.1354423227112477 -0.29033202536388031 0.74504991968237999 0.73385125985670718 0.47050270276016593 -1.1116166615717049 -0.51657975720458182 0.42387926094635237 -0.6579870388831921 0.30551461165798205 -0.37113920647401316 -2.6970123678032838 -1.6300455116711625 0.024328147256170496 0.7551422073448455 0.41384720401187858 -0.10630046923355962 0.3688060995046919 -3.9271135314132937 1.7526072622732116 -0.062046647243936749 -0.1988716510655337 0.51315395468073122 0.39183598015022414 0.19258747269990381 0.40963368300472069 0.31412838467396687 -0.71882622358633486 0.57302716399097831 0.12415821904715614 -0.0098740206519366339 -0.69120045478121883
leaf_weight=19986.311486563831 105.58971581673151 253.6334808170997 2441.0539987549864 800.94780814334422 153.51883960310079 1096.5318971061497 213.68368100142152 292.66165235203766 266.05642205476761 762.27354430570631 584.80540529195218 222.66267575163511 261.6281568334731 216.77000859028885 211.22092219844842 2244.6063892059065 490.85382899551337 296.49468117174342 316.3965201886017 164.62941984316512 335.60784077644348 644.15672158615075 1018.1214926015256 338.48215893646363 468.26249820606438 642.69573263568191 729.76560683335219 195.82509409817771 824.83366601732973 92.974366927154506 577.52194817196687 232.69177121567759 687.83636368390557 860.53559701659378 116.90286195533986 1309.3336854290924 123.93460418122618 497.94006232050413 558.223954611409 385.43610869690269 184.65279513628786 258.46732557814471 86.137939172448228 87.605721354972047 68.931221604623303 100.28464912735349 75.181044865015792 532.52678314997604 59.539824454646393 15079.14468813536 127.1378452144545 333.42646924808741 830.91732800791647 787.39578638159855 1525.8936782595192 109.04907570193188 106.64200209348553 2081.5650188343134 2787.5072206111809 438.38715457439412 293.78431611406563 65.071721765438156
leaf_count=9547 84 19 5392 755 1959 949 13 148 21 2328 110 630 78 728 13 884 932 150 50 136 30 2785 1282 86 221 180 1962 103 642 151 698 698 158 344 813 848 879 403 520 211 161 48 16 596 325 186 545 216 78 9242 36 1360 898 1692 1686 77 83 11031 301 547 600 706
internal_value=-0.000477833 0.0121364 -0.0189381 0.00307301 -0.00553378 0.0190302 -0.00445627 -0.00962882 0.00869551 0.00105912 0.00434583 -0.00385279 -0.00225533 0.0215183 0.0108174 0.0116005 0.0125246 -0.00218284 -0.00952471 0.0144969 0.018823 -0.00415639 0.0153609 0.00543666 -0.00565171 0.00666436 0.00858985 0.0104977 -0.000445944 -0.00155934 0.00845421 -0.00118521 0.0177199 0.0160109 -0.011924 -0.0132325 0.00363288 0.00274672 -0.00185159 0.00496207 0.0128164 -0.00228774 0.0119549 -0.0239775 -0.0154294 -0.0178666 0.0189199 0.0108548 0.00488244 0.0227505 0.0230242 0.00718782 0.0117072 0.0140768 0.0146613 0.000592035 -0.0036688 -0.0168233 0.0209903 0.00631686 -0.0150579 0.0193834
internal_weight=68042.7 40421.8 27620.9 17463.1 7546.97 22958.7 7465.62 6310.26 9997.46 3338.83 2728.01 3709.38 1826.49 17199.1 1776.02 5759.62 6658.64 787.349 4737.61 5871.29 3389.17 2481.52 1236.71 1241.69 679.483 3439.84 2482.12 2317.49 1467.53 727.187 2127.19 2165.13 901.52 1590.3 1211.63 1532 1520.97 2177.38 1494.79 936.565 682.593 643.903 1972.31 20073.9 2256.09 2600.88 2319.79 980.058 159.824 15423.1 15206.3 1288.28 954.852 1364.92 1718.67 447.531 192.78 2150.5 3123.12 531.362 1094.73 1083.19
internal_count=68370 45655 22715 30411 12572 15244 18848 8625 11563 6886 738 2969 567 11189 1183 4055 4677 1082 18110 3595 352 6670 3947 457 234 2626 3243 3107 822 801 4718 6620 171 2306 2168 1478 3835 1491 927 407 564 259 1804 10143 11440 5656 1429 379 264 10006 9278 3137 1777 2390 1785 163 99 11356 331 698 1355 1988
is_linear=0
shrinkage=0.05


Tree=11
num_leaves=63
num_cat=0
split_feature=3 31 28 28 19 7 24 29 38 9 29 21 27 24 59 11 24 66 40 38 54 6 31 61 66 33 32 44 9 6 21 31 21 48 65 63 40 35 19 7 33 55 67 44 38 58 64 2 43 31 66 51 7 61 66 66 11 21 38 39 22 31
split_gain=6070.91 783.258 542.022 340.491 261.037 237.342 221.567 167.695 166.467 141.905 126.801 116.669 109.689 103.147 101.445 99.7278 76.0075 90.3831 72.5597 66.3592 62.4318 61.718 53.7455 51.4405 50.2003 54.0473 50.1491 49.627 47.897 46.7 45.9513 45.0416 44.8249 43.6259 42.3743 41.0409 40.597 39.5349 73.524 39.044 33.7766 32.9269 31.68 31.2028 30.8959 41.352 35.8398 36.4631 58.9414 30.1688 38.0976 28.7521 28.6649 28.4329 27.74 26.4208 26.0375 38.499 25.6536 25.2669 24.7114 24.5322
threshold=2201.7500000000005 114.79500000000002 0.26870563186826901 0.47650605258984008 95.076600646972665 -0.72947329433276231 0.17260778971662002 0.74971560650887581 1673.0897500000003 0.99906486341235867 0.74993750000000003 3230.1250000000005 503.28125000000006 0.143455157206378 -4.4899999999999869 -46.073788984535007 0.29819862167167088 11.040625000000004 3773.14075 1902.6286250000005 0.12002598455559026 1.0000000180025095e-35 93.465000000000018 60.570000000000007 23.403125000000006 36.543833914106045 77.387604166666691 783.4446250000002 0.99551215362393841 1.0000000180025095e-35 3060.1250000000005 92.77500000000002 3889.3750000000005 256.12437500000004 1.8349046296742515 -15.775000000000002 2503.8095000000003 47.223303978515411 135.60467250823976 0.93540483100319627 29.859763862230974 140.50500000000002 6.2063706344616323 850.27750000000003 3173.5271250000001 101.36500000000002 14.578125000000002 4356.3750000000009 3691.5340000000001 89.565000000000012 19.221875000000004 4498.5036250000003 -0.47114434510950071 -5.9049999999999976 7.5281250000000011 24.503125000000008 -24.742614863833751 2131.8750000000005 1533.4505000000001 1449.1842500000002 0.49766183312797313 120.00500000000001
decision_type=10 10 10 10 2 2 8 2 10 2 2 8 2 10 8 2 10 2 8 10 8 2 10 10 2 10 10 10 2 2 10 10 10 10 2 10 8 8 2 2 8 8 2 8 8 8 2 10 8 10 2 10 2 10 2 2 2 10 8 8 8 10
left_child=1 4 19 6 22 12 55 8 11 10 37 29 21 43 -8 -5 -17 -18 26 -2 -12 -4 -1 -11 32 -26 -19 39 30 56 34 -21 35 -14 -16 -15 -23 38 -7 -13 -37 53 -35 -10 46 -46 47 48 -42 -49 59 -29 -20 -22 -39 60 -6 -58 -44 -51 -3 -28
right_child=2 3 5 15 7 9 14 -9 13 23 20 27 33 24 28 16 17 18 52 31 41 36 -24 -25 25 -27 61 51 -30 -31 -32 -33 -34 42 -36 40 -38 54 -40 -41 44 -43 58 -45 45 -47 -48 49 -50 50 -52 -53 -54 -55 -56 -57 57 -59 -60 -61 -62 -63
leaf_value=-0.57344675904483255 -3.0072460271112393 0.72967808038679183 0.76566603300674962 -0.031456888550016208 -0.13432002872452317 -1.6893459965914261 0.57244128538628658 0.71483895265567066 0.3402508028731589 -0.010280248924087944 0.22186657786128522 -0.037717153526081404 0.19986917773940666 0.36836706675649256 -0.14293530308889177 1.6649768991595508 -0.19871928020514065 0.018387534229527349 0.54497720433533203 -1.6583796510111128 0.12264469572784194 0.31545989822023301 -0.097748293869319269 0.050823014356129861 -0.082444765717963983 0.44100980678576679 0.22735226752764817 -0.17451044675997801 -0.31019950408420771 -2.8284176691043541 0.26858192399177766 0.98513067721230319 0.51338672909241223 0.27917869808089008 -0.0025490694338436621 -0.46618617168683374 -1.7843229538897554 0.15768994140859294 0.45340353073658052 0.3629435685491828 -0.12382314542146844 0.21730521926033292 -3.0062460271335909 -0.038443800720730795 0.35938117693390897 -0.11151487118712698 -0.098734571788994432 0.20719039392928515 0.22622835682343734 -0.12917251039319097 0.36878237808757369 0.24601306579814042 -0.4244972849392511 -1.4346829492578508 -3.0067460271224151 -0.12854043559047526 -1.176522047581906 0.24665296876871931 -0.091899803607636707 0.7914337993696009 -1.0607743930846851 0.9930850228542728
leaf_weight=1430.830345927259 17682.789685082542 1771.2714356216186 1232.3390841684877 326.89851631343117 404.31211590669682 582.42691367177429 485.09067756061938 1507.6340890315423 2106.3238859217113 634.65154806524515 510.81160311326323 408.88526902879187 85.952036635019226 550.72037242596116 286.29540573295753 13997.195518463515 193.49568767911842 331.65574359350921 164.7703957937326 378.09249658273598 47.852750783926467 119.64299734795497 1342.5154812605035 244.69361400604248 98.791434437960447 601.54511238930638 259.78841753670531 46.58882973715663 1149.2678641676903 861.83843679234064 499.10082509289805 141.33403580312756 828.58767344419448 212.76424613306938 291.74074497638685 290.94689439438815 258.5768141842085 133.45872523323578 216.46460133558139 164.7669432623079 81.939579473294543 59.034139214199854 476.39440265404846 223.33261572479887 123.92457842613672 914.91141433443534 347.04171655532309 284.86271613340148 616.22819260961501 609.71817225153393 277.38227254724472 514.73472030400592 232.44860108304536 397.94473429794175 4785.6459073029646 33.975063323974609 183.16448866134448 295.36057923428183 153.46728007620823 77.206551247913126 31.114817378977932 4440.1204684028735
leaf_count=12437 7960 1905 476 1333 476 3031 897 579 1681 126 111 141 14 534 100 9652 102 570 112 1981 41 32 7325 16 444 244 196 30 99 404 958 952 935 600 423 613 59 508 152 29 30 72 114 754 87 671 929 129 281 138 60 309 304 208 2696 2 70 60 684 132 21 2341
internal_value=-0.000538019 0.0120856 -0.0182077 0.0176178 0.00316725 -0.00895104 0.00527199 0.00626404 0.00410466 -0.0133662 -0.0158331 -0.00620967 0.00428669 0.0078019 -0.00381027 0.0204327 0.0208891 0.0159786 0.0171755 -0.0233705 0.00044706 0.0121776 -0.0107021 0.00552403 0.00418106 0.0167189 0.0187997 0.00626826 -0.00832456 -0.014327 -0.000749304 -0.00575591 0.00242614 -0.00939964 -0.0103455 0.000317795 -0.00549009 -0.0187248 -0.00840815 -0.00407407 -0.0016147 -0.0120227 -0.012861 0.016667 -0.000188601 -0.00734259 0.00305054 0.00568863 0.0148404 0.000573635 -0.00364963 0.0168377 -0.00339776 -0.0166695 -0.0204002 0.0186825 -0.00624456 0.00164831 -0.0184957 -0.00996496 0.0195059 0.0201257
internal_weight=68042.7 39688.3 28354.3 24494.2 15194.1 10152.1 4547.86 12420.7 10913.1 7612.98 6733.64 2879.65 2539.14 8033.46 2711.5 19946.4 19619.5 5622.28 5428.78 18202.2 1015.64 1610.56 2773.35 879.345 5703.81 700.337 5031.56 1134.98 2226.4 1744.68 1077.14 519.427 5003.47 928.578 578.036 4174.88 378.22 5718 798.892 573.652 3624.16 504.832 842.626 2329.66 3333.22 1038.84 2294.38 1947.34 698.168 1249.17 964.307 561.324 397.219 445.797 4919.1 1836.36 882.837 478.525 629.862 686.925 1802.39 4699.91
internal_count=68370 48537 19833 19015 29522 8940 4405 9760 9181 6961 6819 1519 1979 7662 2477 14610 13277 3625 3523 10893 432 567 19762 142 5227 688 3107 509 1580 1010 1481 2933 4539 1412 523 3604 91 6387 3183 170 3070 321 1398 2435 2457 758 1699 770 311 459 330 339 416 249 3204 1928 606 130 798 270 1926 2537
is_linear=0
shrinkage=0.05


Tree=12
num_leaves=63
num_cat=0
split_feature=21 30 25 28 14 22 7 54 21 25 33 7 29 52 21 61 29 4 7 62 31 42 43 48 20 29 29 28 41 39 33 45 53 34 19 41 52 39 54 45 5 21 48 48 0 53 64 2 26 4 30 40 43 43 49 25 7 48 69 2 25 54
split_gain=5913.02 1006.39 678.589 288.446 206.617 199.996 199.031 177.186 112.645 118.924 143.825 107.323 96.1372 89.3069 87.4995 81.859 78.2756 77.0962 76.4152 80.5135 72.9596 65.8771 62.7085 58.113 57.1557 67.6511 59.6131 56.6039 51.1924 49.9017 51.4608 46.4492 45.3394 44.5335 40.846 39.1362 39.0969 36.9586 35.0652 34.2633 32.844 31.5351 39.4402 31.4898 31.4686 31.2601 31.0885 33.0286 30.9067 30.9051 30.4494 32.7324 30.2591 32.3976 33.2195 29.8881 29.5405 34.6613 47.2992 29.0868 28.309 27.4222
threshold=1570.1250000000002 132.20500000000001 59.441308712505595 0.43206407643507749 11.926417043649321 0.091524023068869295 -0.72947329433276231 0.28252942336049541 3997.1250000000005 25.133933218991256 64.703314772825806 0.97335555334614954 0.74993750000000003 0.9130291244709583 4640.2500000000009 15.110000000000005 0.53510520361990965 1810.6250000000002 -0.16280825711808977 104.06500000000001 110.80500000000002 97.062500000000014 7758.1561250000022 220.12500000000006 2010.1250000000002 0.59459424198526201 0.66512500000000008 0.49405266732060671 71.125000000000014 151.12500000000003 43.706071214271496 948.89525000000015 -619.91650000000016 96.49481398809526 92.275525436401381 10.125000000000002 0.60881853878185688 166.31037500000002 0.021438757213884847 814.51637500000015 4.5000000000000009 2434.6250000000005 213.81500000000003 199.00100000000003 50.079500198364265 1692.0000000000016 13.603125000000004 4340.1250000000009 0.625097394480992 3200.2500000000005 103.075 2605.9437500000004 4262.2697500000022 4018.2353750000007 4467.3430000000008 75.490296371359577 -0.8814490726585632 322.00050000000005 15.904909412312023 5819.1250000000009 11.672442837203663 0.51044578559977583
decision_type=8 10 10 8 2 10 2 10 8 8 10 2 2 10 8 10 2 8 2 8 10 10 10 8 2 2 2 10 8 8 8 10 10 10 2 8 10 10 10 8 2 10 10 8 2 10 2 10 10 8 10 10 10 10 10 10 2 8 2 10 10 10
left_child=2 3 7 5 14 35 45 12 9 10 11 43 56 15 34 22 17 -3 19 44 37 27 28 -18 25 29 -26 39 -8 -20 -31 -12 -19 48 -5 -2 -33 -9 -15 -11 -13 -36 -43 -6 -7 -4 -23 -48 -30 52 -41 -52 53 -25 -55 -28 57 58 -1 -27 -32 -10
right_child=1 16 6 4 8 18 13 20 61 21 31 40 -14 38 -16 -17 23 32 24 -21 -22 46 -24 49 26 59 55 -29 33 30 60 36 -34 -35 41 -37 -38 -39 -40 50 -42 42 -44 -45 -46 -47 47 -49 -50 -51 51 -53 -54 54 -56 -57 -58 -59 -60 -61 -62 -63
leaf_value=1.0044230365020788 -0.045209690920378166 0.88118383170304149 1.0165586621018001 -0.49246570906200948 0.030969000900732759 -0.83675757206013446 -0.10538872336349457 -2.6566662103163687 1.2616479756638022 -3.3531404876740618 0.20055111446048426 0.60026016790488923 0.067885571897917885 0.12499685755576272 0.6491170351548462 -2.4859605379093432 -0.13133018342440986 -0.0037232922123734552 -0.066978803363579684 0.46836120351522725 -0.74109768170966361 -0.20138971773868064 -3.1835207292688303 0.50860905806546841 -2.860415044001833 -0.32412878917404342 -0.1732820942648762 0.38804941508435853 0.053329650327951589 -0.31630317173334532 -0.057274015694267183 0.05303813125188768 -0.050568530587390442 0.39881041801885647 -0.16590117691229125 0.28776837029143537 -0.051123087291788862 0.057888023943656469 -0.26230237204790186 0.39754432588041272 -0.59992792585934396 -0.93457712100179435 0.12761373663565437 -0.092860879175853492 0.42954771308803719 -0.21341844467741417 -0.44773295328299723 0.46194195441743419 -0.89843254050152321 -0.029574991951752096 0.0018543122688649773 -0.094463884243159726 1.6107281457543081 0.60357774902546135 -0.14194780448020339 0.49440909668461402 -2.8568837257556776 -2.8858708972902209 -3.158224553333326 2.7865064946370768 0.16996879907032572 0.46043728791019378
leaf_weight=112.52882446348917 51.269221791917204 1473.4787411648808 935.31228422439017 759.66047687997025 53.706838419667065 546.81151171027682 455.93327278323125 531.9987528043132 2066.0748670448684 169.83134269714174 888.88143348693848 400.54436091238063 206.32577551616123 384.10975942801997 806.17431500309249 1484.8935957933068 96.431676503762759 105.07984244413274 673.69180588196127 507.80762474009157 346.30852116762992 239.46182973776001 517.94601683213705 397.12832351168822 1607.3071520639112 1000.1463025956326 273.18981579845138 3022.8749768109992 472.15314336012358 302.07261685017971 60.713496411624192 237.69480822740275 454.69916854910161 498.55393199743617 698.09924332460969 920.22316239422742 110.25135040283203 313.45809918103225 149.79247498743462 600.60163295734674 48.235829783603549 175.87477337137238 1493.4202270958424 1519.3768831165446 180.56349961085652 160.60521733429323 102.95467030571047 745.01598083373028 236.2446673967367 97.951811043527414 214.17681784927845 250.96639113128185 15046.145341226653 88.062782287597628 207.4656370617902 102.67389956177283 19800.365005823307 785.10536657672606 169.77721177972853 44.878882445937165 1080.2848167834168 559.29417660081526
leaf_count=25 97 1134 442 6036 9 2967 681 1486 1140 9 40 326 68 51 2761 1530 41 8 1557 1160 190 211 618 82 4772 1400 660 493 413 1230 112 108 279 572 1386 1239 8 412 101 127 61 783 3826 1476 63 43 276 2049 176 42 32 46 11576 3 82 210 7847 183 49 117 1099 2350
internal_value=-0.000553209 0.0116089 -0.0184165 0.00456643 0.00850706 -0.00356134 -0.00232901 -0.0222426 0.0119612 0.00919513 0.00166628 -0.00654942 -0.0233033 -0.00728076 -0.0013551 -0.0100634 0.0204342 0.0111955 -0.0067794 0.00438847 -0.0034864 0.0137845 -0.00389802 0.0216131 -0.00946054 -0.00528682 -0.0161147 0.0165893 0.000833854 -0.000147945 0.00509745 0.0150966 -0.0046007 0.00622582 -0.00514166 0.0175728 -0.000390476 -0.0114041 0.0118246 0.00757271 0.015018 -0.0019046 0.00182725 -0.0127023 -0.00627772 0.0166464 0.00280071 0.00729329 -0.00183141 0.0218488 0.0108965 0.00129292 0.022023 0.011805 -0.000730246 0.00181176 -0.0236391 -0.0155367 -0.000511136 -0.0156959 0.00995568 0.021027
internal_weight=68042.7 40481.3 27561.4 22514.8 15163.2 7351.63 5295.54 22265.9 11229.9 8604.58 3258.69 2021.86 21074.1 4199.63 3933.23 3665.72 17966.4 2033.26 6380.14 1235.18 1191.77 5345.88 2180.83 15933.2 5144.96 3161.79 1983.17 4258.45 1662.89 2116.76 1443.07 1236.83 559.779 1206.95 3127.05 971.492 347.946 845.457 533.902 1235.58 448.78 2367.39 1669.3 1573.08 727.375 1095.92 1087.43 847.971 708.398 15836.8 1065.74 465.143 15738.8 692.657 295.528 375.864 20867.8 1067.41 282.306 1045.03 1141 2625.37
internal_count=68370 53483 14887 40236 23553 16683 4627 10260 8761 5271 2028 1872 8172 4142 14792 3990 13247 1421 15347 4190 2088 3243 2460 11826 11157 5515 5642 707 1842 3998 2441 156 287 1161 12031 1336 116 1898 152 214 387 5995 4609 1485 3030 485 2536 2325 589 11785 205 78 11743 167 85 870 8104 257 74 1517 1211 3490
is_linear=0
shrinkage=0.05


Tree=13
num_leaves=63
num_cat=0
split_feature=22 31 25 7 7 29 54 11 20 19 52 5 32 24 25 4 48 56 5 52 61 54 48 18 25 52 22 42 10 45 25 31 66 56 39 62 32 52 68 11 21 7 68 27 59 64 55 8 31 39 66 45 61 2 7 47 3 0 18 67 47 63
split_gain=5746.16 793.41 595.514 282.53 261.903 255.06 195.698 180.316 164.338 131.71 128.43 116.187 110.608 107.77 111.131 93.6493 80.8896 75.8166 78.1269 77.0495 70.984 66.4127 62.2975 62.2302 66.3412 61.4202 54.9346 52.394 49.7069 49.6251 45.6582 45.2786 43.7344 45.3413 47.6653 43.3654 49.1178 41.4291 40.8599 39.579 38.6475 37.0693 35.5275 35.0693 33.1329 33.0367 32.9306 49.7537 32.9031 32.8331 31.1263 31.0862 31.0669 30.5015 30.0273 29.8632 29.7599 29.6849 28.863 28.0213 27.7106 27.5529
threshold=0.72566226392341526 115.47500000000001 24.352745697483048 -0.58216583101416131 -0.16280825711808977 0.74971560650887581 0.36235532987419211 -44.828146289225252 3054.1250000000005 108.69944828033449 0.65329876370875162 4.5000000000000009 143.30229166666672 0.29588584008132829 53.65759652733697 475.12500000000006 222.12500000000009 111.355 4.5000000000000009 0.37165456806618524 6.3699999999999948 0.087272896676794651 266.04000000000013 1.5000000000000002 13.115471068972205 0.42342355697695261 0.52418466805571728 72.125000000000014 0.13300977955191609 1458.0350000000001 91.462790369817313 108.55500000000002 8.8281250000000018 139.00500000000002 1317.1026250000002 113.25500000000001 100.26098958333334 0.34081267434547508 6.2812500000000009 -39.580829495842259 3386.3750000000005 0.5277851165098012 57.468750000000007 469.56250000000006 16.605 11.465625000000003 126.45500000000001 0.41248606129204557 108.81500000000001 1211.1125000000002 24.328125000000007 1049.0348750000003 -69.914999999999978 4340.1250000000009 0.93540483100319627 68.062500000000014 2899.6250000000005 32.438999176025398 5.5000000000000009 13.825085706104243 80.687500000000014 2.5900000000000021
decision_type=10 10 8 2 2 2 8 2 2 2 8 2 8 8 10 10 8 10 2 8 10 8 8 2 10 8 8 8 2 8 10 8 2 8 8 8 10 10 2 2 8 2 2 2 10 2 10 2 10 8 2 10 8 10 2 8 10 2 2 2 10 10
left_child=1 5 10 30 13 6 11 42 17 40 31 16 20 50 32 60 -1 21 -19 -20 22 -9 44 -17 -25 39 46 51 -24 55 52 43 -15 34 -34 36 61 59 -29 -23 -8 -39 -6 -2 -5 -37 47 -18 -43 -7 -3 -13 -4 54 -27 -30 -33 -42 -10 -38 -11 -26
right_child=2 4 3 12 7 49 9 8 58 15 -12 27 -14 14 -16 23 26 18 19 -21 -22 25 28 24 35 53 -28 38 29 -31 -32 56 33 -35 -36 45 37 41 -40 -41 57 48 -44 -45 -46 -47 -48 -49 -50 -51 -52 -53 -54 -55 -56 -57 -58 -59 -60 -61 -62 -63
leaf_value=-0.29948884865604558 -0.55281502916579661 1.5553581150645557 0.70806078824875418 -0.072937849636231539 -0.12702521362369076 0.6328500185653726 -0.32891607351285757 -2.8582958263035891 -2.7291754823681309 -0.044382718966240291 -2.7140395394678936 -0.12760051211900353 0.041547172939434697 -0.094743786905347155 1.1977859660709187 -0.037843903846584592 0.3330513775269644 0.87897229869973403 0.73623146720472621 -0.27453687863146697 -2.3199250121577331 -0.1482470582562681 -1.4026895657893044 -1.0271545864157401 0.34572660041051512 -0.063159501587962977 -0.24167746878625496 0.007527808667970249 -0.97712116849321196 -1.1087461491097863 0.95941363246458544 -0.45862624058458579 0.1476019982961283 0.37552103739967113 -0.046898945239437287 0.084252211308063402 0.141407514273415 0.14765196726526852 -1.2939397338214633 0.020314867922072467 -0.34604398524281521 -0.21237100719789492 0.21833856157295983 -2.902965299126111 0.2922606707844132 0.40037794472099153 0.25880017809363814 -0.084252861922099243 0.13192278822996714 -0.34045702903496822 -0.16617260539610329 0.50045721162140855 0.090640247334334845 1.2642522251404202 0.17444939061930356 0.55829203542333017 0.80547648163430774 0.20216579335061768 0.16027809837890034 -0.17866668547743317 0.33476883439869953 0.024275634717189749
leaf_weight=627.30035719838975 435.80872427087746 12017.648004852808 191.85194942258585 264.09417041886991 562.50102315073559 1639.7950692033758 1178.5126030077242 171.26585203117338 362.92289529883169 160.14805750667847 18708.315010040209 49.197935831930465 414.36684344960213 185.30766273557697 2573.5909613919957 842.6545529997411 456.95309980472041 3916.0921758446325 280.29297879330534 311.15840372186949 2731.619488594331 150.79421209831708 792.01033531140615 158.22239996640474 743.62068902658257 82.694619406295175 1495.8907775742928 99.889011550879786 97.528824142860344 239.97743338861392 550.25438098371978 102.47714528946051 653.84780611407155 1005.9428233119031 324.04264481416681 861.97353259301281 443.74170172828997 104.76034232636914 1975.4803291761523 655.31341088350405 276.23233229629795 377.23365360199682 177.92037479550459 473.50204116411402 242.43150715040429 970.33937974536548 864.78740601570621 314.47687310472622 36.787915040246162 64.607274737245234 73.599576916514707 136.37846052646637 972.50161791787536 676.5784923811334 132.35499725860822 208.17979905223967 171.56650518081358 1068.0208557251824 200.70485036511286 62.481637489797549 1454.4439561879885 467.67253396647334
leaf_count=1099 264 9973 64 419 457 1003 7762 24 147 14 5313 83 333 27 1786 220 1410 2122 235 187 3306 58 1431 68 197 34 3312 415 80 389 96 30 603 611 226 301 415 335 2124 925 5656 370 435 513 157 326 434 520 61 476 221 36 1637 758 111 681 59 6347 695 101 728 150
internal_value=-0.00065515 0.0109845 -0.0187935 -0.0059067 0.0167337 0.00266031 0.000607167 0.00908263 0.011585 0.00519079 -0.0231372 -0.00640251 -0.011923 0.0202246 0.0138369 0.00886482 -0.00101581 0.0138724 0.0173831 0.000444937 -0.0141631 0.00540554 -0.00658398 0.00552479 0.00799825 0.00839912 0.00226647 -0.0153593 -0.0122388 -0.000627191 0.0116033 -0.00716273 0.00550007 0.00766993 3.27166e-06 0.00923353 0.00456098 -0.0034944 -0.0176353 -0.00160286 -0.00454356 -0.0134242 -0.0143724 -0.012532 0.00835004 0.0149363 0.00859794 0.00108766 -0.0201473 0.0210031 0.0227302 0.0100945 0.00599427 0.0174418 0.00103855 0.012732 0.0106531 0.00125098 -0.0142942 0.00668169 0.0193518 0.0113775
