tree
version=v4
num_class=1
num_tree_per_iteration=1
label_index=0
max_feature_idx=70
objective=quantile
feature_names=volume_mainland_mwh gen_lignite_mw gen_gas_mw gen_hydro_mw gen_renewables_mw production_total_mw load_hv_mw load_mv_mw load_lv_mw system_losses_mw demand_total_mw gen_crete_conventional_mw gen_crete_renewables_mw load_crete_mw athens_temperature_2m athens_wind_speed_100m athens_wind_direction_100m athens_cloud_cover athens_shortwave_radiation athens_direct_radiation athens_diffuse_radiation thessaloniki_temperature_2m thessaloniki_wind_speed_100m thessaloniki_wind_direction_100m thessaloniki_cloud_cover thessaloniki_shortwave_radiation thessaloniki_direct_radiation thessaloniki_diffuse_radiation patras_temperature_2m patras_wind_speed_100m patras_wind_direction_100m patras_cloud_cover patras_shortwave_radiation patras_direct_radiation patras_diffuse_radiation crete_temperature_2m crete_wind_speed_100m crete_wind_direction_100m crete_cloud_cover crete_shortwave_radiation crete_direct_radiation crete_diffuse_radiation ttf_eur_mwh eua_eur_t load_forecast_mw forecast_solar_mw forecast_wind_onshore_mw hour minute_of_day dow is_weekend month doy sin_tod cos_tod sin_doy cos_doy load_total_mw res_share net_export_mw ccgt_srmc_eur_mwh res_total_forecast_mw residual_load_forecast_mw gas_share_production dam_price_eur_mwh_lag96 dam_price_eur_mwh_lag672 dam_price_eur_mwh_rollmean96 dam_price_eur_mwh_rollstd96 dam_price_eur_mwh_rollmean672 dam_price_eur_mwh_rollstd672 mtu_15m_active
feature_infos=[3546.3240000000001:12957.556000000002] [10:1779] [108:5562.3070000000007] [0.001:2814.2649999999999] [372.81400000000002:9485.9699999999993] [1833.674:12897.556] [366.88299999999998:1384.9590000000001] [597.77600000000007:2349.8620000000001] [1608.3210000000001:7247.697000000001] [5:359.5] [3223.8159999999998:11315.18] [5:548] [2:226] [174:759] [-0.10000000000000001:41.200000000000003] [0:62.100000000000001] [0:360] [0:100] [0:984] [0:851] [0:432] [-3.8999999999999999:39.5] [0:63] [0:360] [0:100] [0:954] [0:809] [0:423] [2.7000000000000002:40.399999999999999] [0:80.400000000000006] [1:360] [0:100] [0:977] [0:852] [0:418] [3.8999999999999999:44.700000000000003] [0:74.299999999999997] [0:360] [0:100] [0:1007] [0:880] [0:409] [22.934000015258789:61.852001190185547] [49.665000915527344:86.629997253417969] [3154:10815] [0:7730] [47:3603] [0:23] [0:1425] [0:6] [0:1] [1:12] [1:366] [-1:1] [-1:1] [-0.99999073973619013:0.99999073973619013] [-0.99996295911626554:1] [2859.1590000000006:10314.68] [0.058906241606852226:0.95321652084771291] [-2675:2558] [64.244050369262695:145.8910524368286] [0:10436] [-4424:8815] [0.010922671430569587:0.8515361841156347] [-50:942] [-50:942] [22.290312499999999:235.79083333333332] [0:219.34180354638778] [48.745773809523811:183.97595238095241] [12.446760825727464:158.98514087468882] [0:1]
tree_sizes=5341 5530 5539 5513 5518 5519 5555 5564 5533 5525 5555 5525 5543 5530 5535 5554 5564 5535 5555 5564 5564 5524 5566 5566 5577 5615 5605 5588 5589 5582 5623 5600 5654 5617 5638 5600 5634 5622 5621 5671 5607 5638 5621 5586 5667 5651 5646 5620 5672 5674 5666 5624 5663 5667 5669 5695 5669 5679 5670 5645 5687 5639 5645 5661 5658 5686 5685 5700 5668 5683 5673 5676 5691 5632 5684 5725 5700 5696 5715 5685 5699 5703 5651 5676 5666 5670 5691 5647 5676 5726 5722 5692 5688 5720 5701 5708 5703 5677 5713 5714 5679 5649 5671 5690 5702 5673 5698 5707 5690 5682 5723 5753 5702 5670 5688 5663 5716 5660 5700 5676 5746 5686 5669 5681 5684 5732 5702 5688 5741 5759 5696 5678 5709 5711 5670 5732 5700 5690 5689 5660 5718 5663 5720 5694 5670 5660 5665 5717 5669 5714 5683 5707 5682 5704 5711 5664 5688 5653 5690 5726 5676 5679 5701 5710 5687 5679 5729 5682

Tree=0
num_leaves=63
num_cat=0
split_feature=64 9 65 65 62 63 64 65 54 64 42 14 58 68 1 1 9 9 65 10 19 62 30 7 4 11 65 9 62 52 9 52 68 18 68 3 35 58 43 35 18 32 11 59 11 37 67 17 51 65 22 22 5 64 21 59 11 29 65 7 13 63
split_gain=2284.71 263.354 209.344 75.3089 65.7092 45.1844 44.4581 44.1519 36.5688 28.6618 22.5243 20.3466 19.5985 21.2599 19.552 19.4082 18.6753 18.0228 14.7258 14.5384 15.4908 14.5123 13.9141 13.693 15.9872 13.6839 12.7127 15.0917 12.6416 11.6066 11.0976 11.0084 10.1818 9.82082 9.59549 9.51998 9.27342 9.19016 9.32573 8.98006 8.9783 8.8421 9.13142 8.55446 8.46568 8.32332 7.98228 12.1893 10.2417 7.53565 7.45336 7.28028 7.09654 6.96557 10.8566 6.88484 6.74094 6.7197 6.67498 6.35537 6.278 8.4464
threshold=152.86500000000004 171.06250000000003 152.70500000000001 131.00500000000002 3728.6250000000005 0.48623058887785969 126.77500000000002 146.14000000000001 0.68322629814330826 188.68500000000003 28.167499542236332 8.4125000000000032 0.27146563703433157 138.8875297619048 758.30250000000012 913.20987500000012 166.06250000000003 210.81250000000003 200.00500000000002 6278.4583750000011 303.12500000000006 5518.1250000000009 259.12500000000006 1277.3240000000003 1965.8724999999999 251.12500000000003 127.91000000000001 215.06250000000003 3094.8750000000005 30.500000000000004 201.43750000000003 348.50000000000006 113.89145089285715 364.12500000000006 97.346770833333352 224.62500000000003 26.212500000000006 0.43323691156320271 62.244998931884773 15.612500000000002 0.62500000000000011 312.12500000000006 198.62500000000003 -301.86437500000005 332.62500000000006 323.12500000000006 45.216366435090983 49.125000000000007 1.5000000000000002 110.34500000000001 13.312500000000002 11.412500000000003 5116.4051250000002 182.57500000000002 9.7125000000000039 -912.00000000000057 356.12500000000006 25.087500000000006 283.63000000000005 1240.8835000000001 381.37500000000017 0.5428653566477003
decision_type=10 10 10 10 10 10 10 10 2 10 10 10 10 10 10 10 10 10 10 10 10 10 10 10 10 10 10 10 10 2 10 2 10 10 10 10 10 8 10 10 10 10 10 10 8 10 10 10 2 10 10 10 10 10 10 10 10 10 10 10 10 10
left_child=2 3 6 23 60 11 49 15 10 21 -6 28 18 45 26 19 -16 22 30 -3 46 29 33 -2 25 40 -8 -28 -5 -7 36 52 -18 53 -26 39 43 38 -13 59 -25 42 -34 -12 55 -14 48 -48 -21 -1 -24 -23 -11 54 -9 -37 -54 -30 -56 -31 -4 -62
right_child=1 7 4 5 8 9 14 17 -10 31 12 37 13 -15 16 -17 32 -19 -20 20 -22 51 50 24 34 -27 27 -29 57 35 -32 -33 41 -35 -36 44 -38 -39 -40 -41 -42 -43 -44 -45 -46 -47 47 -49 -50 -51 -52 -53 56 -55 58 -57 -58 -59 -60 -61 61 -63
leaf_value=157.2390022277832 159.70550231933595 160.52550166547161 159.3825017533396 160.33800201416017 159.63485240420204 159.78710207738951 159.18300247192383 165.0898021997873 160.40450210571288 162.81750259399413 161.48050231933593 162.05350265502929 160.56440119728941 166.07050170898438 159.91525126689567 173.05250244140626 168.90580019183108 175.59300231933594 167.49949972749201 161.91450195312501 161.97300262451171 162.66650205493025 165.4054977741238 162.24975224679665 161.68345171748351 159.38150253295899 159.90600204467773 162.43800201416016 161.85570194773646 159.86240183649096 164.84550170898439 161.01340212736105 161.5785026550293 163.57400100851083 159.37035232265916 160.10500259399413 159.98150253295898 159.67400207519532 161.25890151963159 160.01555199659961 167.76649765038565 159.31325193220437 166.09050292968749 163.36620083396275 160.50400238037111 162.10505111623979 164.32150268554688 159.77200241088866 163.82000198364258 158.63600234985353 169.36050262451172 164.05899947416711 167.75040250346757 167.70550231933595 162.49600219726562 163.6608017488299 160.74100265502929 161.35850219726564 170.10600280761719 162.28684973546279 160.00550231933593 162.02805162955556
leaf_weight=41046 565 126 921 44 128 93 3244 274 472 93 101 38 349 88 292 176 45 1186 306 37 88 176 81 86 112 47 1728 77 45 53 100 45 85 41 234 47 78 219 522 118 103 42 48 202 60 30 223 59 196 8934 51 111 655 803 292 443 31 106 44 82 345 58
leaf_count=41046 565 126 921 44 128 93 3244 274 472 93 101 38 349 88 292 176 45 1186 306 37 88 176 81 86 112 47 1728 77 45 53 100 45 85 41 234 47 78 219 522 118 103 42 48 202 60 30 223 59 196 8934 51 111 655 803 292 443 31 106 44 82 345 58
internal_value=159.69 159.715 159.687 159.707 159.699 159.711 159.686 159.725 159.705 159.715 159.709 159.702 159.711 159.703 159.69 159.716 159.699 159.728 159.716 159.712 159.715 159.71 159.725 159.696 159.701 159.711 159.689 159.693 159.717 159.707 159.711 159.722 159.71 159.726 159.694 159.709 159.707 159.698 159.702 159.701 159.717 159.705 159.711 159.711 159.713 159.698 159.718 159.713 159.725 159.685 159.709 159.72 159.724 159.727 159.723 159.715 159.726 159.723 159.717 159.71 159.691 159.696
internal_weight=66524 7805 58719 4128 3178 2981 55541 3677 1854 2007 1382 974 1254 467 5561 905 512 2772 787 729 603 1183 1586 1147 582 236 5049 1805 195 896 481 824 220 1454 346 803 381 779 560 253 189 175 133 303 550 379 515 282 233 49980 132 287 779 1413 610 490 686 151 336 135 1324 403
internal_count=66524 7805 58719 4128 3178 2981 55541 3677 1854 2007 1382 974 1254 467 5561 905 512 2772 787 729 603 1183 1586 1147 582 236 5049 1805 195 896 481 824 220 1454 346 803 381 779 560 253 189 175 133 303 550 379 515 282 233 49980 132 287 779 1413 610 490 686 151 336 135 1324 403
is_linear=0
shrinkage=1


Tree=1
num_leaves=63
num_cat=0
split_feature=64 9 64 49 53 62 2 64 9 56 54 46 64 54 26 7 56 56 49 2 64 7 63 35 32 1 12 22 55 1 3 46 52 69 43 0 5 46 64 2 9 63 56 2 23 56 24 18 48 69 68 39 23 1 64 9 36 23 15 68 3 11
split_gain=1953.23 220.297 116.294 82.1926 52.4679 50.5231 48.5683 33.989 25.961 25.1057 25.4688 24.6941 24.1771 23.4025 26.1865 18.2184 16.3236 16.2976 16.2719 30.9557 20.4595 30.0066 15.9331 15.7773 15.5493 14.2535 12.413 11.3208 11.0577 10.8542 10.842 10.9628 13.3771 16.2908 10.65 10.406 10.4008 9.54966 11.2858 9.27836 11.3635 10.594 9.25022 10.5468 9.20537 9.12428 8.75963 8.70342 7.81427 7.68464 7.47548 7.38808 8.46425 8.79406 7.40318 7.36753 7.34075 7.1412 6.94754 7.44336 6.66185 6.6265
threshold=152.86500000000004 171.06250000000003 124.70500000000001 1.0000000180025095e-35 -0.72947329433276231 4377.1250000000009 4001.8063750000006 215.48000000000005 179.18750000000003 0.98043284291745803 0.68322629814330826 2129.1250000000005 165.97500000000005 0.68322629814330826 99.125 1308.5682500000005 0.70860043010605911 0.1500498401600889 1.0000000180025095e-35 3372.7805000000003 108.49500000000002 1600.9281250000001 0.52748959464084566 19.312500000000004 418.87500000000006 549.92812500000014 130.12500000000003 5.0125000000000011 -0.8779519545588893 413.87500000000006 322.12500000000006 1140.1250000000002 260.50000000000006 53.179607081912913 65.62250137329103 7574.7655000000004 6222.6557500000017 400.12500000000006 135.99500000000003 4566.4545000000007 217.56250000000003 0.66103089352786082 0.8977101403255705 3260.8581250000007 175.62500000000003 -0.012910296075008829 1.0000000180025095e-35 220.62500000000003 982.50000000000011 58.69263687835322 106.3838467261905 537.12500000000011 270.87500000000006 600.23750000000007 158.30500000000004 145.18750000000003 11.462500000000004 166.62500000000003 19.337500000000006 120.21874255952382 112.62500000000001 317.12500000000006
decision_type=10 10 10 2 2 10 10 10 10 2 2 10 10 2 10 10 2 2 2 10 10 10 10 10 10 8 10 10 2 10 10 10 2 10 10 10 10 10 10 10 10 10 2 10 10 2 10 10 2 10 10 10 10 10 10 10 10 10 10 10 10 8
left_child=2 5 18 4 11 12 23 13 30 10 22 -4 -2 14 35 48 17 49 19 -1 28 -22 27 45 -25 -10 -18 -7 29 -21 -5 32 -32 61 -24 -8 -15 38 -6 40 -27 -41 43 -36 -29 -3 -38 -45 -14 -17 -42 52 54 -54 -16 56 -46 -12 59 -19 -9 -34
right_child=1 6 3 8 37 9 7 60 25 -11 57 -13 15 36 51 16 26 58 -20 20 21 -23 34 24 -26 39 -28 44 -30 -31 31 -33 33 -35 42 -37 46 -39 -40 41 50 -43 -44 47 55 -47 -48 -49 -50 -51 -52 -53 53 -55 -56 -57 -58 -59 -60 -61 -62 -63
leaf_value=-1.9893001937866217 0.22667527006860838 6.9573249348167341 7.2240255629418062 -0.48680019378662109 0.79913453506345888 0.086026030339634671 2.558459366799902 1.7887246704101558 -0.25177520751953181 -0.15743447840385219 0.17130189203176235 2.4134318176372274 -0.60389699279339271 -0.36177541896693982 4.5829684554858972 2.4035802362005514 1.0098140188914253 4.3569785468314199 -2.0362999343872077 0.77452528828360279 1.1525251662132903 6.4219989263195263 2.9032375909910826 7.1848503112792974 0.69235000610351571 0.67877468109130923 2.4600747680664057 1.9144696078031371 -0.40133822751091403 5.515188545724234 0.39878553259853872 -0.21921285567898591 1.0007221592249214 2.3956937289025571 1.7515769003234429 6.4111781040412428 0.98170013427734382 -0.11812487404393296 4.2152752304077152 3.1439124549961561 7.6112084110054639 0.76829359049607149 2.9199771895306816 7.8089791713910559 3.1297250366210934 0.75300012784707204 3.3775048647358199 2.5144597599706149 0.88705492401842045 1.3700545638721828 1.7231422667061844 -0.25585029511426854 -0.18935064907640525 2.791824441575645 6.0613504791259771 3.0844799968969343 0.5669599125585052 1.2829405406265959 1.0088568277198602 3.3994596073827239 16.743464007328296 3.087262819614863
leaf_weight=6165 661 46 322 3233 89 84 168 31 313 104 156 97 176 39 49 87 216 203 42559 135 460 156 187 400 71 484 31 196 1246 31 937 1516 217 95 98 912 69 275 54 113 42 62 105 635 60 241 249 32 299 121 76 32 59 30 232 245 69 228 38 97 1049 42
leaf_count=6165 661 46 322 3233 89 84 168 31 313 104 156 97 176 39 49 87 216 203 42559 135 460 156 187 400 71 484 31 196 1246 31 937 1516 217 95 98 912 69 275 54 113 42 62 105 635 60 241 249 32 299 121 76 32 59 30 232 245 69 228 38 97 1049 42
internal_value=-0.000331761 0.0231678 -0.00345536 0.00216079 0.0169833 0.0152398 0.0320683 0.0349966 0.000420756 0.0204206 0.021611 0.0294869 0.00933385 0.0308619 0.0336302 0.0133754 0.0180139 0.0228388 -0.00433697 -0.00229647 0.00306213 0.0106656 0.0242227 0.0207916 0.0264225 0.00752293 0.00734818 0.0180887 -0.000254959 0.0118675 -0.000860928 0.00141254 0.0047986 0.0130791 0.028018 0.0376852 0.0193697 0.00444976 0.0149301 0.0111519 0.00820598 0.0212857 0.0303448 0.0322549 0.020614 0.0115505 0.0223585 0.0345052 0.00563158 0.0118269 0.0221186 0.0227363 0.0247297 0.0112921 0.0289858 0.0252139 0.0155426 0.00997396 0.0296154 0.0321667 0.042037 0.00658301
internal_weight=66524 7805 58719 7967 837 4128 3677 2919 7130 2199 2095 419 1929 1839 1482 1268 793 546 50752 8193 2028 616 1711 758 471 1090 247 654 1412 166 6040 2807 1291 354 1057 1080 357 418 143 777 602 175 870 765 570 287 318 667 475 208 118 402 370 89 281 374 129 384 338 300 1080 259
internal_count=66524 7805 58719 7967 837 4128 3677 2919 7130 2199 2095 419 1929 1839 1482 1268 793 546 50752 8193 2028 616 1711 758 471 1090 247 654 1412 166 6040 2807 1291 354 1057 1080 357 418 143 777 602 175 870 765 570 287 318 667 475 208 118 402 370 89 281 374 129 384 338 300 1080 259
is_linear=0
shrinkage=0.05


Tree=2
num_leaves=63
num_cat=0
split_feature=64 65 62 49 7 64 58 63 9 64 1 9 14 54 56 47 65 64 47 62 9 2 16 64 69 26 49 26 49 9 69 64 65 56 64 3 24 63 13 68 32 10 35 11 56 55 35 66 11 69 69 1 65 55 43 21 65 9 55 12 63 56
split_gain=1556.91 198.435 151.772 60.321 49.3113 49.1666 42.7923 35.9233 31.6918 25.325 23.2218 22.1724 20.4147 18.7317 18.5574 18.0847 17.5631 14.3581 13.7316 12.6081 11.318 10.9212 10.2907 9.95092 10.3791 9.83405 9.76601 11.2382 9.30015 9.2977 9.1298 8.97049 8.87061 9.51413 8.78085 9.14014 8.62266 11.7792 9.48806 8.39587 8.2092 9.58017 8.16175 9.98337 8.13381 8.01923 11.0369 8.0177 7.97773 8.14156 9.47014 9.23282 8.6398 7.50874 7.41557 7.28104 7.19021 7.11831 7.08831 6.68179 12.0536 8.41641
threshold=158.30500000000004 152.70500000000001 5480.6250000000009 1.0000000180025095e-35 1308.5682500000005 119.92500000000003 0.28437260680795728 0.49028259609959174 203.06250000000003 136.83500000000004 758.30250000000012 166.06250000000003 8.4125000000000032 0.68322629814330826 0.98043284291745803 15.500000000000002 127.91000000000001 232.76500000000001 20.500000000000004 6754.5000000000009 122.06250000000001 4636.993625000001 93.750000000000028 215.48000000000005 49.617138704625084 153.12500000000003 1.0000000180025095e-35 1.0000000180025095e-35 1.0000000180025095e-35 210.81250000000003 41.789685234481809 135.99500000000003 225.00500000000002 0.88999460902669758 179.62500000000003 1496.9025000000004 80.625000000000014 0.58197836319003593 418.12500000000011 99.6118154761905 312.12500000000006 7063.7132500000007 14.012500000000001 225.06250000000003 -0.021515300460958474 0.10738035228456499 13.912500000000003 110.32479166666668 393.37500000000006 55.704990041627575 54.780322359872677 828.12500000000011 152.70500000000001 -0.94697898371965705 71.370002746582045 7.3125000000000009 151.58500000000004 204.81250000000003 -0.5416228050394748 43.125000000000007 0.49431742228217496 0.41326329957804331
decision_type=10 10 10 2 10 10 10 10 10 10 10 10 10 2 2 2 10 10 2 10 10 10 10 10 10 10 2 10 2 10 10 10 10 2 10 8 10 10 10 10 10 10 10 8 2 2 10 10 10 10 10 8 10 2 10 10 10 10 2 10 10 2
left_child=1 5 4 6 15 -1 18 12 13 29 16 -12 56 14 21 -2 -7 20 32 -15 -9 28 53 24 -10 -26 27 -18 -4 -5 -19 -8 33 45 55 59 37 -11 -38 -14 41 -13 -29 -44 -32 -3 -47 54 49 50 51 52 -30 -22 -24 -17 -6 -49 -39 61 -61 -36
right_child=2 3 8 9 7 10 31 17 23 36 11 40 39 19 -16 34 26 30 -20 -21 22 -23 47 -25 25 -27 -28 42 48 -31 44 -33 -34 -35 35 -37 38 58 -40 -41 -42 -43 43 -45 -46 46 -48 57 -50 -51 -52 -53 -54 -55 -56 -57 -58 -59 -60 60 -62 -63
leaf_value=-2.0208804222148098 -0.68408035787986288 5.2394312024023693 12.54698169708252 -0.29396202953482076 0.60880463180361455 -0.58081002235412604 0.92894010734558075 1.0257981245616861 6.5537903074444221 0.9969361782784546 0.076109478109846168 1.1305428302071705 2.2571481886927502 0.93283296986560493 0.22505153107889697 0.72035119546765292 0.31607365471423776 0.53571554158194501 2.0231488500267392 8.5087017385984289 1.4368982074234957 6.7150292231649686 2.3887367719720842 18.431675218823042 7.5814397810543444 3.4172823600769053 0.16403975486755373 3.8430732703834667 1.6816608984418133 1.8694150215089325 7.0170521109128821 3.4397210994798346 10.532924395922706 -0.1301010920973738 3.2855258558336384 -0.35355385241780374 -0.033929916200094438 3.4597318028045971 1.6004507101503691 0.93112073184231581 0.12516754527329113 7.117633398743088 0.41302136914285237 5.4429568908819812 8.9382099413404159 5.6537603408675148 1.7881551035040397 2.3258753677116668 1.487829913059505 8.578930895584481 -0.10554762016504347 2.9151476047040372 6.1624302044088894 4.7497909788311405 4.9321411375225468 0.53801717958454787 1.8350841853168625 2.661479603188968 1.2308360080718999 0.84270217781749901 3.1196337687832125 0.17190737533569234
leaf_weight=47278 274 199 90 1309 35 5509 431 110 293 465 417 115 247 286 57 141 135 30 117 101 39 311 175 661 240 50 2342 31 69 30 62 82 148 31 125 74 328 82 112 546 64 134 72 39 264 31 66 300 73 283 40 183 158 431 92 499 96 103 137 71 124 87
leaf_count=47278 274 199 90 1309 35 5509 431 110 293 465 417 115 247 286 57 141 135 30 117 101 39 311 175 661 240 50 2342 31 69 30 62 82 148 31 125 74 328 82 112 546 64 134 72 39 264 31 66 300 73 283 40 183 158 431 92 499 96 103 137 71 124 87
internal_value=-0.000703807 -0.00328906 0.0219282 0.00814462 0.0155223 -0.00401578 0.0178507 0.0196838 0.0306131 0.00379009 -0.000597201 0.0079452 0.011829 0.0260721 0.029019 0.00797491 -0.00136442 0.024203 0.0270101 0.016447 0.02168 0.0303355 0.0231579 0.0366399 0.0318782 0.0251724 0.00200649 0.0108845 0.0275335 -0.000855117 0.0330618 0.0072807 0.0307895 0.0261927 0.0107895 0.015894 0.00932384 0.0128363 0.00386364 0.00880832 0.0180032 0.0221084 0.0207042 0.0143694 0.0354908 0.0289527 0.0171649 0.0191791 0.0258313 0.0274011 0.0232222 0.0254878 0.0322247 0.0288298 0.0258989 0.00695312 0.0301145 0.014727 0.0223973 0.0188329 0.0255128 0.0126887
internal_weight=66524 59704 6820 3568 3925 56136 1105 2530 2895 2463 8858 730 924 1651 1264 1395 8128 1606 592 387 1250 1207 1140 1244 583 290 2619 277 896 1339 356 513 475 327 1121 481 1124 684 440 793 313 249 142 111 326 296 97 670 806 733 450 410 227 470 267 640 131 403 219 407 195 212
internal_count=66524 59704 6820 3568 3925 56136 1105 2530 2895 2463 8858 730 924 1651 1264 1395 8128 1606 592 387 1250 1207 1140 1244 583 290 2619 277 896 1339 356 513 475 327 1121 481 1124 684 440 793 313 249 142 111 326 296 97 670 806 733 450 410 227 470 267 640 131 403 219 407 195 212
is_linear=0
shrinkage=0.05


Tree=3
num_leaves=63
num_cat=0
split_feature=64 58 65 64 65 58 49 0 1 1 47 0 64 2 49 9 7 37 23 64 15 49 52 64 1 65 1 9 69 11 8 49 53 37 4 4 64 68 0 37 43 65 6 11 69 66 9 2 3 27 7 68 64 58 42 58 1 16 57 11 12 49
split_gain=1250.3 140.01 132.576 60.5904 59.475 48.1776 42.5868 32.2387 31.9903 25.0607 21.6517 20.5921 20.3902 18.882 15.6341 15.0248 14.8694 13.1277 12.5663 12.3884 11.9892 11.4583 10.8002 10.3944 10.1511 10.1273 10.1039 10.6373 9.35692 9.28387 11.1222 8.64178 10.5119 9.86443 8.6183 8.25093 7.95027 7.88815 7.72011 8.52405 7.65853 8.55073 7.5599 7.48593 7.10205 6.97315 6.94128 6.93619 6.75553 7.869 6.74845 6.70107 6.56759 6.53158 6.50026 6.43414 6.19011 6.15147 8.31763 6.06074 6.37837 5.98718
threshold=151.94000000000003 0.20301639288377851 139.00500000000002 192.30000000000004 132.50500000000002 0.23298690967281574 1.0000000180025095e-35 7746.5603750000009 542.25450000000012 341.03125000000006 20.500000000000004 8696.4595000000008 119.92500000000003 4672.3811250000008 2.5000000000000004 212.81250000000003 1104.2508750000004 316.62500000000006 189.62500000000003 170.00500000000002 5.7125000000000012 3.5000000000000004 180.50000000000003 310.92000000000007 933.76600000000019 225.00500000000002 763.25000000000011 192.06250000000003 54.08350783500137 188.87500000000003 3865.6477500000005 1.0000000180025095e-35 -0.75183980747897738 300.87500000000006 2827.2722500000013 2115.5010000000007 137.72500000000002 88.05327380952383 8090.8502499999995 47.125000000000007 75.450000762939467 200.00500000000002 884.87812500000007 200.62500000000003 67.935922927963375 123.00937500000002 145.18750000000003 4176.3048750000007 1603.4137500000004 128.12500000000003 1389.8633750000004 109.51605654761904 135.99500000000003 0.2494198866692747 36.924001693725593 0.17073253174512518 459.07650000000007 178.37500000000003 5468.5702500000007 177.62500000000003 83.125000000000014 1.0000000180025095e-35
decision_type=10 8 10 10 10 10 2 10 10 10 2 10 10 10 2 10 10 10 10 10 10 2 2 10 10 10 10 10 10 10 10 2 2 10 8 8 10 10 10 10 10 10 10 10 10 10 10 10 8 10 10 10 10 10 10 10 8 10 10 10 10 2
left_child=2 3 12 7 50 6 10 20 9 13 22 18 -1 17 37 25 -5 21 -10 24 -2 40 47 38 -16 52 31 -28 34 42 55 32 33 -14 46 59 -8 -9 39 -18 41 45 -22 -43 -20 -6 -19 -4 49 -13 -3 -21 61 -42 56 -31 -40 58 -41 -23 -61 -7
right_child=1 4 5 16 8 15 36 14 11 -11 -12 48 26 -15 19 -17 23 28 44 51 29 35 -24 -25 -26 -27 27 -29 -30 30 -32 -33 -34 -35 -36 -37 -38 -39 54 57 53 43 -44 -45 -46 -47 -48 -49 -50 -51 -52 -53 -54 -55 -56 -57 -58 -59 -60 60 -62 -63
leaf_value=-1.9579713714564286 0.50393366619805557 -0.1860773606798759 2.2321772105063928 1.3551167401430884 0.12991678571103801 0.65951052873900862 0.2610972332454935 1.478719172883892 1.3202749531072318 0.37256881455070801 1.2200240316085755 8.2880188033274944 3.7156857874701155 5.7952790888878827 0.20914018523328581 2.0242326832764932 3.457579732859374 1.3657581897576803 5.2483176310546993 2.0212823945257519 0.45585451983632874 -0.14244161074781658 8.8580521373187278 17.524430196357937 4.845013851075473 2.2331759197200323 0.15266792657113515 6.2448898915925071 2.5144449245953835 4.312863780831572 1.5754931813860324 -0.55776927709579527 0.16162676858901934 0.53614028472116215 1.05897345370378 -0.12079120139106153 1.1436589415507483 5.5334178530970179 0.99589547177068283 5.7342656571639532 5.6292367903138967 3.3460199991090982 1.2340381315778732 2.227940532244415 2.2415745812968555 0.91142600408878216 3.8148820203347271 3.4182732275397543 1.8184500434435038 3.2711143241657128 1.1669518128851892 7.6343495063600786 0.48853840545234117 2.7367061800266614 9.7576005815331843 0.73573294223080843 8.9335930447959484 6.4063011743947103 4.6829119690636158 2.0294376343679406 1.8180817141493755 -0.70009106426680323
leaf_weight=46453 422 622 55 77 208 680 584 58 282 489 139 478 47 172 142 63 52 47 152 67 196 59 252 453 38 275 369 108 278 154 92 5991 401 39 83 240 433 402 40 38 31 92 34 150 52 101 114 81 53 37 640 108 772 101 372 42 217 201 205 103 46 1742
leaf_count=46453 422 622 55 77 208 680 584 58 282 489 139 478 47 172 142 63 52 47 152 67 196 59 252 453 38 275 369 108 278 154 92 5991 401 39 83 240 433 402 40 38 31 92 34 150 52 101 114 81 53 37 640 108 772 101 372 42 217 201 205 103 46 1742
internal_value=-0.000999941 0.0174876 -0.00354148 0.025176 0.0118251 0.00418046 0.0115479 0.0187037 0.0152939 0.0120052 0.0230835 0.0225142 -0.00427539 0.0146986 0.0259816 0.000959795 0.0320393 0.0130581 0.0149588 0.0180986 0.0123936 0.0100309 0.0291495 0.0330862 0.00888889 0.000520322 -0.00175054 0.00527254 0.0196169 0.0174903 0.0234722 -0.00226768 0.00413758 0.02 0.0267623 0.00381696 0.0055703 0.0320652 0.0305111 0.0258468 0.0141069 0.0115154 0.01 0.0185537 0.0244118 0.00600324 0.0335093 0.0177941 0.0289789 0.0307282 0.00256735 0.0275714 -0.000272387 0.0249242 0.0341892 0.0302041 0.0280739 0.0236036 0.018251 0.0111058 0.0164765 -0.00155244
internal_weight=66524 8040 58484 3410 4630 5076 1544 1755 3368 2314 527 1054 53408 1825 815 3532 1655 1653 486 355 940 1131 388 1578 180 3469 6955 477 522 518 288 6478 487 86 244 448 1017 460 1125 496 683 551 230 242 204 309 161 136 568 515 1262 175 3194 132 629 196 257 444 243 208 149 2422
internal_count=66524 8040 58484 3410 4630 5076 1544 1755 3368 2314 527 1054 53408 1825 815 3532 1655 1653 486 355 940 1131 388 1578 180 3469 6955 477 522 518 288 6478 487 86 244 448 1017 460 1125 496 683 551 230 242 204 309 161 136 568 515 1262 175 3194 132 629 196 257 444 243 208 149 2422
is_linear=0
shrinkage=0.05


Tree=4
num_leaves=63
num_cat=0
split_feature=64 65 58 64 49 49 65 58 63 64 65 16 49 59 2 64 58 9 65 68 56 47 60 23 2 1 30 36 1 46 55 25 23 68 1 35 65 64 1 66 3 37 35 9 15 68 55 68 1 2 62 37 33 22 16 38 55 67 68 14 49 15
split_gain=994.801 117.117 111.147 57.5212 50.0214 38.1498 33.3438 29.9864 24.3269 23.5298 21.2867 21.0178 17.9752 17.2793 16.9779 17.4159 15.9338 14.9205 14.3286 12.5176 12.0177 12.3562 11.9513 11.4276 11.3327 15.4778 10.6911 10.4768 10.1828 9.90537 9.73899 9.73104 8.65259 11.0046 8.58325 8.32 8.08914 8.21335 8.05149 8.31628 7.97265 7.80947 7.64575 7.30792 7.13426 7.11843 7.08793 7.03123 7.69992 7.25173 6.95413 11.0057 9.29622 6.88798 8.09812 6.82118 6.76382 6.74897 6.71399 6.68286 6.62745 6.41502
threshold=151.94000000000003 127.24500000000002 0.24014393110130677 170.00500000000002 1.0000000180025095e-35 3.5000000000000004 131.78500000000003 0.2494198866692747 0.69787058609223107 132.93500000000003 153.30500000000004 100.50000000000003 4.5000000000000009 1270.4262500000007 4298.3726250000009 439.97000000000008 0.15633087271554533 192.06250000000003 190.05000000000004 155.80265625000001 0.88999460902669758 20.500000000000004 89.575451316833508 348.12500000000006 3798.9175000000009 771.12500000000011 190.37500000000003 17.687500000000004 254.50000000000003 415.12500000000006 -0.65189295912203338 69.875000000000014 107.50000000000003 107.6302306547619 796.12500000000011 9.7125000000000039 205.37500000000003 132.93500000000003 933.76600000000019 113.38203125 1203.1250000000002 322.12500000000006 15.912500000000003 217.56250000000003 12.912500000000003 95.061026785714304 -0.81403855522663837 93.997529761904772 615.00387500000011 3953.6782500000004 4502.2500000000009 68.625000000000014 6.1250000000000009 12.312500000000002 334.62500000000006 99.125000000000014 0.6254047815183511 53.968619278217396 119.85983630952383 14.612500000000002 2.5000000000000004 8.8125000000000018
decision_type=10 10 8 10 2 2 10 10 10 10 10 10 2 10 10 10 10 10 10 10 2 2 10 10 10 10 10 10 8 10 2 10 10 10 10 10 10 10 10 10 10 10 10 10 10 10 2 10 10 10 10 10 10 10 10 10 2 10 10 10 2 10
left_child=1 24 3 18 7 8 -4 10 16 43 44 12 13 35 15 46 22 28 38 27 21 -12 34 47 -1 -26 -19 59 -18 31 -30 -9 -29 -34 -5 -8 -31 -38 39 45 55 50 -40 -6 -3 -2 -7 53 56 -50 -11 -52 -53 54 60 -37 -49 -57 -27 -16 -13 -25
right_child=2 4 6 5 9 14 11 29 -10 41 20 23 -14 -15 19 -17 17 26 -20 -21 -22 -23 -24 61 25 58 -28 32 30 36 -32 -33 33 -35 -36 40 37 -39 42 -41 -42 -43 -44 -45 -46 -47 -48 48 49 -51 51 52 -54 -55 -56 57 -58 -59 -60 -61 -62 -63
leaf_value=-1.8863810573816311 1.3331121064293741 0.55749987532552236 0.23794361585994608 0.47883730834949267 -0.60744068011195906 2.9484007056121522 6.6354356302410853 3.7261029897454878 2.4925308950275245 -0.042276803876421812 8.37937593547157 7.4538698257543246 0.24787455844439799 1.0629727232658739 -0.12966103929823589 16.123478768736629 5.3028049239262733 14.577854221260615 4.6635596436091742 3.2367766093076429 -0.037236511905750551 2.0099688359583792 12.690721678522886 3.5272073723392738 -0.69288130152225591 2.6767670227063807 8.0732124053677268 0.25735035252158717 6.076784847278736 0.33895031815449245 1.7669547928346354 0.68082235698547466 0.44137005760235548 10.222745680485865 28.024746128715083 3.9993562038435031 1.7937058229644069 2.9189330623429477 7.8719624333123024 0.21203211540259775 12.592981729210941 1.4907094391927402 0.37019661161226641 1.4974044770392476 2.7199370560484546 3.7342876153675348 1.2064825677158704 0.025478936630467505 0.38453532640385624 2.2044597398239612 1.2430259341908041 0.31776061322648208 1.4954554026773965 -0.10489880605313713 5.158848999486251 4.544818549629781 1.2777762782269875 2.4493138000481296 0.14503453024257881 2.902279293458256 0.094303707335770079 0.579970336644135
leaf_weight=45118 327 226 1048 45 3880 161 70 77 166 1008 307 51 167 307 74 48 53 259 183 125 32 82 871 52 4795 147 176 43 137 945 256 59 34 123 42 511 97 31 63 472 99 361 37 75 56 113 460 637 118 98 51 675 209 51 32 74 279 31 253 60 51 36
leaf_count=45118 327 226 1048 45 3880 161 70 77 166 1008 307 51 167 307 74 48 53 259 183 125 32 82 871 52 4795 147 176 43 137 945 256 59 34 123 42 511 97 31 63 472 99 361 37 75 56 113 460 637 118 98 51 675 209 51 32 74 279 31 253 60 51 36
internal_value=-0.00124196 -0.003509 0.0152488 0.0206932 0.0020432 0.0242531 0.00890086 0.00912134 0.0283915 -0.00011903 0.0173329 0.0118731 0.0165647 0.0189011 0.0168972 0.0118161 0.0300462 0.025193 0.0113598 0.0243028 0.0244537 0.0268766 0.0345094 0.00766904 -0.00441069 -0.00219923 0.0317816 0.0192515 0.0187668 0.00434657 0.0159924 0.0170588 0.0265 0.0319427 0.0168391 0.0228344 0.00273532 0.0145312 0.00903162 0.00755482 0.0212238 0.00389757 0.0225 -0.00245891 0.00670213 0.0125 0.00957327 0.00650342 0.0050265 0.0135185 0.00264282 0.00574866 0.0044457 0.0155405 0.0214925 0.0191071 0.00302402 0.0307143 0.00725 0.00843283 0.0146078 0.0251136
internal_weight=66524 58484 8040 4328 8171 3133 3712 1912 2005 6259 703 2664 1259 1092 1128 669 1839 881 1195 459 421 389 958 1405 50313 5195 435 334 446 1209 393 136 200 157 87 785 1073 128 1012 912 715 2304 100 3955 282 440 621 1317 1132 216 1943 935 884 185 134 616 916 105 400 134 102 88
internal_count=66524 58484 8040 4328 8171 3133 3712 1912 2005 6259 703 2664 1259 1092 1128 669 1839 881 1195 459 421 389 958 1405 50313 5195 435 334 446 1209 393 136 200 157 87 785 1073 128 1012 912 715 2304 100 3955 282 440 621 1317 1132 216 1943 935 884 185 134 616 916 105 400 134 102 88
is_linear=0
shrinkage=0.05


Tree=5
num_leaves=63
num_cat=0
split_feature=64 64 65 58 65 62 55 62 41 1 65 9 55 31 16 66 2 46 1 60 9 65 62 1 53 69 9 69 37 62 58 65 55 29 47 58 12 63 14 2 29 39 64 14 18 9 69 66 21 3 56 3 1 66 43 62 24 52 35 66 67 4
split_gain=781.476 111.799 108.484 43.6529 35.2867 33.2076 23.1065 18.3859 18.9781 17.6013 16.5183 16.0021 21.1934 18.5794 15.1644 14.6069 13.1438 12.5773 12.0289 11.5796 11.4941 10.8095 10.5632 9.7609 9.70967 9.22458 9.03919 9.01592 8.53312 9.67596 8.48889 8.0824 8.56154 8.39533 8.01391 8.01117 7.94978 7.80415 7.74962 7.70541 7.56554 7.411 7.15647 7.06394 7.76196 6.75775 8.69099 6.59319 6.4471 8.17625 6.20512 6.10641 8.31573 6.81156 7.98915 6.07716 7.60987 6.0469 5.92288 5.90737 5.8742 5.76376
threshold=151.94000000000003 192.30000000000004 125.00500000000001 0.23029761839164639 183.63000000000002 4459.1250000000009 -0.66484924122790601 4014.1250000000005 0.87500000000000011 962.99062500000014 180.49500000000003 193.56250000000003 -0.61188073503922691 99.875000000000014 78.125000000000014 60.958750000000009 3185.2417500000006 200.12500000000003 771.12500000000011 126.64927536010744 212.81250000000003 159.85500000000005 7105.0000000000009 879.33575000000008 -0.8814490726585632 59.734348985288939 161.06250000000003 61.725468396144556 184.62500000000003 3398.1250000000005 0.1383112264775421 175.405 0.65189295912203338 26.512500000000006 20.500000000000004 0.1633920429751847 94.125000000000014 0.51244628682976034 11.612500000000002 4001.8063750000006 7.7125000000000012 5.1250000000000009 108.70500000000001 20.162500000000005 0.62500000000000011 137.81250000000003 40.96612426596068 117.04958333333336 9.0125000000000011 432.62500000000006 0.99548449742306455 304.12500000000006 202.05208333333334 91.153958333333335 67.162498474121108 6052.1250000000009 55.875000000000007 272.50000000000006 23.412500000000005 118.36619791666668 52.954669126174331 1067.8872500000002
decision_type=10 10 10 10 10 10 2 10 10 10 10 10 2 10 10 10 10 10 10 10 10 10 10 10 2 10 10 10 10 10 8 10 2 10 2 10 10 10 10 10 10 10 10 10 10 10 10 10 10 10 2 10 8 10 10 10 10 2 10 10 10 10
left_child=2 5 18 9 7 21 16 -4 -9 10 22 12 24 31 28 -8 -6 -17 42 25 45 57 26 -14 59 30 41 -27 -5 -30 -10 33 60 50 35 -12 -28 -23 -16 58 -37 -3 -1 -18 -45 -20 -47 -42 -26 -50 -13 -44 53 54 -53 56 -11 -2 -29 -7 -33 -46
right_child=1 3 4 14 6 11 15 8 19 55 34 13 23 -15 38 17 43 -19 20 -21 -22 37 -24 -25 48 27 36 39 29 -31 -32 32 -34 -35 -36 40 -38 -39 -40 -41 47 -43 51 44 61 46 -48 -49 49 -51 -52 52 -54 -55 -56 -57 -58 -59 -60 -61 -62 -63
leaf_value=-2.1273436095400626 -0.18081262838696688 3.4659607762175875 -0.46111626765816571 0.72311749197740793 0.83257005963362618 5.8146824568125028 6.0361607158705626 0.0015620953233047845 1.9310105413591121 8.6709074818618515 8.79524439327548 1.8694562692742354 0.73706536455682403 9.250832998454861 2.0947324665972396 4.7811901864305728 8.2791454112193588 0.53990252350888113 -0.97661293677858374 2.1050602442934894 6.4633461583238576 0.48869559998417134 10.157707499218059 5.1641852734037395 8.8503020694465349 2.8265333974668652 2.4758676975846314 1.3878629151669246 -0.21030164847321953 4.5958482411141075 0.55431785092170249 2.3974967687133044 6.2863355611409446 2.4107500412099485 1.5910686883542975 8.4570754644139878 5.4351774811095517 2.4815793475677053 1.6785234926534682 2.219712286623384 5.6190717873340805 5.522797661476508 -1.0452367481648934 0.122918374007007 7.9604071386979918 2.0035292689506337 0.099626619435579766 3.6857543126301566 0.056281817576988892 2.8868599881143919 2.0266875103147686 1.0511636819593768 -0.45701585811972767 -0.82934132134938499 3.6014680487701001 22.176182489680787 19.323225300857573 0.35331608040801399 -0.36204762244076738 1.1108340842748985 9.051792243316811 4.5587261553240808
leaf_weight=39209 745 82 4007 85 72 153 42 2160 139 41 423 369 1441 148 118 31 57 807 435 56 32 383 95 129 38 53 362 55 42 355 962 273 75 40 42 62 165 219 513 52 86 116 5939 37 47 97 276 112 124 164 43 37 3416 83 55 299 86 507 82 49 68 98
leaf_count=39209 745 82 4007 85 72 153 42 2160 139 41 423 369 1441 148 118 31 57 807 435 56 32 383 95 129 38 53 362 55 42 355 962 273 75 40 42 62 165 219 513 52 86 116 5939 37 47 97 276 112 124 164 43 37 3416 83 55 299 86 507 82 49 68 98
internal_value=-0.00146322 0.0131383 -0.00347864 0.0206161 0.00165182 0.00849638 0.00965155 0.000392544 0.00300787 0.0250862 0.0226052 0.0116506 0.00915634 0.0168012 0.0126999 0.00551136 0.0213666 0.00406921 -0.00438482 0.00754467 0.00154762 0.00319849 0.0177439 0.00624204 0.017822 0.00661578 0.0156897 0.0154545 0.0193776 0.0224559 0.00467302 0.0140092 0.0190385 0.00938053 0.0281034 0.029407 0.0122676 0.00870432 0.00759905 0.0103439 0.0225 0.024798 -0.00448706 0.0270084 0.0221978 0.000383662 0.00532171 0.0177273 0.0124847 0.00993055 0.00725728 -0.00325813 -0.00163047 0.009 0.0183696 0.0340845 0.0249213 0.000551117 0.00412409 0.0264356 0.0156745 0.0274138
internal_weight=66388 8052 58336 3084 8757 4968 1191 7566 3559 1971 1545 3114 2098 1016 1113 880 311 838 49579 1399 840 1854 820 1570 528 1343 725 242 482 397 1101 868 416 452 725 683 527 602 631 189 260 198 48739 239 182 808 373 198 326 288 412 9530 3591 175 92 426 127 1252 137 202 341 145
internal_count=66388 8052 58336 3084 8757 4968 1191 7566 3559 1971 1545 3114 2098 1016 1113 880 311 838 49579 1399 840 1854 820 1570 528 1343 725 242 482 397 1101 868 416 452 725 683 527 602 631 189 260 198 48739 239 182 808 373 198 326 288 412 9530 3591 175 92 426 127 1252 137 202 341 145
is_linear=0
shrinkage=0.05


Tree=6
num_leaves=63
num_cat=0
split_feature=64 64 64 49 49 9 4 53 2 56 2 49 43 3 55 28 9 2 59 62 0 52 63 56 3 1 32 63 54 53 63 69 59 8 18 29 35 62 60 2 49 43 68 43 60 60 21 42 0 62 14 30 38 66 12 9 1 67 53 67 2 35
split_gain=646.78 92.3304 81.0893 38.907 35.1261 34.7422 24.5537 23.0353 20.8614 17.6385 17.1175 23.0088 15.8842 15.0039 18.4048 14.75 14.5028 13.3549 12.3268 12.6147 11.6264 11.4738 11.8795 11.3349 10.6751 14.6671 10.664 9.38893 10.9096 9.37208 14.1026 11.4459 9.01823 8.89271 8.84743 9.62937 8.76423 8.42907 8.18429 7.95601 9.54354 8.84941 7.67194 12.722 7.61667 7.55601 7.50712 7.50446 7.2802 7.11279 6.94431 6.83542 6.7146 7.52538 6.71208 6.47395 7.90908 7.01498 6.46097 6.29598 6.24556 6.22039
threshold=151.94000000000003 192.30000000000004 124.70500000000001 1.0000000180025095e-35 1.0000000180025095e-35 198.31250000000003 1028.7435000000003 -0.84874750804349186 4709.8992500000013 0.88201535311751322 3231.6080000000002 1.0000000180025095e-35 76.360000610351577 349.62500000000006 -0.8779519545588893 9.4125000000000032 215.06250000000003 3360.2728750000001 -797.99999999999943 6124.7500000000009 8600.0174999999999 272.50000000000006 0.49431742228217496 0.72660752476856549 911.02750000000015 662.06500000000005 1.0000000180025095e-35 0.67453356885929228 -0.065403129230143256 -0.75183980747897738 0.59201896235975837 62.514765445665581 842.01100000000008 5273.9385000000011 1.0000000180025095e-35 20.512500000000006 30.412500000000005 4891.1250000000009 90.848098716735862 2744.257000000001 3.5000000000000004 67.937500000000014 118.56281250000002 63.772500991821296 117.75450057983399 88.849350471496592 20.712500000000006 44.305500030517585 8986.613000000003 6433.6250000000009 10.912500000000003 194.62500000000003 31.875000000000004 131.96692708333339 47.125000000000007 172.06250000000003 862.33900000000006 32.396387009234935 -0.84874750804349186 67.589229631752474 4636.993625000001 30.512500000000003
decision_type=10 10 10 2 2 10 10 2 10 2 10 2 10 10 2 10 10 10 10 10 10 2 10 2 10 10 10 10 2 2 10 10 10 10 10 10 10 10 10 10 2 10 10 10 10 10 10 10 10 10 10 10 10 10 10 10 8 10 2 10 10 10
left_child=2 3 10 24 7 6 27 9 21 17 -1 13 18 -12 -15 -10 29 -4 -7 36 52 55 -23 39 25 -2 -24 45 -29 30 38 -32 -19 -26 -9 37 -20 -36 -6 -8 41 51 43 -28 47 -3 -47 -17 -18 -16 58 -41 53 -21 -43 -5 -57 -58 -40 60 -42 -22
right_child=1 5 4 8 16 12 23 34 15 -11 11 -13 -14 14 49 44 48 32 19 20 61 22 26 -25 33 -27 42 28 -30 -31 31 -33 -34 -35 35 -37 -38 -39 50 40 59 54 -44 -45 -46 46 -48 -49 -50 -51 -52 -53 -54 -55 -56 56 57 -59 -60 -61 -62 -63
leaf_value=-1.9946121575267981 1.6604086744213398 0.73006416499159399 0.85067011366395073 0.20341866680958831 -0.69961777980891082 4.9035518283148765 0.10120813572929246 -0.10153222631300443 8.7882913485321179 -0.042869080064032519 -0.27243040963859216 -0.93529119445683406 0.36387652461951042 3.6383246258379858 0.58773880472425355 2.7613021249904528 0.72963170445479664 7.8371113317602088 7.8823443291632209 21.241114951834042 19.230026692778807 0.10273800039136519 0.55932504962701057 0.34785251425378116 6.060868448932216 9.4480635618954292 0.80610976331009709 6.3830404644592349 -0.40775390613856538 -0.36048287245975263 0.91358550031343921 1.8424385654059134 3.38767125831292 12.13480465534858 -0.27801710383898753 1.8726340731486837 0.34383003451760663 5.3409609641001827 4.341009691486045 4.0955877347637157 0.077817668182188229 5.7386354695066046 3.4243964771421171 3.3198453660294187 0.082961406913095448 11.203614770937596 6.6719161260361108 4.2240029725588766 10.701153577677374 4.5185997132560258 0.27012407470397476 -0.20910277165494218 4.7204662402698032 3.0570588039979301 5.1912308462532684 0.09473304263142808 2.1725311825949811 0.86907722100995821 0.045117110294219748 4.0584529088910157 4.7182379673453685 13.004766796424349
leaf_weight=39061 231 40 53 1713 609 85 102 336 86 70 1200 9245 67 120 968 252 184 135 341 39 376 389 393 359 183 39 68 33 57 4412 346 64 63 40 77 44 45 66 68 208 216 196 269 145 200 257 71 36 31 41 1088 70 34 81 163 415 117 392 55 133 32 79
leaf_count=39061 231 40 53 1713 609 85 102 336 86 70 1200 9245 67 120 968 252 184 135 341 39 376 389 393 359 183 39 68 33 57 4412 346 64 63 40 77 44 45 66 68 208 216 196 269 145 200 257 71 36 31 41 1088 70 34 81 163 415 117 392 55 133 32 79
internal_value=-0.00163569 0.011648 -0.00346921 0.00742955 0.00131087 0.0184436 0.0143598 0.010936 0.00596089 0.0214797 -0.00419621 -0.00250735 0.02534 0.00193431 0.00607174 0.0148606 0.000126147 0.0276693 0.0268056 0.0283668 0.0328489 0.00465137 0.00856804 0.0112272 0.0207606 0.0140741 0.0118 0.024476 0.01 -0.000287565 0.00235426 0.0107317 0.0336364 0.0288565 0.00446463 0.0131818 0.0212953 0.00688811 0.000467032 0.0137054 0.0150393 0.0187834 0.0167842 0.0238732 0.0114959 0.0280163 0.0305183 0.0167014 0.012907 0.00387017 0.00284476 0.0120863 0.020974 0.0154167 0.0239694 0.00277398 0.00614718 0.0103242 0.0141057 0.00877953 0.00407258 0.0368681
internal_weight=66388 8052 58336 4968 7701 3084 1937 844 4475 321 50635 11574 1147 2329 1129 574 6857 251 1080 995 609 3901 1264 1479 493 270 875 458 90 6642 2230 410 198 223 523 187 386 143 1820 1120 1018 637 482 213 488 368 328 288 215 1009 1211 278 154 120 359 2637 924 509 123 381 248 455
internal_count=66388 8052 58336 4968 7701 3084 1937 844 4475 321 50635 11574 1147 2329 1129 574 6857 251 1080 995 609 3901 1264 1479 493 270 875 458 90 6642 2230 410 198 223 523 187 386 143 1820 1120 1018 637 482 213 488 368 328 288 215 1009 1211 278 154 120 359 2637 924 509 123 381 248 455
is_linear=0
shrinkage=0.05


Tree=7
num_leaves=63
num_cat=0
split_feature=64 65 65 58 65 1 65 56 64 64 58 2 58 41 19 56 38 0 37 60 50 55 1 8 7 7 22 2 1 68 55 37 35 9 43 66 36 54 66 67 44 46 0 43 55 60 6 67 28 9 29 40 7 22 7 2 66 2 29 52 64 23
split_gain=538.064 92.2769 77.7229 46.2492 35.2834 30.5452 24.9774 17.6095 15.3938 14.6062 14.402 14.1402 13.4988 17.0609 13.0256 12.1914 12.1245 15.0747 13.4428 11.4181 11.881 11.2387 11.1367 10.8902 10.0706 9.69806 9.56877 9.49969 9.57254 9.61959 9.3247 9.23031 8.89686 9.52399 11.0827 9.57039 8.25159 7.95928 7.91238 7.84639 11.3031 7.72361 7.42535 7.08569 8.44873 6.73543 9.52082 8.1893 7.09742 6.71272 14.9447 6.84147 6.68199 6.65972 7.06727 7.45739 6.65014 6.47399 6.41313 6.39195 6.18668 6.22378
threshold=145.45500000000001 161.46500000000003 123.04500000000002 0.2004170636492687 183.63000000000002 929.00112500000012 264.44000000000005 0.78298010367706283 310.92000000000007 353.24500000000006 0.18301187050872778 3921.9227500000006 0.3781984937459531 0.87500000000000011 14.125000000000002 0.96457844552971317 52.875000000000007 7807.4240000000009 325.62500000000006 91.819299354553237 1.0000000180025095e-35 -0.55601228778889811 247.50000000000003 5677.8820000000005 1413.0312500000002 1615.1487500000005 6.1375000000000011 3231.6080000000002 776.94400000000007 99.6118154761905 -0.69016699705532225 303.12500000000006 28.612500000000004 196.68750000000003 76.389999389648452 77.436718750000026 19.712500000000006 -0.065403129230143256 130.35536458333337 26.198131780391243 6965.6250000000009 1658.6250000000002 9043.3767500000013 69.520000457763686 -0.86095304316285715 93.028422622680679 711.66025000000013 61.894567180497333 10.712500000000004 199.93750000000003 26.387500000000006 153.12500000000003 1402.1362500000002 10.712500000000004 1168.1347500000004 3627.2215000000006 141.92114583333338 4498.9122500000003 15.237500000000002 47.500000000000007 165.97500000000005 351.62500000000006
decision_type=10 10 10 8 10 10 10 2 10 10 8 10 8 10 10 2 10 10 10 10 2 2 10 10 10 10 10 10 10 10 2 10 10 10 10 10 10 2 10 10 10 10 10 10 2 10 8 10 10 10 10 10 10 10 10 10 10 10 10 2 10 10
left_child=2 5 27 6 12 10 9 19 15 16 23 30 13 -4 -8 58 18 22 26 20 31 -20 -18 38 -12 -9 -3 -1 -29 -30 37 52 33 34 35 -21 -27 -6 -2 -13 -41 42 43 -15 -45 -37 47 -47 -48 56 -51 -52 -5 54 -46 -56 60 -19 -7 -28 -26 -62
right_child=1 3 4 7 11 8 14 25 -10 -11 24 39 -14 41 -16 -17 17 57 21 32 -22 -23 -24 -25 49 36 59 28 29 -31 -32 -33 -34 -35 -36 45 -38 -39 -40 40 -42 -43 -44 44 53 46 48 -49 -50 50 51 -53 -54 -55 55 -57 -58 -59 -60 -61 61 -63
leaf_value=-1.953180445402164 2.1691797045636636 0.17009100093243998 -0.1739827492505498 4.8031967358448648 3.6139132235524891 1.6037482329290336 11.055883263512946 -0.17269978500547581 15.403862835810749 15.661384095317644 -0.065854375930734191 0.34069982789648257 -0.64557981923342711 0.56567153631584277 19.874065187960905 9.4900821306729402 4.0820086351831364 1.4104358248110687 6.5833753402799022 3.3132419839947618 0.29379115207978668 2.6535167042722825 0.32546753550157276 8.2917805462404441 0.20918170775348274 4.2329341662953501 -0.27289413268320778 -0.83125953626546778 6.1775355507155796 0.13609652859481883 0.13953698894316488 13.234828188464625 -0.22093350339675558 5.5326041433583608 3.5920728750172759 -0.2167526227396197 -0.14750829904147622 1.7849140258177323 0.3078023152789599 4.9648876310030241 3.773717672920637 -0.24067225583472407 2.2738767511866183 2.9280795419635783 -0.41542518568875197 3.6821018273610377 1.8630295228627192 0.85206346153557611 0.59148095153808877 0.572420218257507 1.6072914894094383 2.3264966881261429 2.346573058959561 0.14703076259986858 3.2771364105108329 1.7158519950436117 -0.11253291985192125 5.1598912449318526 7.4788831578559787 2.8038786782136969 1.2447902723618243 4.500432876292467
leaf_weight=37582 739 222 2508 39 80 190 184 424 65 131 1797 69 3424 686 284 107 59 41 113 76 65 86 106 34 464 85 62 10445 43 432 461 155 128 145 52 160 47 96 389 181 146 351 159 74 45 135 132 53 477 191 45 44 89 199 44 96 369 132 93 605 421 32
leaf_count=37582 739 222 2508 39 80 190 184 424 65 131 1797 69 3424 686 284 107 59 41 113 76 65 86 106 34 464 85 62 10445 43 432 461 155 128 145 52 160 47 96 389 181 146 351 159 74 45 135 132 53 477 191 45 44 89 199 44 96 369 132 93 605 421 32
internal_value=-0.00180741 0.00936819 -0.00362047 0.0147457 0.000754727 0.00473895 0.0202346 0.00983201 0.0170879 0.0171901 0.00349724 0.00942401 -0.000425786 0.00148726 0.0303632 0.0133333 0.0157223 0.0239941 0.0131526 0.0123505 0.020431 0.0248995 0.0131818 0.00829604 0.00183913 0.00210432 0.0105231 -0.00439796 -0.00309982 0.0038421 0.00481162 0.0248587 0.0102798 0.0115854 0.00997696 0.00884317 0.0139394 0.0146023 0.00745567 0.0168434 0.0200765 0.00542926 0.00720261 0.00579545 0.0106114 0.00748694 0.00936637 0.0192021 0.00633005 0.00477011 0.0117857 0.0287079 0.0149219 0.00763021 0.0144595 0.02 0.00324261 0.0343064 0.00789753 0.0135157 0.00552344 0.00967991
internal_weight=66388 9267 57121 4287 8619 4980 2025 2262 455 1557 4525 1033 7586 4162 468 390 1426 338 1088 1706 348 199 165 1162 3363 556 889 48502 10920 475 637 283 1358 1230 1085 1033 132 176 1128 396 327 1654 1303 1144 458 957 797 188 609 1566 280 89 128 384 185 140 1286 173 283 667 917 453
internal_count=66388 9267 57121 4287 8619 4980 2025 2262 455 1557 4525 1033 7586 4162 468 390 1426 338 1088 1706 348 199 165 1162 3363 556 889 48502 10920 475 637 283 1358 1230 1085 1033 132 176 1128 396 327 1654 1303 1144 458 957 797 188 609 1566 280 89 128 384 185 140 1286 173 283 667 917 453
is_linear=0
shrinkage=0.05


Tree=8
num_leaves=63
num_cat=0
split_feature=64 64 1 49 2 49 58 55 3 3 62 52 34 46 1 49 2 2 30 22 2 69 2 60 2 9 67 30 0 55 38 57 31 64 7 66 62 1 35 64 36 38 55 3 66 1 68 30 1 60 28 28 60 3 22 5 63 4 37 46 56 30
split_gain=461.893 106.755 42.0595 39.8007 31.938 32.4945 25.5061 22.3124 20.2834 18.2208 16.5824 16.062 15.0129 14.7618 14.7374 13.827 12.128 11.1981 11.4456 10.8036 10.654 10.1583 9.89342 9.70578 9.27662 8.9665 8.80603 8.27964 8.24452 9.48632 12.3479 9.29674 7.94994 7.94358 7.7245 7.64874 7.79966 7.3881 7.29243 8.00417 7.26544 7.24233 8.25821 9.37833 13.5725 7.21044 6.93361 6.77226 6.16004 6.15583 6.78772 7.93275 6.52801 8.43983 6.04954 5.99287 5.92821 8.26816 5.91018 5.88546 5.82892 5.54929
threshold=136.83500000000004 182.57500000000002 950.03550000000007 1.0000000180025095e-35 3372.7805000000003 1.0000000180025095e-35 0.19781141469543581 -0.58429276287313725 1096.2500000000002 1189.4270000000004 4438.2500000000009 154.50000000000003 1.0000000180025095e-35 408.62500000000006 771.12500000000011 1.5000000000000002 5190.1450000000004 4709.8992500000013 86.875000000000014 8.7125000000000039 4260.8035000000009 44.530927343862068 4409.0420000000004 138.61969814300539 4359.3027500000017 217.56250000000003 31.687542471468884 80.125000000000014 9311.0290000000041 -0.72660079619119988 1.8750000000000002 5804.2648750000008 83.875000000000014 165.97500000000005 1373.9400000000003 111.03500000000001 4590.2500000000009 349.06725000000006 11.812500000000002 310.92000000000007 20.362500000000004 1.0000000180025095e-35 -0.4673548892883575 349.62500000000006 96.525156250000009 680.10100000000011 93.802403273809531 86.875000000000014 279.29166666666669 89.760124015808131 20.812500000000004 32.712500000000013 95.297624511718766 544.12500000000011 6.0125000000000011 6933.1549999999997 0.51793466610380656 2624.8070000000002 311.12500000000006 344.37500000000006 -0.42108527284769387 220.12500000000003
decision_type=10 10 10 2 10 2 10 2 10 10 10 2 10 10 10 2 10 10 10 10 10 10 10 10 10 10 10 10 10 2 10 10 10 10 10 10 10 10 10 10 10 10 2 10 10 10 10 10 10 10 10 10 10 10 10 10 10 10 10 10 2 10
left_child=4 3 6 7 -1 8 15 19 41 17 34 22 -12 55 16 21 37 18 -4 -2 -16 -3 -10 25 27 -7 61 -13 29 30 -28 -32 -25 56 -5 36 -8 49 39 -37 -22 -6 43 -43 -45 -27 -38 -35 -36 -14 52 -52 53 -51 -31 -9 57 -15 -30 -40 -11 -17
right_child=1 2 9 10 5 23 35 13 11 60 12 24 14 33 20 26 -18 -19 -20 -21 40 -23 -24 32 -26 45 28 -29 58 54 31 -33 -34 47 48 38 46 -39 59 -41 -42 42 -44 44 -46 -47 -48 -49 -50 50 51 -53 -54 -55 -56 -57 -58 -59 -60 -61 -62 -63
leaf_value=-1.6451166309761263 6.4335582017859103 1.3433431795222122 11.153937763355581 -0.35883989828995483 -0.60260299259956085 -0.67263404324115617 1.5844240046343767 3.3601724591031927 -0.13606159949817898 22.868858430834447 0.23198060742839571 1.3193726841306086 -0.079950296493548345 3.1501329654687695 7.6190579170253461 3.6954275390825901 7.4583221284164969 18.951660857554614 5.803484641871731 10.503089100337299 6.3090412955860522 9.1276270589140562 2.6253974716165214 0.30587495500724832 0.90634191500345962 0.45863058618403163 0.49645459294546584 5.3838929823700115 6.165885320123099 0.036858771359706742 5.4585667997733838 4.4465225375740243 0.81154076144634368 4.2843814305924086 0.54580970119804573 1.3426040340266086 1.2272741849717832 0.13922601678168248 3.880770993264028 3.3530829243770395 3.6540118378762916 0.59728666375979034 0.07271810093248092 3.0686768612664745 2.4472767844999672 4.9439597858106401 3.4979967359929862 3.2251311659179636 -0.051809897591836553 0.65135282871635747 0.56341826030223963 3.6026433732805927 1.161748682737626 4.1993407468127284 2.7554191814547782 3.1390315456347055 -0.079161000517357971 0.8909974128255741 7.2658544041997288 0.87439417326030799 9.511371028940113 1.0844601347828244
leaf_weight=42740 42 90 74 1721 692 9466 264 34 221 195 1664 32 117 32 120 47 43 62 190 120 136 297 59 66 130 158 115 93 52 187 82 58 38 59 767 159 101 623 40 32 52 224 773 123 43 37 165 92 802 47 552 42 220 43 490 54 254 71 37 959 58 32
leaf_count=42740 42 90 74 1721 692 9466 264 34 221 195 1664 32 117 32 120 47 43 62 190 120 136 297 59 66 130 158 115 93 52 187 82 58 38 59 767 159 101 623 40 32 52 224 773 123 43 37 165 92 802 47 552 42 220 43 490 54 254 71 37 959 58 32
internal_value=-0.00195954 0.00715522 0.0140306 0.00377773 -0.00386784 -0.00160634 0.0117914 0.014657 0.00361925 0.0264335 0.00259102 0.0121963 0.00490708 0.0101846 0.00783208 0.0165871 0.00599585 0.0186196 0.0141288 0.0311111 0.0178896 0.0247158 0.00392857 -0.00288531 0.0212745 -0.00304886 0.0137273 0.031 0.0124829 0.0110944 0.0193137 0.0292857 0.0123077 0.00690945 1.51964e-05 0.00764535 0.0126415 0.00531022 0.00542017 0.0143717 0.0253191 0.00114555 0.00355546 0.00948718 0.018494 0.0075641 0.0186842 0.0165232 0.00255258 0.0079285 0.00932522 0.00619529 0.0153226 0.0266667 0.00799852 0.0290909 0.00284314 0.0129612 0.0270225 0.00370871 0.036502 0.0298101
internal_weight=66388 11493 3786 7707 54895 12155 3207 758 2390 579 6949 535 3659 596 1995 1487 1687 326 264 162 308 387 280 9765 255 9661 1100 125 1021 932 255 140 104 508 3290 1720 530 1644 1190 191 188 1855 1163 390 166 195 266 151 1569 1021 904 594 310 90 677 88 357 103 89 999 253 79
internal_count=66388 11493 3786 7707 54895 12155 3207 758 2390 579 6949 535 3659 596 1995 1487 1687 326 264 162 308 387 280 9765 255 9661 1100 125 1021 932 255 140 104 508 3290 1720 530 1644 1190 191 188 1855 1163 390 166 195 266 151 1569 1021 904 594 310 90 677 88 357 103 89 999 253 79
is_linear=0
shrinkage=0.05


Tree=9
num_leaves=63
num_cat=0
split_feature=62 32 1 69 2 9 53 52 4 58 1 1 62 54 3 6 2 27 46 12 11 41 49 8 3 42 16 42 13 6 37 42 51 3 49 1 66 2 35 43 35 7 52 59 49 17 15 3 67 69 17 8 54 0 2 42 69 46 38 28 37 63
split_gain=270.959 148.232 71.8672 41.8216 40.5652 24.4151 22.1207 28.8386 21.9059 18.5161 18.1391 17.851 15.6192 15.5549 15.1506 15.782 12.9624 11.8843 12.4354 10.9321 10.8217 9.4501 10.57 8.76674 8.698 9.73158 9.2374 10.8983 8.66983 8.59337 8.3046 8.22288 8.03049 8.30504 8.00961 7.85786 7.6091 7.55211 7.45511 7.31534 7.2007 7.19665 6.90496 6.78675 6.62686 10.0441 8.21541 8.15705 6.42913 6.3373 7.6424 6.29457 6.15589 8.74126 8.48272 6.14552 6.04082 6.00426 5.84675 5.83449 5.79188 5.49552
threshold=4760.1250000000009 1.0000000180025095e-35 962.99062500000014 33.086262030998675 2904.3118750000008 204.81250000000003 -0.75183980747897738 270.50000000000006 1042.3187500000001 0.26642411570980834 267.75000000000006 783.98400000000015 6353.7500000000009 0.065403129230142729 1828.5000000000002 710.16387500000008 4016.5945000000006 28.125000000000004 380.12500000000006 31.125000000000004 252.87500000000003 4.125 1.5000000000000002 3817.5790000000002 140.00050000000002 42.776000976562507 329.37500000000006 32.610498428344734 448.12500000000011 668.77487500000018 200.12500000000003 35.899999618530281 8.5000000000000018 250.10800000000003 2.5000000000000004 179.08333333333334 80.315052083333356 4891.5187500000011 10.012500000000001 71.370002746582045 30.412500000000005 1138.4766250000002 252.50000000000003 223.78850000000014 1.0000000180025095e-35 94.875000000000014 5.6125000000000016 451.07142857142861 40.690101593273361 49.918398621493004 98.375000000000014 4666.6530000000012 0.58216583101416164 6415.4455000000007 4672.3811250000008 33.444999694824226 47.005411885885628 190.12500000000003 30.625000000000004 15.812500000000002 332.12500000000006 0.59623643069275856
decision_type=10 10 10 10 10 10 2 2 8 10 8 10 10 2 10 10 10 10 10 10 8 10 2 10 10 10 10 10 10 10 10 10 2 8 2 8 10 10 10 10 10 10 2 10 2 10 10 10 10 10 10 10 2 10 10 10 10 10 10 10 10 10
left_child=4 11 3 37 -1 8 7 31 21 20 58 39 19 17 15 -7 42 18 32 -4 23 59 61 43 -13 26 57 -28 48 -24 -27 -6 -8 -34 -21 -11 51 -3 -38 -2 60 -41 -12 -9 45 46 47 -20 -17 -31 55 -18 53 -43 -55 -51 -47 -26 -10 -5 -30 -23
right_child=1 2 12 5 6 14 13 9 10 35 16 24 -14 -15 -16 28 36 -19 44 34 -22 22 29 -25 25 30 27 -29 40 49 -32 -33 33 -35 -36 -37 38 -39 -40 41 -42 52 -44 -45 -46 56 -48 -49 -50 50 -52 -53 -54 54 -56 -57 -58 -59 -60 -61 -62 -63
leaf_value=-1.7629985277510543 -0.52348556522061329 -0.27193641464770768 18.157848231165939 2.8933236271199676 -0.59057900993331125 3.2544937147171744 0.075234038835779421 2.6361316571634159 3.9195451946012372 2.3897914092900594 -0.072162204547240913 -0.08042086319091056 18.408505970351964 -1.0196649312973947 6.2939806480676914 4.2257641129069761 4.1647216356358792 -0.47569989808499563 0.058676833693395228 10.105793918673449 0.62749585226870264 9.1792883914121628 5.4543772136669428 0.69655236944645904 2.123282838781396 2.6444380883032212 5.8112354615621955 -0.58870291599654312 8.9752017830009532 0.71437424856891552 8.0679949812615632 0.26600514868874553 1.6858521143743006 3.0456578830651253 3.2035928971811476 0.29271096954596204 6.4932542531036708 1.6382907020293063 1.2497225773583371 -0.18617615939309362 1.2435188933858798 4.1714975949430997 2.2147931385231394 6.2033054423156191 -0.11285961564314953 1.2148005260043044 -0.1290683506117308 3.4358672363977769 3.8153658515500659 2.0665831473474161 -0.016012677366587541 2.7607222818463955 0.09201978866656732 0.4721554791075982 2.7642318649153332 8.401218410004418 6.0993142656183164 -0.044859387462054361 2.8499642841580499 0.54656855220857725 5.3481515679903344 5.428727680416717
leaf_weight=36440 4010 877 69 72 2537 500 96 156 53 42 878 267 256 6910 53 115 78 3159 36 117 92 109 54 85 30 58 49 35 206 208 87 1455 103 51 104 1051 32 33 1155 639 33 50 195 73 1558 38 190 34 141 52 43 74 485 222 53 70 36 298 45 216 48 77
leaf_count=36440 4010 877 69 72 2537 500 96 156 53 42 878 267 256 6910 53 115 78 3159 36 117 92 109 54 85 30 58 49 35 206 208 87 1455 103 51 104 1051 32 33 1155 639 33 50 195 73 1558 38 190 34 141 52 43 74 485 222 53 70 36 298 45 216 48 77
internal_value=-0.00205218 0.00466438 0.0103111 0.00856839 -0.00357135 0.0105425 -0.00160773 0.00102804 0.00845646 0.00694129 0.00605578 -0.000694733 0.0276007 -0.00279297 0.0170347 0.0157095 0.005199 -0.000755519 0.00211951 0.0196552 0.0160591 0.0151443 0.0186542 0.0204777 0.00616505 0.00972172 0.00580097 0.0205952 0.0216114 0.0143208 0.0208621 -0.00119239 0.0126 0.0196753 0.0142308 0.00355444 0.00848021 -0.00120879 0.00713142 -0.00173017 0.0275784 0.0013147 0.00110438 0.0255677 0.000734671 0.00712575 0.0025 0.0171429 0.0149219 0.011622 0.0189394 0.0190132 0.00444444 0.00976923 0.00627273 0.0253279 0.0233784 0.00201219 0.0271429 0.00767361 0.0304331 0.0286021
internal_weight=66388 12246 5963 5417 54142 4507 17702 5491 3411 1499 2510 6283 546 12211 1096 1043 2412 5301 2142 290 406 901 613 314 824 557 412 84 543 427 145 3992 250 154 221 1093 1339 910 1187 5459 287 1449 1073 229 1892 334 260 70 256 373 165 152 810 325 275 122 74 328 98 288 254 186
internal_count=66388 12246 5963 5417 54142 4507 17702 5491 3411 1499 2510 6283 546 12211 1096 1043 2412 5301 2142 290 406 901 613 314 824 557 412 84 543 427 145 3992 250 154 221 1093 1339 910 1187 5459 287 1449 1073 229 1892 334 260 70 256 373 165 152 810 325 275 122 74 328 98 288 254 186
is_linear=0
shrinkage=0.05


Tree=10
num_leaves=63
num_cat=0
split_feature=65 62 32 1 65 2 49 2 55 47 55 1 11 6 54 49 2 28 1 48 56 54 56 52 1 14 2 12 21 22 6 53 14 55 23 56 65 60 62 12 44 0 3 62 44 12 30 2 62 52 68 12 24 16 38 12 31 14 55 35 5 59
split_gain=360.217 71.3286 42.4267 38.7219 37.2163 21.6238 18.9196 16.7061 15.0188 15.1156 14.5512 12.3915 12.3413 12.0099 10.5506 11.0661 10.5385 8.98074 9.21547 8.89976 8.86866 8.80978 13.9413 9.22233 8.6794 8.10417 8.03365 7.58223 11.2228 9.88269 7.42987 7.41674 7.33547 6.98013 8.01265 6.94383 6.65323 6.55889 6.45828 9.62347 6.45169 6.0664 11.7952 5.94693 5.69606 6.4591 5.68889 5.58911 5.55984 5.52064 6.58659 7.56801 8.07775 5.81163 5.50058 6.98082 5.42642 7.33333 5.42446 8.01082 10.5089 8.34706
threshold=138.08500000000004 4613.2500000000009 1.0000000180025095e-35 962.99062500000014 110.34500000000001 5190.1450000000004 1.0000000180025095e-35 3443.1065000000003 -0.55601228778889811 19.500000000000004 -0.71466676797886819 908.1455000000002 231.50500000000002 707.09212500000012 0.84874750804349197 1.0000000180025095e-35 4032.3012500000004 8.1125000000000025 228.75000000000003 1177.5000000000002 -0.99049576193482802 0.68322629814330826 0.78298010367706283 315.50000000000006 530.12025000000006 24.037500000000005 3202.8015000000009 87.125000000000014 26.712500000000006 9.2125000000000039 707.09212500000012 -0.83146961230254501 12.612500000000002 -0.99762106698677366 151.12500000000003 0.97308229207007257 225.00500000000002 92.589698562622075 6620.2500000000009 98.125000000000014 5655.1250000000009 9479.2180000000026 1496.9025000000004 4206.7500000000009 8002.8750000000009 15.875000000000002 84.375000000000014 3274.3115000000003 3074.7500000000005 250.50000000000003 114.40856398809525 29.072500000000002 45.875000000000007 333.12500000000006 99.875000000000014 19.902500000000003 33.625000000000007 14.712500000000004 -0.66484924122790601 21.312500000000004 8176.6780000000008 -591.09262500000057
decision_type=10 10 10 10 10 10 2 10 2 2 2 10 10 8 2 2 10 10 8 2 2 2 2 2 8 10 10 10 10 10 10 2 10 2 10 2 10 10 10 10 10 10 10 10 10 10 10 10 10 2 10 10 10 10 10 10 10 10 2 10 10 10
left_child=4 10 21 5 11 6 8 33 9 -4 13 -1 46 19 15 27 -14 -8 47 25 36 22 23 -3 -17 26 -2 28 29 31 -13 -9 -7 34 -6 -29 -10 -34 58 44 -22 49 -43 -15 45 -40 -5 -19 -12 -26 51 52 -51 56 -50 -56 -53 -58 59 61 -61 -20
right_child=1 2 3 12 7 32 17 14 20 -11 48 30 16 43 -16 24 -18 18 38 -21 40 -23 -24 -25 41 -27 -28 35 -30 -31 -32 -33 37 -35 -36 -37 -38 -39 39 -41 -42 42 -44 -45 -46 -47 -48 -49 54 50 -52 53 -54 -55 55 -57 57 -59 -60 60 -62 -63
leaf_value=-1.5042110714040249 2.2338348781294135 2.2171240354241202 8.7203239718415535 3.517913664100182 2.1527397506566892 8.1401690241671343 3.7427862791933482 4.1988719243002359 0.59550003998212886 2.8615289370907888 -0.56411715589028011 6.9728100024372965 9.8284006957942971 0.21185792287585914 -0.42680932513334541 -0.3858518713277107 17.704012875278618 3.0478164408158954 3.3610745419751638 -0.34223736722280645 6.6535008203897794 -0.027723849212485163 0.26219315454919007 8.3100444972105496 -0.033448401127032283 0.33761296892804293 3.6039744272811234 -0.12682687590781744 2.2125619132772125 0.074382904291253091 0.46784595332427853 1.248454362132333 5.9606271186203754 -0.74216877928129266 -0.37135732726163667 1.2177171204931498 6.38749592141561 0.46671340007731033 -0.38005909420884054 8.037279684884183 1.4574202423168972 1.0668312902704198 3.9994208861065061 2.0891271316955886 -0.16718056935479267 2.9040837505079184 6.378558904281638 4.7633499395963801 0.11973878876276274 0.89470242588310256 0.055585034180914483 -0.13811200410548205 2.3571539455889932 0.91986924311647944 3.7370867795260403 0.50027182959626948 -0.46862842013700146 1.6946605287795284 1.1223262989732088 0.93883355256738099 6.4452701453820982 9.4139349654906948
leaf_weight=43234 107 386 143 30 53 52 53 38 31 70 1339 36 55 774 1506 1319 283 31 47 73 33 844 601 76 1044 85 174 229 44 145 265 93 54 6356 91 46 33 40 36 104 279 121 49 166 88 104 60 76 2158 47 429 137 81 46 39 180 33 33 1715 401 102 57
leaf_count=43234 107 386 143 30 53 52 53 38 31 70 1339 36 55 774 1506 1319 283 31 47 73 33 844 601 76 1044 85 174 229 44 145 265 93 54 6356 91 46 33 40 36 104 279 121 49 166 88 104 60 76 2158 47 429 137 81 46 39 180 33 33 1715 401 102 57
internal_value=-0.0021627 0.00611212 0.00986234 0.0128024 -0.00380036 0.011089 0.0102806 -0.00132747 0.0184295 0.0290376 0.00178116 -0.00447858 0.0270093 0.00616751 0.000716911 0.00207931 0.0313905 0.00857498 0.00818363 0.0129954 0.0124202 0.00373099 0.00675917 0.01329 0.000959867 0.0161749 0.0202669 0.00836134 0.0135937 0.00985507 0.00563123 0.0198092 0.0299315 -0.00303846 0.00784722 0.00227273 0.029375 0.0215957 0.00760362 0.0141265 0.00894231 0.0030198 0.0120588 0.00297872 0.00837719 0.0146429 0.0105556 0.0225701 0.00015339 0.00218919 0.00529777 0.0101194 0.02 0.00504016 0.00160496 0.00915525 0.00140394 0.0131818 0.00667097 0.0107331 0.00812127 0.0233654
internal_weight=66454 10979 5884 3977 55475 3549 3403 11940 589 213 5095 43535 428 1379 5440 3934 338 2814 2761 439 376 1907 1063 462 3339 366 281 595 320 276 301 131 146 6500 144 275 64 94 2654 332 312 2020 170 940 228 140 90 107 3716 1850 806 377 128 249 2377 219 203 66 2322 607 503 104
internal_count=66454 10979 5884 3977 55475 3549 3403 11940 589 213 5095 43535 428 1379 5440 3934 338 2814 2761 439 376 1907 1063 462 3339 366 281 595 320 276 301 131 146 6500 144 275 64 94 2654 332 312 2020 170 940 228 140 90 107 3716 1850 806 377 128 249 2377 219 203 66 2322 607 503 104
is_linear=0
shrinkage=0.05


Tree=11
num_leaves=63
num_cat=0
split_feature=64 64 49 65 2 49 56 58 64 46 39 51 3 7 65 42 64 46 3 0 68 54 22 62 46 0 21 37 62 51 2 68 56 65 3 13 9 30 23 46 46 42 59 2 64 61 47 4 68 0 9 43 56 7 30 2 42 64 62 9 8 68
split_gain=343.115 85.5498 44.5934 37.3802 26.2093 24.2672 19.1226 18.6012 18.1344 14.9042 13.1063 13.0912 12.5839 11.8877 11.4763 15.191 11.4676 11.132 9.5 9.75496 9.2948 8.92927 10.6187 12.7482 8.70419 8.58643 8.27287 8.12419 8.11069 7.80188 7.43871 7.34975 10.8004 7.14692 6.94047 6.87494 7.43676 8.44855 9.32139 9.12972 6.85473 6.70627 8.65928 6.71501 6.28165 6.19578 10.7355 6.01667 6.01653 5.79935 5.79457 5.75689 8.82959 5.70361 5.48127 5.4493 5.40496 5.27565 5.14599 5.08893 5.08562 4.9616
threshold=135.18500000000003 243.13500000000002 1.0000000180025095e-35 120.00500000000001 4672.3811250000008 1.0000000180025095e-35 0.72064045540576316 0.12059703805087278 353.24500000000006 1710.1250000000002 3.8750000000000004 2.5000000000000004 46.041666666666679 1304.0495000000003 194.28500000000003 45.110500335693366 179.62500000000003 337.12500000000006 1429.5000000000002 6322.9143750000012 101.39730654761907 0.41248606129204557 15.112500000000002 4480.1250000000009 590.12500000000011 9043.3767500000013 2.8625000000000003 68.625000000000014 7105.0000000000009 7.5000000000000009 5190.1450000000004 142.39272321428572 -0.74979862697202038 315.36000000000007 1340.8888750000003 561.37500000000023 120.56250000000001 76.125000000000014 222.12500000000003 120.12500000000001 214.12500000000003 32.168498992919929 -389.07212500000009 4049.3246250000007 106.02500000000002 2520.1250000000005 19.500000000000004 1566.5121250000002 89.405595238095259 8646.9975000000013 217.56250000000003 62.244998931884773 -0.10737736916418625 1194.6565000000003 228.12500000000003 4812.0841250000012 35.82299995422364 120.14000000000001 5987.1250000000009 115.93750000000001 4916.170000000001 135.71132440476194
decision_type=10 10 2 10 10 2 2 10 10 10 10 2 10 10 10 10 10 10 10 10 10 2 10 10 10 10 10 10 10 2 10 10 2 10 10 10 10 10 10 10 10 10 10 10 10 2 2 10 10 10 10 10 2 10 10 10 10 10 10 10 10 10
left_child=3 2 7 44 11 9 8 10 17 13 -2 50 -13 -5 21 29 25 40 19 59 -20 22 23 -9 55 -6 -21 48 -19 34 31 32 -18 35 -16 36 -29 38 58 -39 -3 -10 -43 -44 -1 46 -27 -48 -14 -35 -4 52 -41 -50 -45 -8 -51 -7 -38 -15 61 -34
right_child=1 6 4 5 16 57 24 14 41 -11 -12 12 27 18 15 -17 30 28 20 26 -22 -23 -24 -25 -26 45 -28 33 -30 -31 -32 -33 60 49 -36 -37 37 39 -40 51 -42 42 43 54 -46 -47 47 -49 53 56 -52 -53 -54 -55 -56 -57 -58 -59 -60 -61 -62 -63
leaf_value=-1.7590004415398781 4.0185817872564336 4.8217510361055851 -0.18544980486862386 -0.096973300312891766 0.26313940948663311 -0.72109107106828108 3.5877441592977299 0.3134641068252752 14.768616924205242 -0.18275619640353113 16.579311108313455 -0.47937930247758809 -0.27949000446709604 1.2432779444484376 8.7153039497269393 1.0039085930543903 -0.92904432205211851 3.6662457497737964 1.084285712680825 5.7248941248121952 6.6279751856027467 -0.028694743276987074 0.097178819390143195 3.8213134148410433 -0.29291857629553064 5.9406416812812699 0.9265787373369001 -0.077635674102632876 11.847522662601438 8.2843077732494752 3.7321933748717742 0.74533630934067929 1.4240947771049408 2.3688645744172372 -0.10874912151427672 -0.14924664069136498 0.38334986443090902 4.5201160712193627 2.4888831073399462 2.900299738521257 6.2478292354169112 0.72398704399500535 6.8625284593517364 13.717815943090621 -0.71891281635060411 0.34101089338676954 0.99904058175259258 -0.32804816801563352 0.17093022974175898 0.91655963435342935 1.0476752925092467 0.46881985939657 0.43180673159127481 2.2456304228284001 19.973386801269481 6.672976600264561 6.0585856490109089 -0.1009322778018472 2.1832202333143607 4.2154185969237501 6.9663683675933159 5.6882792074343218
leaf_weight=37385 74 54 1932 381 486 3757 80 58 110 712 100 683 70 49 37 101 51 511 83 30 54 226 104 86 168 65 657 937 59 87 75 124 104 92 32 599 478 38 209 58 80 34 55 137 8974 73 36 54 55 30 115 2850 164 160 63 49 34 2294 31 50 57 63
leaf_count=37385 74 54 1932 381 486 3757 80 58 110 712 100 683 70 49 37 101 51 511 83 30 54 226 104 86 168 65 657 937 59 87 75 124 104 92 32 599 478 38 209 58 80 34 55 137 8974 73 36 54 55 30 115 2850 164 160 63 49 34 2294 31 50 57 63
internal_value=-0.00222515 0.00541736 0.0038869 -0.00391412 0.0028988 -0.000772903 0.0170357 0.0145028 0.020068 0.00397817 0.0291954 0.00193029 0.00303021 0.00715491 0.0110055 0.0195136 0.0098569 0.0152415 0.0102221 0.00810432 0.0223723 0.0063924 0.0129435 0.0217361 0.00577441 0.00585434 0.00598981 0.00378553 0.012193 0.0292949 0.0158861 0.0131704 0.0177273 0.00336051 0.0167391 0.00305369 0.00368835 0.00466562 0.00955432 0.00353698 0.028209 0.028584 0.0245848 0.0277451 -0.00446073 0.0138596 0.0195161 0.00833333 0.0120175 0.0139103 -0.00155594 0.00323568 0.010991 0.0161628 0.032 0.0155426 0.0254687 -0.00235581 0.00590373 0.0227778 0.0224554 0.0180539
internal_weight=66454 12028 10628 54426 9723 8067 1400 905 1103 2016 174 8535 6488 1304 731 257 1188 704 923 786 137 474 248 144 297 714 687 5805 570 156 474 399 275 5520 69 5364 4765 3828 718 3110 134 399 289 255 46359 228 155 90 285 156 2047 3072 222 215 200 129 64 6051 509 99 224 167
internal_count=66454 12028 10628 54426 9723 8067 1400 905 1103 2016 174 8535 6488 1304 731 257 1188 704 923 786 137 474 248 144 297 714 687 5805 570 156 474 399 275 5520 69 5364 4765 3828 718 3110 134 399 289 255 46359 228 155 90 285 156 2047 3072 222 215 200 129 64 6051 509 99 224 167
is_linear=0
shrinkage=0.05


Tree=12
num_leaves=63
num_cat=0
split_feature=65 9 2 0 4 55 52 2 65 0 29 3 65 46 69 62 1 54 52 62 65 3 51 44 1 29 46 68 43 47 46 56 31 49 9 23 49 55 69 60 45 7 67 66 43 44 9 28 36 60 61 60 67 38 55 2 23 11 36 49 59 21
split_gain=288.79 59.3923 35.3623 32.4795 27.1372 25.747 19.5581 21.3232 17.9236 17.636 15.202 13.9872 10.4192 11.7993 9.70548 9.70384 10.4913 9.67914 9.49547 9.47873 9.34363 8.95755 8.92414 8.86425 8.05891 7.94237 7.56663 7.51709 9.32441 12.4008 8.29407 7.59039 7.93036 7.42461 6.99278 7.21151 6.88643 6.74835 6.49091 6.38978 6.24323 11.4517 6.07632 5.94817 5.87725 5.63555 6.52013 5.60662 5.55617 5.41424 5.19531 5.73419 8.109 5.18 5.14792 5.12429 6.494 5.04459 5.04125 5.00001 4.94506 4.89339
threshold=138.08500000000004 201.43750000000003 3155.1913750000008 8986.613000000003 2237.2493749999999 -0.65189295912203338 285.50000000000006 3260.8581250000007 117.45500000000001 9275.3230000000021 26.987500000000004 1175.3750000000002 200.00500000000002 655.12500000000011 45.868069123101577 6620.2500000000009 549.92812500000014 0.84874750804349197 288.50000000000006 4438.2500000000009 315.36000000000007 274.02500000000003 8.5000000000000018 4104.1250000000009 810.76300000000003 23.812500000000004 310.12500000000006 109.89456101190478 62.699998855590827 18.500000000000004 351.12500000000006 -0.42108527284769387 6.8750000000000009 1.0000000180025095e-35 143.06250000000003 90.125000000000014 2.5000000000000004 -0.9523687564627995 46.251778701379315 95.076600646972665 2211.7500000000005 1572.30925 31.687542471468884 123.88572916666668 76.640003204345717 7944.5000000000009 246.31250000000003 19.012500000000006 22.762500000000006 138.61969814300539 187.62500000000003 87.96679697036744 20.339062051892569 3.8750000000000004 -0.57023701209772126 4119.4641250000013 222.12500000000003 186.64875000000004 18.512500000000006 3.5000000000000004 -35.948875000000037 6.4875000000000016
decision_type=10 10 10 10 8 2 2 10 10 10 10 10 10 10 10 10 10 2 2 10 10 10 2 10 10 10 10 10 10 2 10 2 10 2 10 10 2 2 10 10 8 10 10 10 10 10 10 10 10 10 2 10 10 10 2 10 10 10 10 2 10 10
left_child=2 4 -1 10 5 6 11 -8 21 27 12 47 45 33 -9 42 -17 19 -16 54 53 49 23 -23 -25 48 38 28 29 -7 31 32 -30 -14 44 -36 -12 39 -24 -21 41 -6 -5 -26 -20 46 -3 -2 -11 -4 -39 -52 -53 -13 -10 -44 -57 -37 60 -48 -35 -29
right_child=1 3 8 15 40 9 7 14 17 25 36 20 13 -15 18 16 -18 -19 34 37 -22 22 26 24 43 -27 -28 61 30 -31 -32 -33 -34 58 35 57 -38 50 -40 -41 -42 -43 55 -45 -46 -47 59 -49 -50 -51 51 52 -54 -55 -56 56 -58 -59 -60 -61 -62 -63
leaf_value=-1.5101476583198385 1.8697508885137801 0.24613877117000937 -0.84215168034847143 -0.037657772726503426 -0.070918734747926024 -0.16153583235012745 0.25167228680572518 5.8241728819776037 0.49533256684746158 1.4079677096026657 8.8646122997403278 1.3388329737100602 15.797483965584082 0.62834970933680989 9.3712094038173444 0.29002962995726472 15.721443243948238 -0.42273984356197264 1.9945041499850626 1.7308493997446199 10.411179133882065 3.6440877878807925 0.83843750514403903 -0.54496924594292151 5.3881851178853557 -0.58055326711695698 0.15132281597355654 1.2041249486166423 0.97014987350363391 3.6008755499376024 0.33906140963555687 1.0437868803906436 6.2111716092423812 2.4261915424663187 14.954777318278497 5.1177964198208805 2.246517166983327 2.0139477735073004 2.6351490093519878 0.15232155007439122 -0.81227576480324526 1.1027067251370584 0.70941725788205456 0.1552945485764127 3.7645411033901102 10.298105858915205 4.2001865441123485 0.22924361650931979 4.479956318403989 0.90590491266600859 -0.14048251922460467 2.9294404558140119 0.60421029386604674 2.546803355754844 -0.21611718936945012 6.6509977339300015 0.64393864383513633 3.640348330311415 2.9455753915092462 -0.27061629650778984 14.125834674111127 -0.13049646222604364
leaf_weight=39258 60 699 6494 48 2410 45 191 58 449 67 55 121 43 162 67 43 242 1215 223 67 42 30 33 4070 63 37 577 305 31 60 1122 138 32 72 37 37 72 39 35 44 649 994 57 123 48 43 104 595 104 38 472 55 1099 59 1314 165 32 130 63 34 84 1299
leaf_count=39258 60 699 6494 48 2410 45 191 58 449 67 55 121 43 162 67 43 242 1215 223 67 42 30 33 4070 63 37 577 305 31 60 1122 138 32 72 37 37 72 39 35 44 649 994 57 123 48 43 104 595 104 38 472 55 1099 59 1314 165 32 130 63 34 84 1299
internal_value=-0.00229437 0.00511476 -0.0037607 0.0128642 0.0033696 0.00587001 0.0109173 0.0166182 -0.00179657 0.0032716 0.00880154 0.00577537 0.00719325 0.0136321 0.02125 0.0227683 0.029386 0.000784601 0.0191697 0.00210653 0.0166216 -0.00286705 -0.00125837 -0.00208353 -0.00227444 0.0173558 0.00422481 0.00230541 0.00494398 0.0192857 0.00380574 0.0131592 0.0275397 0.0201908 0.0166842 0.0236765 0.025315 0.00468468 0.02 0.0166216 0.000341721 0.00119859 0.0165232 0.00790322 0.0114207 0.00409091 0.00318399 0.00209924 0.0219006 -0.00408145 0.00388889 0.00345633 0.00535528 0.0116667 -0.000490642 0.0196063 0.0234264 0.0192515 0.0164612 0.0131159 0.0212821 -4.36421e-05
internal_weight=66454 10979 55475 2018 8961 4908 1668 791 16217 3240 1431 877 1304 424 600 587 285 4754 542 3539 222 11463 4931 4286 4256 208 645 3032 1428 105 1323 201 63 262 475 204 127 1776 68 111 4053 3404 302 186 271 880 837 655 171 6532 1665 1626 1154 180 1763 254 197 167 219 138 156 1604
internal_count=66454 10979 55475 2018 8961 4908 1668 791 16217 3240 1431 877 1304 424 600 587 285 4754 542 3539 222 11463 4931 4286 4256 208 645 3032 1428 105 1323 201 63 262 475 204 127 1776 68 111 4053 3404 302 186 271 880 837 655 171 6532 1665 1626 1154 180 1763 254 197 167 219 138 156 1604
is_linear=0
shrinkage=0.05


Tree=13
num_leaves=63
num_cat=0
split_feature=64 64 49 65 55 49 64 56 1 65 2 55 67 1 58 65 3 67 58 11 11 46 3 60 18 56 46 14 4 35 29 64 23 64 43 64 31 64 46 1 21 12 67 14 56 55 14 15 65 35 58 28 64 30 66 1 12 9 8 43 49 46
split_gain=277.398 68.1981 35.0832 33.2469 26.5013 20.8515 20.0607 17.0502 18.1569 11.9107 9.89662 11.9941 10.2444 9.6378 11.1437 8.69903 8.3311 8.2558 9.42751 8.18452 7.82766 7.58509 8.92578 9.35137 8.14459 6.7545 6.70006 6.49541 7.16536 6.89715 6.41679 6.38967 7.43498 6.36298 6.29919 5.98306 5.92695 5.79748 5.6285 5.58843 10.7166 6.53249 6.62196 6.53333 5.84017 5.49233 10.5723 5.48296 5.34147 5.40387 5.24284 5.20488 5.12651 5.06192 7.1031 6.85622 5.94476 5.56025 7.35 4.99001 4.94874 4.84298
threshold=135.18500000000003 243.13500000000002 1.0000000180025095e-35 115.47500000000001 -0.58429276287313725 1.0000000180025095e-35 170.00500000000002 0.72064045540576316 615.00387500000011 225.00500000000002 4636.993625000001 -0.58429276287313725 39.742093534881619 730.14387500000009 0.099684834331314573 194.28500000000003 525.7398750000001 79.324323382098569 0.19525996091043835 182.62500000000003 215.62500000000003 1710.1250000000002 126.11325000000001 96.264324951171901 0.62500000000000011 0.88201535311751322 590.12500000000011 9.1625000000000032 1694.2440000000004 15.712500000000004 13.012500000000001 353.24500000000006 208.12500000000003 120.79500000000002 64.05749893188478 310.92000000000007 74.125000000000014 106.02500000000002 647.12500000000011 929.00112500000012 18.812500000000004 19.902500000000003 32.622420543096922 11.512500000000001 0.67123509350548771 -0.55601228778889811 19.887500000000006 5.9125000000000014 449.11000000000007 28.212500000000006 0.27380990591160054 12.387500000000001 127.53500000000001 112.62500000000001 109.42000000000002 530.12025000000006 22.032500000000002 175.06250000000003 4249.9700000000021 83.207500457763686 3.5000000000000004 1384.1250000000002
decision_type=10 10 2 10 2 2 10 2 10 10 10 2 10 10 10 10 10 10 10 8 8 10 10 10 10 2 10 10 10 10 10 10 10 10 10 10 10 10 10 8 10 10 10 10 2 2 10 10 10 10 10 10 10 10 10 10 8 10 10 10 2 10
left_child=3 2 4 37 15 9 16 8 17 21 53 30 20 14 -6 -2 -4 18 19 -3 -13 22 -5 45 -25 36 -9 -22 29 51 -12 60 34 -26 -33 -21 38 -1 -11 44 41 -41 -43 -44 -18 46 -24 -36 49 -34 -17 -29 59 54 55 56 -8 -58 -59 -7 61 -10
right_child=1 7 6 5 13 52 10 26 31 25 11 12 -14 -15 -16 50 39 -19 -20 35 27 -23 23 24 33 -27 -28 28 -30 -31 -32 32 48 -35 47 -37 -38 -39 -40 40 -42 42 43 -45 -46 -47 -48 -49 -50 -51 -52 -53 -54 -55 -56 -57 57 58 -60 -61 -62 -63
leaf_value=-1.6347960146108598 2.9083517483334971 4.4923374131418559 -0.13871285496753846 -0.059741072664467099 2.2968186095512153 -0.61835274550008423 2.4614477635340983 4.4353550020441563 8.8061104182661989 5.5105033860131378 13.943866961135761 0.490023937500776 0.76776761802123872 8.7707130681874936 0.93555507903313639 14.458597688443442 0.5927405885115844 -0.47628277529996066 2.1898740381338371 2.9527216454997722 6.1722004849371643 -0.24021328944747611 5.0800953203661798 0.63921592378032333 1.1624203762078225 -0.24682031198587198 -0.28313265643880858 3.0636156599126623 -0.16462416183273385 4.3445207702866186 2.2813291370079565 6.2046528070984781 9.6038810488601349 5.3814361030225397 14.997325435423797 7.360892143389461 5.2750918659248782 -0.68511997199718133 0.45474429424150692 1.723384332632697 0.21735406624838483 0.11406426135308229 5.6108240957379802 1.4200950575206051 -0.23496590505109213 -0.0035050753004294529 0.19781382819919979 14.51489225660057 14.834153116839415 -0.63912696901798638 2.0234524513667735 -0.017806503035690931 0.032779651530793201 0.52124259871977185 0.81726341088404419 5.014371211997382 0.30784138071818179 0.33574133957530689 3.5554938051773428 0.78860532903459279 0.95205474651165434 4.2438602663385536
leaf_weight=36521 90 35 3351 539 40 6186 40 129 133 31 41 77 341 76 575 94 762 91 269 73 30 749 52 125 116 31 168 39 39 59 39 30 51 61 31 43 44 7946 56 115 786 171 40 120 741 372 123 138 40 31 30 44 1411 1494 1021 46 267 30 30 63 82 56
leaf_count=36521 90 35 3351 539 40 6186 40 129 133 31 41 77 341 76 575 94 762 91 269 73 30 749 52 125 116 31 168 39 39 59 39 30 51 61 31 43 44 7946 56 115 786 171 40 120 741 372 123 138 40 31 30 44 1411 1494 1021 46 267 30 30 63 82 56
internal_value=-0.00235231 0.00451945 0.00315299 -0.00387095 0.0125691 -0.00125967 0.00227656 0.0148929 0.0177561 0.00291648 0.00521446 0.0105148 0.00819555 0.00780752 0.00573171 0.0279439 0.000520866 0.0108513 0.0138095 0.0238079 0.0151389 0.0019256 0.00411383 0.0073086 0.0143709 0.0159877 0.00425926 0.0201185 0.016547 0.0217606 0.02875 0.0237162 0.0284891 0.0212712 0.0344472 0.0174138 0.0209542 -0.00445578 0.0133908 0.00256855 0.00506493 0.0112556 0.00768882 0.015 0.000522288 0.00340951 0.0107143 0.0381953 0.0187705 0.0114634 0.0365323 0.0124699 -0.00251306 0.00393101 0.006053 0.011586 0.00930518 0.00707951 0.0208333 -0.0031277 0.0180627 0.0225132
internal_weight=66454 12028 10628 54426 905 9959 9723 1400 1103 2299 3637 709 629 691 615 214 6086 511 420 151 288 2137 1388 849 302 162 297 211 181 142 80 592 321 177 199 116 131 44467 87 2735 1232 446 331 160 1503 547 175 169 122 82 124 83 7660 2928 1434 413 367 327 60 6249 271 189
internal_count=66454 12028 10628 54426 905 9959 9723 1400 1103 2299 3637 709 629 691 615 214 6086 511 420 151 288 2137 1388 849 302 162 297 211 181 142 80 592 321 177 199 116 131 44467 87 2735 1232 446 331 160 1503 547 175 169 122 82 124 83 7660 2928 1434 413 367 327 60 6249 271 189
is_linear=0
shrinkage=0.05


Tree=14
num_leaves=63
num_cat=0
split_feature=64 64 49 55 65 64 49 56 1 3 9 22 3 68 2 1 13 55 66 67 58 64 56 58 11 11 66 65 66 14 43 31 24 66 46 69 11 64 39 35 59 41 46 3 1 60 64 68 59 68 38 69 2 60 3 1 60 65 57 67 44 39
split_gain=247.251 68.8558 30.5666 23.8431 22.4209 20.9768 17.8919 15.8292 16.0637 13.0857 10.0517 9.6582 8.79408 8.21528 8.0444 8.60915 7.7 7.68548 13.3032 7.56108 10.4002 7.5543 7.62081 7.31398 6.91009 7.23956 6.8604 7.53912 7.3951 6.89787 6.75681 6.37233 6.58713 6.23833 8.93738 6.83551 10.4167 6.14677 8.80603 5.92941 5.80356 7.89063 5.7111 5.61297 5.60634 5.5609 5.4632 5.39085 7.50283 7.15388 6.74726 5.43632 5.21796 7.40846 5.73227 5.56156 5.35303 5.03205 4.76856 4.64133 4.62173 5.01439
threshold=129.36500000000004 243.13500000000002 1.0000000180025095e-35 -0.58429276287313725 112.65500000000002 170.00500000000002 1.0000000180025095e-35 0.72064045540576316 615.00387500000011 1120.2500000000002 182.93750000000003 14.412500000000003 701.31550000000027 105.5179017857143 4636.993625000001 962.99062500000014 464.12500000000011 -0.88606241628642823 92.433437500000011 79.324323382098569 0.21568988343972245 353.24500000000006 -0.9574497222574998 0.41957877692344392 182.62500000000003 366.37500000000006 110.32479166666668 183.63000000000002 140.95354166666669 32.912500000000016 74.989997863769545 5.125 36.875000000000007 113.00104166666669 120.12500000000001 25.370885025936726 186.64875000000004 119.92500000000003 1.1250000000000002 19.012500000000006 1067.3397500000003 114.87500000000001 590.12500000000011 208.62500000000003 828.12500000000011 92.443799247741723 185.19000000000003 114.40856398809525 353.13700000000114 116.52598214285716 78.125000000000014 45.716709323506372 3783.0502500000007 136.71647220611575 1734.4662500000002 779.05000000000007 86.801149139404316 264.44000000000005 7909.8900000000012 52.954669126174331 5693.2500000000009 1.6250000000000002
decision_type=10 10 2 2 10 10 2 2 10 10 8 10 10 10 10 10 10 2 10 10 10 10 2 8 8 10 10 10 10 10 10 10 10 10 10 10 10 10 10 10 10 10 10 10 10 10 10 10 10 10 10 10 10 10 10 10 10 10 10 10 10 10
left_child=4 2 3 12 52 23 10 8 19 44 17 -11 39 -12 -7 26 -15 18 30 20 24 60 -23 33 -3 -26 29 -28 -29 59 -6 -24 -33 47 -35 36 -36 -19 -39 -2 41 -40 -9 -20 -5 -13 -30 51 49 -49 -51 58 -1 54 55 -54 -57 -37 -4 -16 -10 -62
right_child=1 7 5 9 6 14 -8 42 21 11 13 45 -14 16 15 -17 -18 37 43 -21 -22 22 31 -25 25 -27 27 28 46 -31 -32 32 -34 34 35 57 -38 38 40 -41 -42 -43 -44 -45 -46 -47 -48 48 -50 50 -52 -53 53 -55 -56 56 -58 -59 -60 -61 61 -63
leaf_value=-1.4446487878663092 5.9658505662328061 4.1075475586634909 -0.22239239668643196 0.046714773428655577 0.095147066957933249 0.71499700473702987 -0.55097333696124906 4.2135872519419477 6.9423392198881348 3.1278302338265309 0.36391281516099772 6.246168948531297 8.4091676117603935 0.50494001380427211 1.3340639769272871 13.246673613078972 5.6647763918399985 -0.19114642559204009 1.7209017273691385 -0.45246863653496316 1.6854742008509485 14.222282308754268 0.63634580596454215 -0.40141665518901759 4.025395714790176 8.4376448118581298 0.51013257502193576 0.11915587869452811 6.4074439170920376 4.1952566856862576 2.9663459098298004 13.56629396959908 11.576722967501377 4.6243433481364509 -0.023815252680932986 -0.13811775626391218 4.6089013175900266 -0.27678589760454864 2.6863660757379195 0.99673274836414427 1.2165380720619829 0.30522340556734379 -0.26897602361686884 3.4425099307351097 2.9167751632850889 -0.25763155697481471 1.782232064311279 1.7929492822492581 0.050712734235579364 0.21020956862930318 2.0361713712711436 0.47255911159713943 -0.70312395143914708 0.69030278854960558 1.4261581012772557 1.5334212039308062 0.015561197646313052 3.7420903543788913 5.5537349242606426 2.3705392201193733 0.099927083822009877 7.7912156883357371
leaf_weight=39158 34 44 893 556 256 2928 7719 129 32 148 81 38 157 30 75 33 33 1472 30 91 237 70 42 1722 109 30 334 70 40 31 46 99 110 36 30 3069 30 176 62 85 59 30 168 32 37 95 76 33 179 119 55 1578 2949 36 88 38 99 91 38 50 58 181
leaf_count=39158 34 44 893 556 256 2928 7719 129 32 148 81 38 157 30 75 33 33 1472 30 91 237 70 42 1722 109 30 334 70 40 31 46 99 110 36 30 3069 30 176 62 85 59 30 168 32 37 95 76 33 179 119 55 1578 2949 36 88 38 99 91 38 50 58 181
internal_value=-0.00240949 0.00347795 0.00231437 0.010087 -0.00398939 0.00153779 -0.00186316 0.014 0.0167588 0.00604119 0.00200043 0.0149288 0.0228985 0.0147917 0.00467831 0.00945698 0.0283333 0.00114887 0.00777472 0.0102642 0.0130952 0.0223649 0.0275545 8.7005e-05 0.0220492 0.0165827 0.00823964 0.00548077 0.0135484 0.0174359 0.00344371 0.0234861 0.0270574 0.000893349 -0.000608109 -0.000885094 0.0158333 -0.000191774 0.00600917 0.0126471 0.0148675 0.0227174 0.00375421 0.028871 0.00182968 0.00515037 0.0212931 0.00258204 0.0080829 0.0145652 0.0105172 0.00173575 -0.00449254 -0.00255452 -0.00281034 -0.00316915 0.00667883 -0.00120253 -0.00129431 0.0122 0.0162177 0.0138285
internal_weight=66454 14060 12660 1150 52394 11510 10026 1400 1103 874 2307 281 276 144 3637 709 63 2163 364 511 420 592 321 7873 183 139 676 520 186 156 302 251 209 6151 3256 3220 60 1799 327 119 151 92 297 62 593 133 116 2895 386 207 174 2509 42368 3210 3174 3086 137 3160 931 125 271 239
internal_count=66454 14060 12660 1150 52394 11510 10026 1400 1103 874 2307 281 276 144 3637 709 63 2163 364 511 420 592 321 7873 183 139 676 520 186 156 302 251 209 6151 3256 3220 60 1799 327 119 151 92 297 62 593 133 116 2895 386 207 174 2509 42368 3210 3174 3086 137 3160 931 125 271 239
is_linear=0
shrinkage=0.05


Tree=15
num_leaves=63
num_cat=0
split_feature=64 64 65 7 49 49 62 55 55 33 11 56 1 64 53 65 1 24 28 66 24 35 29 1 5 9 1 33 22 23 48 64 39 64 41 60 46 1 42 2 53 2 1 14 42 66 6 24 1 2 66 56 54 17 7 35 64 17 23 1 42 36
split_gain=239.246 56.8383 32.7813 26.2343 27.0668 21.3091 20.1882 17.5102 14.3463 12.9593 12.631 12.4295 10.7085 10.519 10.2479 8.0809 8.05294 9.5191 7.96337 9.34896 7.91107 7.4424 7.41953 7.15925 7.01068 6.91239 6.88816 6.6594 6.5349 9.19525 6.44387 6.21365 6.89131 6.11819 5.90338 10.9702 8.4048 5.6977 5.97843 6.48556 6.06868 5.56471 5.50632 8.44842 7.40242 5.4692 5.32972 5.27873 5.24894 9.69498 6.50278 5.23889 5.25627 5.03126 4.59377 6.79298 6.06532 5.12821 4.39158 4.39028 4.60227 4.34642
threshold=136.83500000000004 261.99000000000007 110.34500000000001 1222.4042500000003 1.0000000180025095e-35 1.0000000180025095e-35 6754.5000000000009 -0.57023701209772126 -0.96683886033945943 10.125000000000002 176.37500000000003 -0.99981480381338828 1141.6488750000001 170.00500000000002 -0.75183980747897738 225.00500000000002 297.10000000000008 80.125000000000014 7.8125000000000009 110.65812500000003 1.3750000000000002 9.0625000000000018 9.3125000000000018 662.06500000000005 7776.2037500000015 227.81250000000003 576.23550000000012 0.62500000000000011 15.987500000000002 215.37500000000003 1117.5000000000002 119.92500000000003 1.1250000000000002 115.22500000000001 128.87500000000003 95.806021575927744 2050.8750000000005 908.1455000000002 31.836500167846683 5073.3413750000009 -0.84874750804349186 3231.6080000000002 464.63850000000008 27.537500000000005 39.188999176025398 111.03500000000001 884.87812500000007 80.625000000000014 946.87975000000017 4596.7227500000008 117.04958333333336 0.88201535311751322 -0.19509032201612828 99.875000000000014 1541.3525000000002 29.912500000000005 203.49500000000003 59.125000000000007 35.625000000000007 879.33575000000008 31.85100078582764 22.162500000000005
decision_type=10 10 10 10 2 2 10 2 2 10 10 2 10 10 2 8 8 10 10 10 10 10 10 10 10 10 8 10 10 10 2 10 10 10 10 10 10 10 10 10 2 10 10 10 10 10 10 10 10 10 10 2 2 10 10 10 10 10 10 10 10 10
left_child=2 3 41 10 7 11 8 14 -3 61 -2 -4 45 48 20 31 17 -15 21 25 -5 -18 -14 26 -11 28 27 -9 29 53 -29 -13 -33 -7 35 -34 -37 38 -21 -40 -41 -1 43 44 -31 -10 -47 -12 50 58 -6 52 -17 -20 -39 56 57 -56 -50 -43 -61 -8
right_child=1 6 5 4 13 33 9 23 12 24 47 15 22 16 -16 51 18 -19 19 37 -22 -23 -24 -25 -26 -27 -28 30 -30 42 -32 32 34 -35 -36 36 -38 54 39 40 -42 59 -44 -45 -46 46 -48 -49 49 -51 -52 -53 -54 -55 55 -57 -58 -59 -60 60 -62 -63
leaf_value=-1.4685708421994008 -0.23660209066087493 6.5963457453517655 2.2264857759131611 1.2270217061216386 0.34651052844251506 -0.80864437715441539 0.67632932505666499 -0.033630419590453188 4.2877366737936429 2.5033029132409648 0.75958897242317414 -0.0086938684513062376 2.2150528644492016 2.3139645505647182 0.5043790546156367 3.7356158683712004 0.10485299383656428 0.93901261347006404 0.66475432575035276 2.7656909816404895 7.4914674711526734 5.8889928362035366 11.127314478072247 8.0198689673515542 16.760464328757447 3.5067858059543511 0.32847731894665422 0.32106625917773485 -0.053992491547726097 3.05272629896991 2.8753408421676854 0.020679328544755061 0.077705820874131123 -0.13843863637188422 -0.082154211405384425 3.7938367276201461 0.54668856686895995 0.54897515404348507 -0.078090116766507844 5.9077893889473341 -0.36741433154994074 -0.67966799481518625 5.1826380815809481 -0.026004790078489305 0.7919663965493795 1.5987378964385388 3.6049299500976071 -0.16659010976324837 6.6087378955395524 5.1998677929592247 -0.11999870600708853 -0.24391315722373719 1.7187662076927794 2.5453694244674971 -0.2767739283114628 -1.3813761195817549 10.693498625911523 7.1510370615544963 0.11883974001014291 1.3480090282908814 -0.1121753915823268 7.8755330415281053
leaf_weight=34174 2143 81 33 35 1760 5578 58 38 79 38 690 1938 39 108 37 44 31 99 405 186 146 49 102 68 167 50 292 31 195 45 51 295 81 4621 63 93 37 174 1289 42 36 7714 35 55 38 541 44 335 36 42 1474 33 86 33 39 36 57 39 159 40 88 34
leaf_count=34174 2143 81 33 35 1760 5578 58 38 79 38 690 1938 39 108 37 44 31 99 405 186 146 49 102 68 167 50 292 31 195 45 51 295 81 4621 63 93 37 174 1289 42 36 7714 35 55 38 541 44 335 36 42 1474 33 86 33 39 36 57 39 159 40 88 34
internal_value=-0.00239467 0.00414281 -0.0037709 0.00295914 0.00462552 -0.00156643 0.0145266 0.0139828 0.0107449 0.0258081 -0.000833335 0.00238069 0.00872671 0.00362254 0.0257339 0.00200374 0.00576948 0.0152899 0.0050741 0.00462237 0.0306354 0.020625 0.0212411 0.00864583 0.0328049 0.00896028 0.00616505 0.01625 0.00784119 0.0103846 0.0242683 0.00130235 0.00589631 -0.00261251 0.0116058 0.0156161 0.0246154 0.00266596 0.00137476 0.00023043 0.0142308 -0.00444783 0.0201445 0.0156522 0.0257229 0.00606928 0.00440171 0.00373171 0.00174157 0.00892405 0.00121521 0.0127914 0.0173077 0.00652968 0.00847826 0.0142982 0.0194444 0.0103846 0.00423077 -0.00324662 0.0059375 0.0102174
internal_weight=66479 11561 54918 10378 7210 12902 1183 698 886 297 3168 2703 805 6512 218 2670 3041 207 2834 2754 181 80 141 480 205 856 412 120 806 611 82 2507 569 10199 274 211 130 1898 1553 1367 78 42016 173 138 83 664 585 1025 3471 237 3234 163 130 438 345 171 135 78 195 7842 128 92
internal_count=66479 11561 54918 10378 7210 12902 1183 698 886 297 3168 2703 805 6512 218 2670 3041 207 2834 2754 181 80 141 480 205 856 412 120 806 611 82 2507 569 10199 274 211 130 1898 1553 1367 78 42016 173 138 83 664 585 1025 3471 237 3234 163 130 438 345 171 135 78 195 7842 128 92
is_linear=0
shrinkage=0.05


Tree=16
num_leaves=63
num_cat=0
split_feature=64 64 7 2 49 41 64 56 11 55 49 58 68 1 9 29 64 43 1 46 38 35 12 7 68 24 44 22 63 24 69 6 43 66 1 12 60 20 36 66 3 35 55 38 44 17 16 52 7 26 64 55 35 14 35 60 60 68 66 46 55 16
split_gain=222.032 50.6762 28.5729 27.3577 22.7162 15.8056 15.5094 15.0157 14.2794 13.9057 11.7976 13.4199 9.78212 9.35313 9.78995 12.0799 12.8295 8.77775 8.73616 8.09111 11.5542 15.5537 7.97043 7.46706 7.36484 7.02813 6.53696 6.32939 10.2932 6.23976 6.2392 6.87926 7.32719 6.11852 6.11322 8.12602 6.07364 10.4407 6.60386 5.84177 5.62425 6.83266 5.45603 16.4693 5.34212 6.01667 5.28697 5.22014 5.07734 4.93706 4.88574 5.52632 4.8817 4.86669 7.0197 4.84314 6.01194 4.7623 4.82092 6.51109 7.44225 5.50133
threshold=135.18500000000003 353.24500000000006 1272.8445000000004 3231.6080000000002 1.0000000180025095e-35 1.0000000180025095e-35 164.34500000000003 0.72064045540576316 175.00750000000002 -0.58429276287313725 1.0000000180025095e-35 0.30079913216649434 85.947373511904786 279.29166666666669 215.06250000000003 25.512500000000006 208.81000000000003 59.002498626708991 783.98400000000015 337.12500000000006 15.875000000000002 19.112500000000004 44.125000000000007 1560.6311250000003 143.12551339285719 80.125000000000014 6081.8750000000009 15.987500000000002 0.51994683942320552 38.125000000000007 57.520297052150369 807.54500000000007 67.880001068115249 110.65812500000003 549.92812500000014 97.125000000000014 107.70157489776612 71.375000000000014 10.862500000000002 60.074583333333344 1272.0403750000003 28.612500000000004 -0.42109697129093543 58.125000000000007 7523.1250000000009 80.625000000000014 173.12500000000003 260.50000000000006 1420.3907500000003 23.375000000000004 125.25000000000001 -0.99762106698677366 13.012500000000001 32.51250000000001 12.512500000000001 95.34114919662477 113.09312686920167 162.18936011904765 113.84197916666669 1517.1250000000002 0.63874350706337069 217.87500000000003
decision_type=10 10 10 10 2 10 10 2 10 2 2 10 10 8 10 10 10 10 10 10 10 10 10 10 10 10 10 10 10 10 10 10 10 10 10 10 10 10 10 10 8 10 2 10 10 10 10 2 10 10 10 2 10 10 10 10 10 10 10 10 2 10
left_child=3 2 8 50 9 -5 -6 18 -2 22 11 12 -7 25 17 16 -16 -15 26 20 49 -22 -4 24 -20 48 -3 28 -11 57 31 32 -30 34 -21 -36 42 38 -38 -14 41 -25 43 -12 -39 -46 -24 53 -8 -19 -1 -52 -17 54 -18 -41 -57 58 59 60 61 -10
right_child=1 7 4 5 6 10 13 -9 29 27 36 -13 39 14 15 52 47 19 23 33 21 -23 46 40 -26 -27 -28 -29 30 -31 -32 -33 -34 -35 35 -37 37 44 -40 55 -42 -43 -44 -45 45 -47 -48 -49 -50 -51 51 -53 -54 -55 -56 56 -58 -59 -60 -61 -62 -63
leaf_value=-1.2986422848306418 -0.20385686788868754 5.9644331904117216 11.894092029285986 -0.56048678877701108 0.20333839752631266 0.075270238073193246 3.5770025046595233 -0.36492834286846865 0.23682400420619842 17.352067028887124 -0.26804524525874512 -0.00090063472275135202 3.1772642244221925 3.645835701051487 0.42805507540947069 4.9346934415924402 3.7796041499651309 -0.18688034769035608 10.717315642984252 0.7483078704805195 2.8210644955330344 4.119607247355642 0.88334986613192956 9.7325717703804813 4.6194143432422718 1.686267243864662 2.4621164394289794 0.10392911297841896 1.2102572837256809 0.00041780320146545783 -0.16047073177052512 2.7266631913683947 -0.18361050995641995 0.18827954357913712 0.8487707911605672 5.0706746445815725 -0.086162550636997778 -0.18167643933827549 0.9920873335222844 0.92443879009595631 15.934501881404115 8.2449626215503411 -0.51292680033607618 1.9344167937891072 0.56656030493245935 -0.27357551472616992 4.5642665909678071 9.3450802332741727 1.7800934197464178 2.8257566033798649 1.6973883499996067 -0.23201924641651783 1.8147242456734543 7.5286596051427779 1.5353761381813122 3.5572130826928707 0.20217030273425834 7.9033471638568988 0.026292059186190975 -0.29909648964440483 2.1471917761914643 1.6886900449038889
leaf_weight=39137 2596 35 95 8317 2987 178 52 61 166 64 751 797 53 33 318 64 33 162 36 636 112 60 57 55 47 105 92 167 59 678 98 38 73 1690 73 58 41 550 112 159 106 40 2721 80 30 30 54 35 60 70 42 1254 48 70 158 128 53 43 272 118 84 88
leaf_count=39137 2596 35 95 8317 2987 178 52 61 166 64 751 797 53 33 318 64 33 162 36 636 112 60 57 55 47 105 92 167 59 678 98 38 73 1690 73 58 41 550 112 159 106 40 2721 80 30 30 54 35 60 70 42 1254 48 70 158 128 53 43 272 118 84 88
internal_value=-0.00241347 0.00372904 0.00307413 -0.0037728 0.00489507 -0.00186786 0.00401231 0.0197881 -0.000315205 0.0134397 0.000164525 0.00421053 0.0100613 0.00611545 0.00551105 0.0107025 0.00794788 0.00420871 0.0232238 0.00391297 0.0104703 0.0202907 0.0243689 0.0280986 0.0154819 0.0161982 0.0123228 0.00892785 0.0129217 0.00366114 0.0086194 0.0144118 0.00901515 0.00283476 0.00653846 0.016374 -0.00111819 0.00292923 0.0146078 0.0144656 0.0333085 0.0244737 -0.00198761 0.00155836 -1.19209e-09 0.0141667 0.0152703 0.0154392 0.0249107 0.00318965 -0.0044324 -0.00141204 0.0258036 0.0130077 0.00887434 0.0120588 0.0176519 0.006738 0.00578297 0.00892544 0.0124556 0.00818898
internal_weight=66479 12046 11574 54433 7529 14000 6824 472 4045 705 5683 1368 571 3837 3620 726 614 2894 411 2861 404 172 206 284 83 217 127 499 332 1449 268 170 132 2457 767 131 4315 763 153 393 201 95 3552 831 610 60 111 296 112 232 40433 1296 112 261 191 340 181 771 728 456 338 254
internal_count=66479 12046 11574 54433 7529 14000 6824 472 4045 705 5683 1368 571 3837 3620 726 614 2894 411 2861 404 172 206 284 83 217 127 499 332 1449 268 170 132 2457 767 131 4315 763 153 393 201 95 3552 831 610 60 111 296 112 232 40433 1296 112 261 191 340 181 771 728 456 338 254
is_linear=0
shrinkage=0.05


Tree=17
num_leaves=63
num_cat=0
split_feature=64 64 65 65 55 62 49 49 3 1 42 0 43 60 63 69 17 55 1 7 56 14 69 55 65 43 7 43 43 7 26 37 52 64 37 65 16 68 1 3 24 11 60 15 16 60 65 5 49 37 3 8 7 1 21 1 9 65 60 9 3 36
split_gain=196.029 56.691 31.4062 23.6983 23.3496 17.59 17.5243 13.9709 13.0288 12.4265 20.5952 14.2944 11.2586 10.6774 12.9024 10.4352 10.2884 9.97862 9.90034 8.82409 8.7115 9.03586 7.99379 7.86287 7.49048 7.29483 7.17222 7.11079 6.83656 6.74283 6.37134 6.33853 7.62759 6.05887 6.02083 5.64917 6.7056 5.60534 6.73707 5.54921 6.47958 5.71521 5.29661 5.28606 6.85139 8.08534 5.23086 5.21455 7.26392 7.29493 5.02046 7.92355 4.7691 4.69759 6.15168 4.46843 4.41006 4.39099 5.34345 4.37371 6.36069 6.79656
threshold=126.77500000000002 310.92000000000007 167.12500000000003 117.94500000000001 -0.63874350706337046 6353.7500000000009 1.0000000180025095e-35 1.0000000180025095e-35 375.12500000000006 839.4620000000001 43.589500427246101 6501.7896250000013 78.264999389648452 104.27212551116945 0.51407626447125476 54.262243589498055 3.1250000000000004 -0.94697898371965705 565.3660000000001 1583.8575000000003 0.76110425866077458 11.212500000000004 57.520297052150369 -0.28435655403991289 225.00500000000002 59.002498626708991 1423.9762500000004 83.120002746582045 83.207500457763686 1579.7760000000003 10.625000000000002 331.62500000000006 62.500000000000007 101.075 137.12500000000003 283.63000000000005 226.62500000000003 95.061026785714304 1153.6773750000002 701.31550000000027 18.125000000000004 345.12500000000006 87.96679697036744 16.412500000000005 20.125000000000004 95.806021575927744 151.58500000000004 6125.5410000000011 1.5000000000000002 196.12500000000003 304.12500000000006 2258.2640000000006 1385.9482500000001 1141.6488750000001 11.812500000000002 148.28571428571431 201.43750000000003 283.63000000000005 95.34114919662477 210.81250000000003 1680.3778750000001 38.462500000000013
decision_type=10 10 10 10 2 10 2 2 10 10 10 10 10 10 10 10 10 2 10 10 2 10 10 2 10 10 10 10 10 10 10 10 2 10 10 10 10 10 10 10 10 8 10 8 10 10 10 10 2 10 10 10 10 10 10 8 10 10 10 10 10 10
left_child=3 2 8 33 6 17 18 24 26 11 16 15 13 30 -15 -10 23 -3 35 -7 21 31 34 -11 43 -13 -2 -22 -9 -26 -8 -6 56 -1 -17 36 -4 -19 -39 -23 57 47 -25 44 45 -5 -47 -42 -49 -50 -35 -52 -16 -28 -55 -53 -33 -41 -59 -27 61 -61
