tree
version=v4
num_class=1
num_tree_per_iteration=1
label_index=0
max_feature_idx=71
objective=quantile
feature_names=ttf_eur_mwh eua_eur_t load_forecast_mw forecast_solar_mw forecast_wind_onshore_mw dow is_weekend sin_tod cos_tod sin_doy cos_doy solar_elevation_deg solar_is_day solar_clip_pos day_length_h is_holiday is_holiday_eve is_holiday_after days_to_holiday ccgt_srmc_eur_mwh res_total_forecast_mw residual_load_forecast_mw res_penetration solar_load_ratio wind_load_ratio collapse_risk solar_surplus_midday national_solar_radiation spike_likelihood spike_likelihood_daymax dam_price_eur_mwh_lag96 dam_price_eur_mwh_lag672 dam_price_eur_mwh_rollmean96 dam_price_eur_mwh_rollstd96 dam_price_eur_mwh_rollmean672 dam_price_eur_mwh_rollstd672 mtu_15m_active gen_lignite_mw_lag96 gen_gas_mw_lag96 gen_hydro_mw_lag96 gen_renewables_mw_lag96 gen_crete_renewables_mw_lag96 gen_crete_conventional_mw_lag96 production_total_mw_lag96 load_hv_mw_lag96 load_mv_mw_lag96 load_lv_mw_lag96 system_losses_mw_lag96 load_crete_mw_lag96 demand_total_mw_lag96 load_total_mw_lag96 volume_mainland_mwh_lag96 res_share_lag96 net_export_mw_lag96 gas_share_production_lag96 da_price_it_sud_eur_mwh_lag96 da_price_bg_eur_mwh_lag96 da_price_ro_eur_mwh_lag96 da_price_it_sud_eur_mwh_lag672 da_price_it_sud_minus_gr_lag96 da_price_bg_eur_mwh_lag672 da_price_bg_minus_gr_lag96 da_price_ro_eur_mwh_lag672 da_price_ro_minus_gr_lag96 gr_avg_temperature_2m gr_std_temperature_2m gr_avg_wind_speed_100m gr_std_wind_speed_100m gr_avg_cloud_cover gr_std_cloud_cover gr_avg_shortwave_radiation gr_std_shortwave_radiation
feature_infos=[22.934000015258789:61.852001190185547] [49.665000915527344:86.629997253417969] [3154:10815] [0:8050] [47:3603] [0:6] [0:1] [-1:1] [-1:1] [-0.99999073973619013:0.99999073973619013] [-0.99996295911626554:1] [-75.413667364843505:75.413667364843505] [0:1] [0:75.413667364843505] [9.3586941500149283:14.641305849985075] [0:1] [0:1] [0:1] [0:30] [64.244050369262695:145.8910524368286] [0:10436] [-4424:8815] [0.01443001443001443:1.9376854599406528] [0:1.5835140997830803] [0.008505857807735516:0.97015765765765771] [0:178.2153287636456] [0:1.5835140997830803] [0:977.5] [0:0.76886642072644573] [0.34149999999999997:0.76886642072644573] [-50:942] [-50:942] [22.290312499999999:235.79083333333332] [0:219.34180354638778] [48.745773809523811:183.97595238095241] [12.446760825727464:158.98514087468882] [0:1] [10:1779] [108:5562.3070000000007] [0.001:2814.2649999999999] [372.81400000000002:9485.9699999999993] [2:226] [2:548] [1833.674:12897.556] [366.88299999999998:1384.9590000000001] [578.072:2349.8620000000001] [1608.3210000000001:7247.697000000001] [4:359.5] [174:759] [3223.8159999999998:11315.18] [2859.1590000000006:10314.68] [3546.3240000000001:12957.556000000002] [0.058906241606852226:0.95321652084771291] [-2675:2667.3040000000001] [0.010922671430569587:0.8515361841156347] [0:291.10000000000002] [-100.63:950.00999999999999] [-106.36:1021.61] [0:291.10000000000002] [-694.29999999999995:208.71000000000001] [-100.63:950.00999999999999] [-470.94000000000005:699.50999999999999] [-106.36:1021.61] [-470.94000000000005:771.11000000000001] [2.6750000000000003:38.5] [0.062915286960588832:8.9014980012729676] [1.3:46.300000000000004] [0.10801234497346436:36.483820614988595] [0:100] [0:57.735026918962575] [0:977.5] [0:356.76170852078099]
tree_sizes=6524 6821 6776 6795 6786 6795 6795 6810 6844 6839 6840 6843 6834 6845 6832 6815 6841 6846 6858 6847 6827 6840 6848 6851 6838 6866 6839 6862 6877 6829 6850 6843 6869 6887 6870 6853 6851 6843 6890 6852 6877 6894 6893 6846 6877 6868 6874 6866 6880 6912 6892 6903 6909 6875 6894 6902 6881 6901 6893 6919 6882 6889 6884 6898 6822 6890 6894 6894 6910 6881 6871 6905 6879 6923 6883 6897 6888 6868 6906 6894 6911 6917 6903 6885 6951 6866 6925 6907 6903 6885 6882 6932 6934 6888 6893 6903 6907 6911 6916 6889 6954 6858 6873 6895 6899 6903 6913 6931 6914 6880 6890 6902 6923 6902 6881 6926 6937 6916 6909 6922 6913 6910 6889 6911 6919 6924 6937 6898 6890 6898 6943 6950 6913 6890 6944 6926 6922 6940 6936 6941 6938 6907 6937 6941 6890 6910 6888 6894 6893 6863 6905 6877 6881 6897 6877 6899 6930 6862 6890 6939 6938 6919 6920 6899 6919 6918 6926 6864 6963 6873 6906 6893

Tree=0
num_leaves=63
num_cat=0
split_feature=8 30 23 31 44 21 29 24 32 0 29 30 33 19 67 47 71 29 33 21 71 4 45 43 0 18 46 30 55 67 20 31 33 22 68 19 33 56 41 71 66 66 9 8 9 21 32 1 45 4 22 41 33 59 51 21 49 48 4 14 30 40
split_gain=8524.27 1507.22 608.639 395.319 311.864 189.955 184.412 151.66 143.367 115.062 110.664 100.389 95.1217 90.2956 81.4562 77.7064 76.6184 76.4386 72.2829 72.1443 71.3475 65.8361 63.8341 60.7948 57.0543 56.181 51.3519 39.4944 37.9554 35.4181 34.8334 33.2922 34.6482 32.4745 31.9008 31.7419 36.7538 30.4668 28.6921 28.346 27.8887 27.7406 53.1519 27.4405 24.866 24.7706 28.3289 29.8741 47.7415 32.0812 24.3139 23.607 23.0202 22.5305 24.879 21.7852 21.5298 21.4308 21.1352 20.9344 20.8255 43.3689
threshold=-0.5 109.92500000000003 0.23314199388215326 98.745000000000019 832.60275000000013 2643.1250000000005 0.70523118347693881 0.17416346335331967 142.4822916666667 38.652999877929695 0.74993750000000003 81.475000000000009 55.184745970104494 133.09309833526615 14.659396867519179 123.06250000000001 41.161141634160835 0.63447097146649301 58.922830184305674 2732.3750000000005 137.37941671163375 1858.6250000000002 877.00612500000011 3271.2557500000007 33.098001480102546 13.500000000000002 2605.0342500000002 4.995000000000001 125.37000000000002 11.078705174037486 6034.3750000000009 99.995000000000019 35.223860850655662 0.7151950439790975 86.031250000000014 133.77407371520999 72.571580684345605 120.74500000000002 133.02750000000003 51.224485489645922 15.603125000000004 20.065625000000008 0.98801351631316348 -0.29012925520284116 0.93836870211866363 927.12500000000011 36.462239583333343 65.100002288818374 1366.1307500000003 840.12500000000011 0.33814090109036055 46.125000000000007 46.209829475093166 20.490000000000006 7033.2133750000012 4640.2500000000009 4394.6320000000005 226.12500000000006 1517.3750000000002 12.052561446596759 114.51500000000001 1079.5626250000003
decision_type=2 8 8 10 10 10 2 8 10 2 2 8 10 2 2 10 2 2 10 10 2 8 8 10 2 2 10 8 8 2 2 8 8 8 2 2 8 8 10 2 2 2 2 2 2 10 10 2 10 10 10 10 10 10 8 10 10 8 10 2 8 10
left_child=2 3 17 9 20 13 7 -6 10 -2 19 29 14 16 23 25 40 -1 26 45 24 37 -8 -7 55 51 -12 -25 -29 -11 -10 32 50 43 -15 36 -21 52 -30 -28 -5 42 -42 -17 57 -4 -47 48 49 -48 -26 -9 -13 -34 -55 -3 -49 -14 -40 -19 61 -33
right_child=1 4 8 5 6 12 22 15 30 11 18 21 44 34 -16 33 -18 59 -20 35 -22 -23 -24 27 31 -27 39 28 38 -31 -32 60 53 -35 -36 -37 -38 -39 58 -41 41 -43 -44 -45 -46 46 47 56 -50 -51 -52 -53 -54 54 -56 -57 -58 -59 -60 -61 -62 -63
leaf_value=102.25749797821045 104.75749778747559 105.70049781799317 100.45299797058105 100.55510426426493 106.90099830627442 105.67049789428711 104.62013485272405 106.05499801635742 106.50149803161621 103.54798003753235 105.85446096558198 105.58049812316895 104.82430692212648 106.49892942661802 105.0751871053923 104.48049812316894 106.47163541568823 105.77749786376953 106.27410462732956 104.77899780273438 105.08249778747559 105.29649810791015 106.69424119782049 99.749752588977429 106.83049812316895 106.17549781799316 106.03899803161622 105.84299812316894 106.49949798583984 105.71809748341026 105.70299797058105 105.61116586882468 106.49949798583984 104.8861835794435 105.67017606100116 107.3169979095459 106.45649795532226 105.46822021603597 106.61199798583985 104.447998046875 105.13049812316895 102.06449794769287 106.33360563350983 106.45749778747559 106.42381823826274 105.49311347128845 103.74549789428711 106.53649787902832 102.62449798583984 106.00646994391461 103.74499778747558 105.05110664043107 106.78873291903126 105.70324781559779 106.95550887593183 106.74749794006348 101.13449797630309 106.38149795532226 105.46881458022337 106.92576991181978 107.9485361931835 106.41549797058106
leaf_weight=99.673470241280484 2212.0506180555003 318.26495515482259 21042.011517355168 636.41868241175246 616.84587139002349 176.82630615399012 85.763485469738725 110.08735707507071 243.08076255979796 667.7393197988431 131.85510253906295 90.431669270072121 48.605475259924027 322.56746016442776 300.65259825578778 44.627412245309301 231.36172223698759 108.62591069547989 142.93195816129446 407.42258514886271 206.63987040457505 326.66326251044609 1514.6773645340597 81.785580425078351 58.461563413506042 184.54766201583288 86.526651753104488 717.17332723223717 1273.6642836689948 120.21161938089665 52.927550019486432 130.03536965494527 2280.199825421997 60.53415697270907 155.40527009963989 78.519925354514271 62.986558747456002 176.98577031255502 46.634468307895133 889.54280854170474 201.38910586870065 356.04086610260367 135.36453825235367 392.87460403188072 1773.8760445266962 33.901464582113476 96.82892292060626 23.024429980664536 645.85129990442238 255.40128399068897 89.232899142183328 1094.9932436598262 639.49419959030422 223.70369616773357 276.27614638287923 221.96733979547332 3016.6161072872151 186.79722381939686 67.458453809226228 781.16610597569979 20151.992409587463 799.07702200573806
leaf_count=434 13922 2398 8877 421 1800 242 84 70 1589 345 8 413 90 67 377 134 157 1558 14 2386 59 627 814 27 142 681 79 3722 838 180 262 125 744 16 28 87 87 73 108 473 518 940 8 835 173 24 317 3 1379 346 104 211 344 53 79 2846 4711 1097 108 138 8911 574
internal_value=105.74 105.755 105.719 105.739 105.761 105.746 105.748 105.739 105.717 105.727 105.717 105.736 105.752 105.734 105.746 105.732 105.728 105.757 105.732 105.716 105.763 105.744 105.761 105.749 105.763 105.726 105.727 105.751 105.753 105.722 105.752 105.763 105.758 105.749 105.753 105.734 105.729 105.751 105.757 105.723 105.723 105.73 105.741 105.754 105.76 105.716 105.719 105.719 105.727 105.741 105.735 105.722 105.756 105.76 105.75 105.747 105.717 105.745 105.733 105.762 105.764 105.757
internal_weight=68005.3 39806.4 28198.9 10945.6 28860.8 6712.02 4104.95 2504.51 27209.4 4233.58 26913.4 2021.53 4673.47 2038.55 2664.2 1887.66 1560.57 989.465 1250.86 25662.6 24755.9 1233.57 1600.44 2363.54 24549.2 1389.63 1107.92 2186.72 2104.93 787.951 296.008 24009 2927.87 498.036 477.973 548.929 470.409 906.912 1387.76 976.069 1329.21 692.795 336.754 437.502 2009.28 25113.6 4071.62 4037.72 998.082 352.23 147.694 1205.08 729.926 2780.18 499.98 540.232 3039.64 235.403 114.093 889.792 21081.1 929.112
internal_count=68277 45505 22772 24825 20680 8921 4645 3747 20642 15904 18791 1982 6782 2139 5422 1947 2044 2130 574 18217 16035 1457 898 5045 15976 962 560 4803 4776 525 1851 10732 1122 985 95 2560 2473 830 1054 552 1887 1466 526 969 1360 15657 6780 6756 2042 663 246 281 757 876 132 5244 4714 1187 216 1696 9610 699
is_linear=0
shrinkage=1


Tree=1
num_leaves=63
num_cat=0
split_feature=22 30 28 54 19 22 31 21 25 61 44 64 30 39 28 25 11 27 31 21 61 56 51 26 10 54 28 11 66 44 20 20 18 44 32 4 21 25 21 42 0 52 30 30 55 64 46 20 37 35 53 35 51 29 0 22 65 40 45 32 30 0
split_gain=8283.86 1477.53 483.577 379.025 362.603 316.594 162.802 159.959 125.075 124.815 123.478 115.508 103.298 101.655 88.3178 86.4492 85.663 82.4612 79.8845 77.5328 72.0516 54.7893 77.5702 55.4644 51.9167 50.7223 46.2882 45.8454 44.8312 51.7296 44.505 42.7508 39.1788 35.1661 41.1657 34.3086 32.4766 31.9745 31.7405 30.3065 29.4413 27.5788 26.6379 26.2544 31.6394 25.7626 32.6063 33.6967 25.6037 25.3541 31.4499 24.8337 24.817 22.9861 22.8358 20.7593 21.5593 20.475 20.336 19.4586 21.2525 18.9095
threshold=0.72566226392341526 100.28500000000001 0.44875185257410299 0.29300367964519863 117.75450057983399 0.16174424302771309 108.55500000000002 3580.6250000000005 67.584483233416449 -81.809999999999988 828.21412500000019 11.684375000000003 89.585000000000022 715.87500000000011 0.51639568076824671 67.584483233416449 -41.887856683462125 195.46875000000003 138.54500000000004 2620.8750000000005 -1.9750000000000012 60.245000000000005 7710.1136250000009 0.70579129474753644 0.34963450400049079 0.40508132924578499 0.51250740401311989 -17.383301313926903 15.403125000000005 824.99975000000006 4535.8750000000009 6034.3750000000009 4.5000000000000009 838.69337500000017 68.15395833333335 229.87500000000003 5630.7500000000009 16.727667085033776 4186.7500000000009 99.062500000000014 36.924001693725593 0.81509226531541168 129.69500000000002 133.00500000000002 153.16000000000003 10.021875000000003 2549.7885000000006 3032.6250000000005 201.94791666666671 55.873479117220988 -238.90624999999952 45.377223685151108 8248.3907500000005 0.74525000000000008 43.216499328613288 0.72033504212066191 2.3310405384746904 735.92775000000017 767.99712500000021 76.988125000000011 143.07500000000002 33.072500228881843
decision_type=10 8 8 10 2 8 10 8 8 8 10 2 8 10 10 10 2 2 10 8 8 10 10 10 2 8 10 2 2 10 2 2 2 8 8 8 10 10 10 8 2 10 10 8 8 2 8 2 10 8 8 8 10 2 2 10 2 8 8 10 10 2
left_child=1 4 5 9 14 -3 11 12 18 -2 16 19 20 30 41 -11 -7 -10 39 55 -6 22 23 54 -9 59 -22 36 29 -14 38 -19 -28 34 -21 -36 -16 48 43 -5 -27 -1 -23 -12 -45 46 -8 -48 57 -35 -51 -39 -32 -43 -17 56 -4 -13 -41 -18 -61 -47
right_child=3 2 6 8 7 10 45 24 17 15 13 37 28 -15 27 21 25 31 -20 33 26 42 -24 -25 -26 40 32 -29 -30 -31 52 -33 -34 49 35 -37 -38 51 -40 58 -42 53 -44 44 -46 61 47 -49 -50 50 -52 -53 -54 -55 -56 -57 -58 -59 -60 60 -62 -63
leaf_value=-1.1928748130798341 0.1946573592895563 0.77212495803833014 -0.4018667276521285 0.63917654858063677 0.3603630864731035 -0.12357945266572141 -0.22512053263711526 0.72296097180824215 -3.6517248797416686 -5.0226498985290533 -0.72805543883307711 0.1001159395495439 0.32534432643557737 0.63935638489051405 -0.7008749961853028 -0.99039993286132821 0.56272500991821273 0.83078781803866308 0.64606282243043944 -0.56712320071326627 -3.0277552132132466 -1.8425871259805078 -5.0216498985514049 -0.38914999008178697 -0.33721525455358975 -0.019775066375732564 0.69999255958905782 0.59229490596262335 0.56354500133889185 -1.2389108887314864 0.14627497911453277 -0.035149898529052592 -1.6558451832315981 0.24945005416870103 -0.065974884033202841 1.0394486724183252 0.97102500915527379 -0.21697471618652317 0.57752525329589877 0.59402496337890653 0.6825731140468797 -0.72827487945556657 -0.18240885225525261 0.13244451539055577 -0.5245554540918661 0.61062505722045879 2.2670728546474659 -0.08345703710932606 1.4827758066201782 0.49301613837225872 -1.0140069257416713 0.86312515258789091 -1.4492248225212094 0.42313086809756451 0.58567656383942579 0.007612682213100512 -0.00043699521346196227 -0.055190927171926064 -2.7421498680114746 -0.70244972229003944 0.36557329715234843 2.0800733429287157
leaf_weight=2883.4307352297665 251.62843172635257 1841.6701066082944 305.4897772968107 55.903002488287825 307.79506865096937 254.77223088259166 73.769353733498349 1256.0104138851163 156.70586878016502 21782.105134631136 1470.2958189595151 45.091408203939366 359.47576751105515 278.69908051245216 436.0885378856438 47.126399295858903 98.607353803696242 739.72577341553722 131.98796384031186 103.89865816846077 1201.6019085416488 1635.1682356664808 529.65589636805453 381.1191483310476 162.08609913458736 175.21920107575318 129.26248267920175 443.81873531260584 813.78217678378041 177.94822643863819 109.19453156530108 54.806602602619932 132.67219194564393 115.3296009735038 135.22313369013284 1014.1450863633978 68.740914709096614 88.290148626756377 59.963570626016235 26.244841462816378 962.00114570562971 63.044874880211864 68.941399795550069 122.71897885254569 120.18399740411539 439.6370248759049 1100.6565885738307 161.95364932216216 145.53078591709732 61.008394546806812 169.13337805278937 2681.0363256097867 67.021200979839705 66.769193206388081 297.48503470237483 53.48198354827764 87.976944936810469 144.79711104363042 801.4588218588716 264.86231668179323 65.229736139079591 19725.816030758662
leaf_count=16000 62 1730 54 221 65 196 228 96 176 9317 1361 118 104 119 3509 199 77 814 68 64 197 1653 268 150 212 1795 8 2194 174 57 40 154 64 503 48 1145 112 875 394 24 1369 474 24 171 88 4068 2480 300 340 36 89 1595 95 61 37 7 189 416 1632 836 58 9267
internal_value=2.66878e-05 0.0141698 0.0190188 -0.0215054 -0.00438945 0.00605389 0.0218842 0.00525561 -0.000371905 -0.0231685 -0.00176404 0.0138997 -0.00106873 -0.00965729 -0.0154434 -0.0235248 0.00789536 0.0126564 -0.0125746 0.00467507 -0.00901153 -0.0155066 -0.00758033 0.00303756 0.0191813 0.01227 -0.0136361 -0.00213867 0.0093437 -0.00186344 -0.0136955 0.0191943 0.00540918 0.00982182 0.0137152 0.0164397 -0.0124448 0.0199776 -0.0160771 -0.0179943 0.0177951 -0.0196321 -0.0213457 -0.0173287 -0.00210031 0.0237968 0.0170737 0.0189615 0.00539784 -0.00430222 -0.0138909 0.0217435 0.0102695 0.00291207 0.0175739 -0.0137349 -0.0177077 -0.00669577 -0.0204009 -0.00238654 -0.00820872 0.0242423
internal_weight=68005.3 41045.2 32542.7 26960.1 8502.53 5890.44 26652.3 4540.63 1966.83 24993.2 4048.77 5150.43 3122.54 2228.08 3961.89 24741.6 1820.69 951.238 1015.59 2045.69 1771.33 2959.5 1255.39 725.731 1418.1 1565.92 1463.54 948.648 1351.21 537.424 1949.38 794.532 261.935 1598.74 1253.27 1149.37 504.829 3104.75 1773.16 883.607 1137.22 3013.24 1704.11 1713.2 242.903 21501.8 1336.38 1262.61 335.419 345.471 230.142 2769.33 176.216 129.814 344.611 446.949 393.467 189.889 827.704 428.699 330.092 20165.5
internal_count=68277 53478 30151 14799 23327 8329 21822 977 3089 11710 6599 5479 669 2268 22350 11648 4331 1144 1945 2135 334 2331 654 386 308 4135 269 5815 335 161 2149 968 72 1885 1257 1193 3621 3344 2014 1877 3164 16535 1677 1620 259 16343 3008 2780 874 628 125 2470 135 535 236 250 243 534 1656 971 894 13335
is_linear=0
shrinkage=0.05


Tree=2
num_leaves=63
num_cat=0
split_feature=22 30 19 54 28 22 21 31 7 61 30 28 21 59 14 33 54 31 64 65 30 29 67 33 68 1 44 8 28 39 19 29 2 52 10 28 33 31 22 11 19 22 7 7 66 56 45 54 23 35 59 29 68 21 47 68 67 53 58 29 61 0
split_gain=8159.5 1449.12 394.795 392.26 278.661 248.454 213.179 151.542 133.743 132.272 106.124 97.1366 121.582 85.5701 83.8881 81.6513 79.496 76.9976 78.484 74.6693 67.7944 66.755 66.597 60.5128 59.4373 59.3043 55.2558 54.0352 49.8765 52.0758 47.4322 44.7646 44.4676 44.3988 42.3853 37.6795 36.8739 35.567 35.4496 35.3803 34.4934 28.2644 29.5989 27.8192 36.8806 26.5058 25.6841 24.0267 23.8797 22.7918 22.6068 19.2411 23.7873 22.5063 17.8276 17.9592 30.4426 29.326 17.4162 18.4331 19.3105 17.369
threshold=0.72566226392341526 112.77500000000002 112.60717536926272 0.29300367964519863 0.45386813673019455 0.17425488022130811 2643.1250000000005 108.55500000000002 0.0327015646150716 -65.439999999999984 109.02500000000002 0.52851279675448271 3728.8750000000005 65.605000000000004 11.968462255361187 57.327970242206035 0.087272896676794651 113.075 11.684375000000003 1.0094346602595599 101.01500000000001 0.74993750000000003 14.659396867519179 70.751250365754586 96.718750000000014 67.240001678466811 858.03287499999999 -0.47114434510950048 0.37175724220689838 148.58333333333334 139.95077262878422 0.74993750000000003 5831.1250000000009 0.58516552969802171 0.34963450400049079 0.58802272472848915 41.171823368394335 20.005000000000006 0.21227016914638916 -23.062428432302337 133.09309833526615 0.70970951043806518 0.99892946161930185 -0.32143946530316142 9.7281250000000039 73.235000000000014 1094.1655000000001 0.41512322517182959 0.37215028062729322 62.342040090732134 78.860000000000014 0.63906586987312131 45.843750000000007 3160.2500000000005 73.562500000000014 48.468750000000007 10.175235459928674 2179.8139999999999 132.38500000000002 0.56413050398576703 1.1400000000000003 33.001501083374031
decision_type=10 8 2 10 8 10 10 10 2 8 10 8 8 10 2 8 8 10 2 2 8 2 2 8 2 2 8 2 10 8 2 2 10 10 2 10 8 8 8 2 2 10 2 2 2 10 10 10 8 8 10 2 2 8 10 2 2 10 10 2 10 2
left_child=1 2 7 9 5 -3 13 20 28 25 40 12 16 15 -10 30 -8 18 26 -12 31 -11 36 58 32 -2 37 33 29 -7 41 -1 -23 48 -14 -32 -18 -6 -22 45 -5 42 -4 -9 -45 -38 -41 -36 -21 -48 -33 53 -53 -47 -39 56 -56 -57 59 -16 -61 -19
right_child=3 4 6 10 17 8 11 43 14 21 19 -13 34 -15 23 -17 22 61 -20 27 38 24 -24 -25 -26 -27 -28 -29 -30 -31 35 50 -34 -35 47 -37 39 54 -40 46 -42 -43 -44 44 -46 51 49 -49 -50 -51 -52 52 -54 -55 55 57 -58 -59 -60 60 -62 -63
leaf_value=-1.0012311029434202 -4.7695174036473036 0.77791894435882591 -1.3767635813951487 -3.6594173746109009 -0.21885480495733969 -2.2000023498535159 -2.6378168237534254 0.56849366664886536 0.56739638397050818 -4.7715174036026005 -2.2111149318170837 1.034496797343889 0.68832263369837998 -4.4085195465220171 -3.9498221345028952 0.54759242347057979 -0.2410638630372807 0.52759403324127163 0.67786875152587955 -0.4441174058914179 0.5372438764572145 0.12901688827841626 -0.72200898371481392 0.4344445193796922 -1.4364807852151358 0.73456391308702562 -0.36696211770925946 1.1042696830083656 0.70902806567334342 0.86344461093242664 0.72164692986931556 -0.5615811872482297 -0.016942341804504223 -0.50874526013564525 -0.53139646005604213 -0.22910956338384017 -0.12147981524259227 -1.6518637228721744 -0.36023110961914001 0.74282951651183604 0.078189611122666786 0.050463633052041601 0.6181425750690871 0.34570287070252448 -0.40526455990384352 -0.025192091542396811 -0.63513288784834609 0.88641688629370796 0.63238587536393642 0.54346237874278636 0.50352207026687446 -0.1621516472919512 0.0068694069664091417 0.26870897490713241 0.65435030229818303 0.90555274338103686 -0.40737854889082076 -0.16591809935187726 -0.70185498573447025 -0.20281280192549103 0.10684739414373326 2.1100633274273126
leaf_weight=2848.0827233107943 170.24732545004179 1727.1428223020043 516.87509479004893 622.70655818702153 79.489014561158399 170.13744828665949 249.96495032311003 564.93910793320424 292.84747858833634 23560.184541453888 198.24118224011272 1745.3565904338216 1278.7654775679068 943.27266574468968 111.07429788110676 641.9213062060079 102.08971464201085 269.4601222078818 2883.9847373190296 61.345764537384341 295.51672280605101 219.32745485547912 250.01839324574212 125.15485235057668 689.64225393746415 260.26157575560683 206.9803992409511 690.48940522269254 858.51576930090789 185.90096493550061 220.07570622954518 44.788309244499487 93.5665290643758 131.93348993190904 97.736960230204929 136.15829515457153 236.36090219547509 29.31861495971657 429.18960959720323 595.27186940763272 100.76800249004737 64.493847441011098 35.715328699503061 235.14180532790738 502.32652900922358 230.99524240100715 106.96690883280098 90.514216662201264 161.34847183944225 109.20217633247375 85.096342376003122 188.19049286842341 140.70103549538572 418.33521154041586 217.23467786507968 738.80681925402996 122.95356949623965 70.131351545453072 832.58735149412223 65.934357542749694 64.851998649461166 18588.661797003402
leaf_count=18743 139 1158 564 2296 9 212 20 2108 938 11283 28 520 97 111 239 100 324 3254 2254 74 1474 59 62 240 51 67 451 166 1369 763 83 645 111 91 107 26 25 2 2399 63 31 52 6 797 2520 38 54 203 403 12 31 25 42 58 270 556 125 17 117 137 67 9991
internal_value=2.7246e-05 0.0140638 0.000572572 -0.0213426 0.0206061 0.00912098 0.00719672 -0.0105434 -0.000332851 -0.0230345 0.000156691 0.012469 0.00825934 -0.00483863 -0.0103587 0.00214912 0.00182256 0.0228005 0.0168032 0.00901612 -0.0157033 -0.023516 0.00464188 -0.0162156 -0.0108799 0.00444063 0.00737861 0.0143526 0.0119869 -0.00374694 -0.00698037 -0.0190409 0.00719443 -0.00151157 0.0197906 0.00754689 0.0075098 0.0113176 -0.00198856 0.00898721 -0.0150691 -0.0153668 -0.0190225 0.00412615 -0.0022697 0.00358659 0.017071 -0.00236011 0.0121058 0.00230933 0.00966526 0.00721734 -0.00263576 0.012208 0.0135012 0.0144835 0.00484459 0.018537 -0.0200483 -0.00823733 0.00448341 0.0241836
internal_weight=68005.3 41045.2 13404.1 26960.1 27641.2 4434.15 8398.98 5005.08 2707 24993.2 1966.83 5840.47 4095.11 2558.51 1492.45 1615.24 2628.1 23207 4348.9 1243.36 3702.67 24562.7 2378.13 1199.6 1002.54 430.509 1464.91 1045.12 1214.55 356.038 973.318 2977.97 312.894 354.628 1467.02 356.234 2128.11 1257.93 724.706 2026.02 723.475 617.084 552.59 1302.41 737.468 1214.58 811.441 188.251 222.694 216.169 129.885 978.222 328.892 649.33 1178.45 1149.13 340.188 808.938 1074.45 241.861 130.786 18858.1
internal_count=68277 53478 31309 14799 22169 5240 2592 28717 4082 11710 3089 1650 1130 942 1738 831 723 16929 3684 762 23292 11504 703 800 221 206 1430 734 2344 975 731 19419 170 568 407 109 641 979 3873 317 2327 622 570 5425 3317 188 129 310 477 66 676 163 67 96 970 968 395 573 560 443 204 13245
is_linear=0
shrinkage=0.05


Tree=3
num_leaves=63
num_cat=0
split_feature=22 30 25 7 19 44 22 63 29 7 31 31 53 54 64 32 40 30 7 0 66 18 67 41 29 4 30 22 7 40 5 63 9 66 13 7 2 66 48 66 32 0 52 42 32 53 46 40 31 63 24 25 7 2 68 31 25 2 25 53 31 56
split_gain=7942.03 1404.93 487.113 422.792 374.23 241.825 189.065 161.794 138.978 135.683 135.066 92.9888 90.0203 82.0099 90.8987 102.756 80.0294 67.4401 61.9728 59.2258 57.2341 53.8135 53.3462 50.8253 45.0318 42.0029 41.0393 73.6321 51.0079 40.7693 43.6889 40.9242 40.7079 38.8541 38.2048 32.9402 31.8071 31.6242 31.522 31.2791 28.4225 32.3176 27.9914 28.6255 26.701 26.6296 26.1704 40.1838 26.019 24.8492 24.2548 43.1368 22.851 30.6709 22.3588 21.2099 20.9141 20.5499 47.6067 19.6238 19.021 18.5612
threshold=0.70970951043806518 112.77500000000002 67.584483233416449 -0.58216583101416131 112.60717536926272 830.40387500000008 0.52877455003057672 -81.629999999999981 0.72687500000000005 -0.097964660725097477 108.55500000000002 93.765000000000015 1511.6175000000001 0.087272896676794651 11.228125000000004 87.292343750000015 1511.0113750000005 101.01500000000001 -0.16280825711808977 33.098001480102546 21.734375000000007 3.5000000000000004 14.659396867519179 25.875000000000004 0.74993750000000003 740.12500000000011 119.17500000000003 0.37655103907298848 -0.35206144883412549 4008.1469999999999 1.5000000000000002 12.315000000000007 0.9993981459635205 26.240625000000005 54.190798458738975 -0.22695468355932449 3640.6250000000005 8.0531250000000032 230.12500000000006 13.053125000000003 105.23671875000001 53.242000579833991 0.60881853878185688 99.062500000000014 82.105781250000007 1749.2862500000012 4095.0687500000008 5622.7843750000002 62.715000000000011 5.3999999999999959 0.34868333235442001 44.755687296403487 0.93540483100319627 5354.7500000000009 98.906250000000014 117.00500000000001 61.081793745886948 6195.1250000000009 68.748385989128039 -1115.9857499999991 93.765000000000015 107.11500000000002
decision_type=10 8 8 2 2 8 10 8 2 2 10 10 10 10 2 10 8 8 2 2 2 2 2 10 2 8 8 10 2 8 2 10 2 2 2 2 8 2 10 2 8 2 8 8 10 10 8 10 8 10 10 8 2 10 2 10 10 10 10 8 8 8
left_child=1 4 7 34 10 19 13 21 11 -8 17 25 16 -6 15 23 35 24 -14 55 57 -2 40 -15 60 -7 27 48 -29 33 31 46 42 -5 -4 -13 -19 -37 -25 45 -17 -42 43 -9 -12 -33 47 -31 -21 -20 61 -52 53 -40 59 -3 -26 -11 -59 -18 -1 -16
right_child=2 5 3 29 6 8 9 32 -10 20 44 12 18 14 50 22 54 36 49 26 -22 -23 -24 38 56 -27 -28 28 -30 30 -32 39 -34 -35 -36 37 -38 -39 52 -41 41 -43 -44 -45 -46 -47 -48 -49 -50 -51 51 -53 -54 -55 -56 -57 -58 58 -60 -61 -62 -63
leaf_value=-1.3631694409847257 0.29959184076776818 -0.10293590645790118 0.900820391582419 -0.17480551267881977 -1.3806758988075796 0.18278509161512987 0.98439197957568736 0.60330824059547161 0.60728104555601803 -2.2108751783625702 0.32841772716739825 0.89911852124904434 0.73444319013332171 0.1688999171048631 0.37944875075386103 0.65538801662226354 -4.0285328928454041 0.72747177536902374 -0.5008063606912313 -0.21191105982636793 0.52649662691104737 -3.514406888681771 -0.33940941050005302 -0.9312561341422203 -0.53350212788581786 -0.83655984131075423 1.8465706290100294 0.85377228883307055 -0.12765510299795438 -0.52405407748222366 -3.4469446911233841 -1.9534446491617139 0.0805662887118474 0.57162652899671007 -0.077216240601039488 0.090370886337360901 -0.27096056195116847 -0.68105981079317601 -0.65994771823585663 -2.1919446720498974 0.21010076660793331 -0.20264895623288967 -4.5329415334224699 -2.2551464832782742 -0.23261801761790579 -0.71192178349529878 -0.764616528844833 0.28995894501090563 0.68452279877662647 0.060004932883812506 -0.88824963180666838 0.18112228940362818 0.64952642322645304 0.10708036689412699 -0.39141893988767079 0.65806415457725509 0.47851865852587949 -1.6492205659625463 0.43325832725551783 0.89344358686183734 -0.50551951146125729 0.77739032495473315
leaf_weight=2030.6845657251756 249.6369456127286 213.79512037952827 1054.6126867028761 332.71613317299693 326.89879417419252 91.922009610393644 403.70144815898993 52.920965175577862 1303.4264940370058 1204.5153341733014 858.28295546852394 96.533683269297399 110.02207531429349 203.33811199665092 1326.3584149181836 1476.7494376877471 28.059435026338129 100.23648751530057 369.19240441954287 91.739911794678804 93.061106043112886 144.85987461067737 138.96830625288567 284.36281824111938 42.254542021293389 543.46111813491825 20832.868184014387 212.40548170445368 206.19929689605692 169.69338984469937 1641.876400682771 64.761523302113517 62.023196628317237 128.4611995192484 78.036781183735002 64.082529830422231 593.67042811399426 282.19293642049411 196.5642511844635 475.90237065225341 163.05598221739069 106.60709990747273 21803.403952133714 903.61516652725186 424.90950436257219 111.30740769102636 80.377513542894405 253.90264380026025 1387.669342992021 93.75050019718185 83.838900934373726 187.41412192845104 169.77194917201996 180.56499433517456 28.143554050550847 260.4909246086163 86.448008651478915 119.3115644208047 99.501013189943649 1147.4569358072554 756.43660628342423 1376.2676994300875
leaf_count=13403 30 1970 543 458 26 256 163 190 857 209 1671 510 82 58 222 303 38 10 171 8 213 74 64 54 614 414 9935 302 237 251 1694 69 94 101 67 359 3822 635 26 287 663 35 9737 1730 3691 83 124 61 917 205 35 64 29 42 43 3449 45 28 84 1663 4867 192
internal_value=0.000143405 0.014269 -0.0205257 -0.00525527 0.000758481 0.0207044 0.00732679 -0.0234143 0.00960054 -0.0063884 -0.0101699 0.00342403 0.00825232 0.0115601 0.0129121 0.0066457 0.0141926 -0.0151229 -0.00881762 0.0226941 -0.0132464 0.00833314 0.0135939 -0.00601611 -0.0184568 -0.0134415 0.023059 0.0160204 -0.00249344 -0.0144011 -0.0166716 -0.00922522 -0.023963 -0.000626816 0.0210604 -0.00398188 -0.0011134 -0.0111822 -0.0114971 -0.0174967 0.0159664 0.00103945 -0.0240733 -0.0157017 0.00376332 0.000508645 0.00147523 0.00643845 0.0212589 -0.0168341 0.019065 0.00481177 -0.0044763 -0.0113337 0.0208787 0.00520688 0.0104588 -0.0157302 -0.00163436 0.0219331 -0.0197921 0.0204955
internal_weight=68005.3 40397.2 27608.1 4391.65 13033.8 27363.4 8140.85 23216.5 4158.24 1920.09 4892.92 2854.82 2219.43 6220.76 5893.86 2919.98 1646.47 3609.73 572.965 23205.2 1516.39 394.497 1885.38 1034.6 2915.82 635.383 22730.9 1898.01 418.605 3259 2797.82 1155.94 22822 461.177 1132.65 442.809 693.907 346.275 831.264 651.971 1746.41 269.663 22759.9 956.536 1283.19 176.069 503.974 423.596 1479.41 462.943 2973.88 271.253 546.901 377.129 1203.66 474.286 128.703 1423.33 218.813 1175.52 2787.12 2702.63
internal_count=68277 52684 15593 3738 30633 22051 2510 11855 5233 697 28123 4376 3706 1813 1787 1274 3248 22761 458 16818 534 104 1065 209 18929 670 11399 1464 539 3128 2569 875 11751 559 610 1504 3832 994 151 439 1001 698 11657 1920 5362 152 436 312 925 376 513 99 97 68 1744 5419 659 321 112 1701 18270 414
is_linear=0
shrinkage=0.05


Tree=4
num_leaves=63
num_cat=0
split_feature=21 30 25 19 7 61 21 9 28 44 31 28 21 10 1 52 56 7 7 52 63 22 25 31 43 48 30 38 31 2 64 25 13 7 9 1 65 35 38 5 46 25 32 7 13 9 20 22 30 52 35 54 64 48 27 39 65 21 43 58 67 29
split_gain=7602.91 1187.1 814.79 345.264 318.94 217.196 191.782 175.46 166.614 166.501 153.374 119.317 136.99 112.758 108.618 85.9661 67.0241 66.7194 78.6964 64.4011 64.2843 58.76 77.5549 51.005 46.2044 69.8829 45.3953 44.9683 42.9194 41.9811 41.464 52.8617 36.7901 36.6865 36.4279 35.1392 33.6142 35.3415 45.226 30.0668 28.5662 28.4144 28.3174 27.7633 27.3536 26.8484 26.3079 25.9228 25.1933 25.1908 25.0425 24.8617 24.6697 38.009 24.4601 24.6517 25.9712 22.6367 22.1896 21.055 20.0469 20.0058
threshold=1780.6250000000002 118.62500000000001 68.132772489790696 108.69944828033449 -0.5277851165098012 -50.944999999999986 2643.1250000000005 0.99551215362393841 0.45386813673019455 789.66925000000026 108.55500000000002 0.52851279675448271 3728.8750000000005 -0.19244445339415753 67.392498016357436 0.36889872788405303 101.83500000000002 0.93540483100319627 -0.19509032201612828 0.49278984358569194 -3.4249999999999967 0.17425488022130811 38.321191363661605 116.55500000000002 7131.1146250000002 216.75100000000003 93.495000000000019 2019.1093750000002 118.58500000000002 5487.1250000000009 11.540625000000004 16.985455076204527 0.25684003961377094 -0.32143946530316142 0.93836870211866363 62.742498397827156 0.45609288085840788 56.951762947971552 1510.7550000000003 2.5000000000000004 4136.654375000001 79.487696476748354 77.387604166666691 -0.91037613702198728 54.65747494454407 0.98370018436603734 1630.1250000000002 0.77948322277910609 127.825 0.52944839860058179 48.256202449623721 0.41512322517182959 11.684375000000003 222.12500000000009 646.53125000000011 105.51923076923079 1.4473665014927504 1690.2500000000002 3340.5930000000003 146.30500000000004 1.5019085076875009 0.50529069321141351
decision_type=8 8 10 2 2 8 8 2 10 8 10 8 10 2 2 8 8 2 2 8 8 8 10 10 8 10 8 10 10 8 2 10 2 2 2 2 2 10 10 2 8 10 8 2 2 2 2 10 10 10 8 8 2 10 2 8 2 8 10 10 2 2
left_child=2 3 5 10 44 14 13 35 9 50 26 12 15 -5 -1 30 -9 18 -17 28 -15 -11 45 52 25 -22 -2 40 48 36 31 -8 -26 -12 51 47 -20 -38 -39 54 -24 -34 -31 -16 -4 -23 -33 -6 -7 -19 -3 -14 53 -10 55 57 -57 -37 -54 -58 -29 -55
right_child=1 8 4 6 7 19 11 16 23 21 33 -13 34 20 43 17 -18 49 29 -21 24 22 27 -25 32 -27 -28 60 -30 42 -32 46 41 -35 -36 39 37 38 -40 -41 -42 -43 -44 -45 -46 -47 -48 -49 -50 -51 -52 -53 58 61 -56 56 59 -59 -60 -61 -62 -63
leaf_value=-3.0562944567513464 -0.80061109710931788 -0.39383552216599971 1.0252789600159937 0.41522393105701028 0.1903783129733759 -0.89576962273429217 -0.81945189743168756 -4.302639561179002 -0.47791972260552074 0.88800081907092343 0.62062821952427505 0.96070975797899794 -0.45822733930520015 0.43335804813512679 0.41937966268060295 0.30484012533145805 0.10827209190407204 -0.049158071908654226 0.051026937997474181 -4.3062944567513464 0.085160649089736751 0.27296549705510387 -0.64700682025351741 2.0276931535866392 0.11541721656598239 -3.4148694575142855 -0.22484021247823166 -0.35427457335493817 0.56203383082524849 -4.3366374933480065 0.60979678090810774 0.29213925140305791 -1.230580972499828 -0.11223866250593915 0.62227517814706967 -2.8693818755417162 -0.63611859055926723 -0.31950284114093552 0.14175371288221325 -4.3601442988763592 0.09948151243954656 0.26003457257749363 0.46539170059573598 -1.5168034218452036 -0.073355428570987161 -0.65062478651559674 -0.16206951414816331 -0.52907737895189799 0.73266441679884409 0.7389114830713247 0.75519437413764834 0.33129084077888254 -0.012158200759560291 -0.16412937433828031 0.37464434879645125 -0.58949027629840445 -0.055138462435282781 0.030213467742947843 1.184226860859394 0.37464434879645125 0.43794369634741276 0.69849454232398789
leaf_weight=426.81646686110105 1683.937841413549 70.423879182048083 1212.4118060997444 345.73763084411621 121.47494448290055 348.44011491655556 118.83994168133881 306.69308562576771 115.75715055199498 276.04235246146902 686.21897999785642 2417.8982656079734 97.862594378349129 289.88435077866217 388.73045700784223 226.9793978265127 736.12041245400906 208.15104532557336 82.992759704582113 22711.831906895415 94.642878091487091 105.76903360666165 162.0774037833846 17287.831148994999 229.19209849834397 828.85557245553753 1226.0646981327081 33.151117395642132 126.52564157734855 67.079661726950903 527.80849690399464 456.83574908555261 596.64921800036484 563.00098212560943 1600.7265834659338 577.97756190680411 899.54075358429156 239.90480923847809 182.71421139939372 966.46797235041367 126.21915889903906 76.950361534828744 217.92656934707361 63.066792275451348 95.577806528941437 479.02302688360214 79.403572578931744 164.9450020141733 72.252862740446176 338.58227381977633 1466.7282192763723 110.79614668549259 194.14691072034384 64.274004035760299 94.37721650894764 335.94805650222105 298.38699984121808 27.761311427718056 2257.4465312908951 130.00820077001737 546.22173713170741 1119.1907985644871
leaf_count=320 14025 781 599 17 109 1037 44 41 213 393 2651 1051 129 300 84 130 60 62 6 11394 150 439 36 11657 39 359 8486 16 150 9 98 188 197 3402 142 651 371 37 32 1349 33 134 131 128 51 55 35 318 35 38 1360 350 46 33 77 59 253 38 1971 42 764 1072
internal_value=0.000289398 0.0147941 -0.0189799 0.00346935 -0.000754374 -0.0228067 0.00836448 -0.00815211 0.0215483 0.0110406 -0.00869541 0.0121728 0.00807552 -0.00381592 0.00159638 0.00249489 0.00928303 -0.00282427 -0.00721815 -0.0237286 -0.00814111 0.000393873 -0.00362507 0.0231793 -0.0116131 -0.0194763 -0.0149863 0.00586012 -0.0067787 -0.0109305 0.0135743 0.0051715 -0.00356946 0.00595894 0.0193231 -0.0148431 -0.0144795 -0.016417 -0.00449065 -0.0167947 -0.0102762 -0.00945709 0.00656665 0.0186836 0.0205124 -0.0176985 0.0118579 0.00172142 -0.014458 0.012583 0.0230127 -0.000326859 0.017894 0.0123238 -0.0122774 -0.0139734 -0.00800276 -0.0215073 0.0208459 0.000159033 0.0138896 0.0149984
internal_weight=68005.3 38799.5 29205.8 14495.2 5068.15 24137.7 10336 3760.16 24304.3 3265.66 4159.22 7874.04 5456.14 2461.91 878.614 3646.76 1042.81 2463.87 1917.14 23259.1 2116.17 1728.5 1452.46 21038.6 1826.29 923.498 2910 867.669 547.219 1690.16 1182.89 655.079 902.792 1249.22 1809.39 2717.35 1405.15 1322.16 422.619 2430.93 288.297 673.6 285.006 451.797 1307.99 584.792 536.239 286.42 420.693 546.733 1537.15 208.659 3750.82 1299.22 1464.46 1370.08 764.343 605.739 2451.59 428.395 579.373 1183.46
internal_count=68277 51482 16795 32613 3647 13148 4049 2997 18869 3877 28564 2853 1802 1196 532 1181 101 816 716 12616 1179 1736 1343 14992 879 509 22511 849 1222 586 365 267 370 6053 621 2896 446 440 69 2469 69 331 140 212 650 494 223 427 1072 100 2141 479 3335 1318 1120 1043 354 689 2017 295 780 1105
is_linear=0
shrinkage=0.05


Tree=5
num_leaves=63
num_cat=0
split_feature=23 30 25 0 8 8 44 9 28 28 22 25 1 30 67 31 31 31 50 2 68 48 63 45 22 2 33 0 33 24 54 40 1 68 53 31 54 13 58 35 10 48 2 64 41 46 18 25 39 48 42 28 4 8 56 54 43 37 0 4 4 37
split_gain=7534.29 1022.87 790.445 343.496 299.341 238.275 233.194 202.797 185.81 153.493 149.624 138.738 106.937 97.8828 95.1825 87.6704 81.9602 73.2828 71.5259 70.2425 64.3468 62.7168 61.3535 60.3393 59.6032 56.576 56.243 54.4099 46.1594 42.4899 41.603 37.4007 36.4486 35.0485 33.9045 33.8596 32.5436 32.3718 42.6764 33.6029 31.9551 39.7778 31.2457 29.4668 29.4019 28.938 26.646 30.0327 26.236 30.4595 25.1123 24.3529 33.5057 27.643 25.1935 24.3333 22.9407 22.7685 22.336 22.1361 21.6857 21.4764
threshold=0.33175014385252005 109.92500000000003 59.441308712505595 41.22349929809571 -0.47114434510950048 -0.38268343236508956 830.40387500000008 0.99965739133362419 0.47650605258984008 0.50500252934034806 0.29467170044743718 1.0000000180025095e-35 67.162498474121108 87.215000000000018 14.1473339245437 100.14500000000002 99.205000000000013 117.49500000000002 4125.4922500000011 4730.1250000000009 43.781250000000007 326.12500000000017 -0.15999999999999828 1491.5812500000004 0.56569015644027576 5460.1250000000009 40.992213087385643 33.420000076293952 24.049791206100039 0.49018588017731368 0.35128704901963342 762.87824999999998 67.392498016357436 98.906250000000014 1831.519 100.88500000000001 0.58570040912787669 46.459544819150047 145.76500000000001 47.223303978515411 0.23448270380211197 244.12500000000006 4580.8750000000009 13.678125000000003 56.125000000000007 4109.4018750000005 8.5000000000000018 61.081793745886948 571.25000000000011 215.12375000000006 84.531250000000014 0.47500249737118833 1934.3750000000002 -0.4124860612920454 112.39500000000002 0.40996324654854005 7050.0102500000021 340.12500000000006 40.993499755859382 2080.8750000000005 2720.2500000000005 169.85937500000003
decision_type=10 8 8 2 2 2 10 2 10 10 8 10 2 8 2 10 10 8 8 10 2 8 10 10 8 10 8 2 10 10 10 10 2 2 10 8 10 2 10 8 2 8 10 2 8 8 2 10 8 8 8 10 8 2 10 10 8 8 2 8 10 10
left_child=1 3 5 15 7 -2 17 18 19 10 14 -7 25 56 20 -1 21 27 -4 48 35 -13 33 40 -24 57 60 -3 -21 31 -22 -29 -31 45 -14 44 50 39 -39 43 -11 -42 -17 -26 -5 58 -28 -48 -8 -50 -30 52 53 -19 -55 -54 -12 -10 -20 -44 -15 -18
right_child=2 6 4 9 -6 11 8 -9 12 23 13 16 34 26 -16 42 61 51 22 28 30 -23 24 -25 37 -27 46 29 36 32 -32 -33 -34 -35 -36 -37 -38 38 -40 -41 41 -43 59 -45 -46 -47 47 -49 49 -51 -52 -53 55 54 -56 -57 -58 -59 -60 -61 -62 -63
leaf_value=-0.60848039882123439 -4.0909797339137794 -0.12609642472542504 0.39238866983829301 0.031739899337791221 1.3689419055594807 -4.0960850485979732 -0.61329399026471976 0.12914789264836865 -0.20108744530882491 0.84781713423611826 -2.2880271083804535 0.62125390480787823 0.72653254922193189 -1.9550174220143708 -0.4987024859298792 -0.28746242334850719 -0.25730687742629604 -0.011146786530442654 -0.33874974644134143 -3.6703133689100045 -0.25116036081085902 -3.0662679887061537 0.67426646643011812 -0.66849493094872248 0.35591213135662869 1.1687087020128963 0.28796725837164061 0.012567384154633033 -0.10294783825957161 -0.12010221716104118 0.11066515938566197 0.82899642796201101 0.61699430611883488 -2.1465897411431292 -1.007347254603759 0.467778762928106 -0.33656084468719105 -0.69691118858767076 0.40485796282818404 -4.0124497730667477 -0.17748010805690342 0.91374948182747184 0.51817738264791802 -1.5818575834911925 -0.40666949139646741 -0.79147984072530242 -0.11898217679225068 0.57764960902284701 -1.4571976851461219 0.13127149857750312 0.68150775791989349 2.0118952527395773 -0.085933917489723025 0.11339701248457104 0.67282207326086985 1.5640151646030844 -0.35770474924830231 0.17222312933428441 0.30202295758169273 -0.2565586117210174 0.66967751369249917 0.94656054830714997
leaf_weight=2145.4230842519873 21998.577936047703 232.85103471490856 287.18473470583791 78.064008877948183 1007.5879300168481 654.16028455198921 566.91279201205566 617.8455627784133 307.43264592001498 2083.1814265549178 718.99248085399108 154.37123221717792 1957.827708821952 241.93777797516759 310.05513682440233 451.93397642579907 67.468211098057054 70.664935156357842 85.916133650996301 109.69030794167122 239.62305903884879 341.31795035509293 137.93093486899721 186.97645252728034 115.51164972737061 163.52254304356222 321.32585311726029 360.0810448977536 109.17779682301446 255.44101187984961 313.0211388276669 4637.3829636591208 145.17195194883243 178.4418037099822 37.434853343656869 1241.1913133268167 206.69228225844222 724.84145497771578 85.543154655031685 2193.8670516380475 182.49613450247682 376.90673373612151 559.40135264348157 113.36867958391872 76.585339814836473 197.14353847611017 279.00167511931193 115.43913852281833 76.491307226614808 135.61065897675485 503.47290687296413 15869.413553121667 74.209518693262481 462.95881188501494 1409.1426945688431 43.87998506004962 110.87069802458689 107.10562679783658 347.62471780149582 259.63351059852869 57.896322834128739 549.85382774112725
leaf_count=15887 12465 2073 40 42 444 112 307 80 85 266 226 75 2180 274 53 1368 275 431 541 75 37 602 490 41 617 406 121 312 43 60 190 2546 74 32 70 276 537 633 13 2114 528 362 3645 972 125 723 185 40 103 200 710 9750 78 194 1023 360 42 484 333 1577 98 165
internal_value=0.000279718 0.0149899 -0.0185363 0.00156921 -0.00246919 -0.0226554 0.0199788 -0.00740242 0.00924434 0.00796312 0.00178592 -0.00499136 0.0177306 -0.00877563 0.0104158 -0.0114072 0.00574906 0.0219294 -0.0111157 -0.00354094 0.0145104 -0.00939258 -0.012774 0.0169226 -0.0157417 -0.0012059 0.00163345 0.0169535 0.00574396 0.0179743 6.99373e-05 0.0192302 0.00230656 -0.000409773 0.0232168 0.0202277 0.00982186 -0.0171149 -0.00846422 -0.0200085 0.0188647 0.00825446 -0.00100082 -0.0017777 -0.00183402 0.0051255 0.00924893 0.000541646 -0.0146139 0.00038753 0.0156098 0.0234921 0.0183787 0.0199505 0.0211093 -0.0074802 -0.0215144 -0.0110303 0.0123478 0.00482268 -0.0165463 0.0179073
internal_weight=68051.1 38192.5 29858.6 10350 6092.81 23765.7 27842.6 5085.22 4281.37 6933.56 4104 1767.17 2573.32 1845.46 2258.54 3416.39 1113.01 23561.2 4467.37 1708.05 1948.48 495.689 4180.19 2829.56 3371.06 578.061 1015.6 5630.93 929.033 5398.08 552.644 4997.46 400.613 809.126 1995.26 1395.84 819.343 3233.13 810.385 2422.75 2642.58 559.403 1270.97 228.88 154.649 630.684 715.767 394.441 779.015 212.102 612.651 17930.3 2060.86 1942.77 1872.1 118.09 829.863 414.538 433.541 819.035 299.834 617.322
internal_count=68210 47484 20726 25383 7032 13694 22101 6588 5200 2906 1709 1229 3225 986 723 22477 1117 16901 6508 1975 670 677 6468 1197 4839 975 718 5065 1365 2992 227 2858 134 1629 2250 443 1290 4349 646 3703 1156 890 6590 1589 167 1597 346 225 610 303 753 11836 2086 1648 1217 438 268 569 874 5222 372 440
is_linear=0
shrinkage=0.05


Tree=6
num_leaves=63
num_cat=0
split_feature=52 30 21 25 0 44 29 24 7 21 35 31 52 53 49 39 7 31 33 44 30 25 7 65 5 39 35 25 55 68 29 7 61 29 0 33 40 9 46 21 48 9 48 18 25 40 67 38 25 19 7 58 65 61 59 56 35 19 34 30 31 34
split_gain=7317.11 1097.1 657.06 408.251 315.401 302.882 148.862 142.246 136.24 122.293 106.272 95.09 86.7509 84.5329 79.418 79.2603 78.8005 77.4779 82.8819 71.4521 71.2347 66.1366 60.964 55.9568 53.6896 53.194 64.255 52.0626 50.9093 49.4117 48.811 52.1245 47.4015 46.7718 46.6458 45.5839 38.6911 34.8613 33.9442 33.423 36.5738 33.3158 33.2001 32.6886 32.2615 31.8995 31.6109 36.7623 30.591 30.0598 29.4348 28.6097 34.9393 28.5531 28.4869 28.2411 25.7149 25.3461 24.9426 24.1443 23.1918 22.0824
threshold=0.65329876370875162 109.92500000000003 2900.1250000000005 50.198640636463658 42.349500656127937 830.40387500000008 0.70523118347693881 0.17416346335331967 0.29012925520284133 3264.3750000000005 64.550382632000876 100.14500000000002 0.43730721513961651 -1707.8601250000002 4449.737250000001 794.73550000000012 -0.25881904510252046 92.77500000000002 48.26079591026366 932.10074999999995 15.030000000000001 6.5851548461718528 -0.72947329433276231 1.1005088769142071 3.5000000000000004 543.07500000000016 56.776813217137992 14.950342462402114 125.00500000000001 36.468750000000007 0.47905526779525592 -0.91037613702198728 -62.394999999999989 0.64511974789915982 33.098001480102546 14.415036343086511 3937.3998750000005 0.89391031859722891 3354.8544999999999 2131.8750000000005 281.00050000000016 0.99628894895067466 226.12500000000006 3.5000000000000004 97.939249724184023 2533.746125000001 16.126019828336151 1552.3785000000003 17.971418931756126 98.800426406860367 -0.29012925520284083 35.025000000000006 1.5064704189370419 37.295000000000009 120.99500000000002 87.035000000000011 47.047270192075061 125.8271783065796 99.493147321428594 93.795000000000016 117.49500000000002 92.042343750000015
decision_type=10 10 10 10 2 8 2 8 2 8 8 10 8 8 8 10 2 10 10 10 10 8 2 2 2 8 8 10 8 2 2 2 8 2 2 10 10 2 10 10 8 2 10 2 10 10 2 10 8 2 2 10 2 8 8 10 8 2 8 10 10 10
left_child=1 4 3 32 11 9 7 -7 10 21 22 59 16 -6 37 19 -9 27 25 -8 33 -3 -5 -12 -22 26 -19 -15 -28 -18 -23 49 38 -4 60 -16 46 -10 -2 44 -41 -14 45 -31 -37 57 47 -33 -45 -32 -13 52 -25 58 -46 -27 -24 -20 61 -1 -11 -29
right_child=2 5 20 8 13 6 15 12 14 34 23 50 41 17 35 -17 29 18 42 -21 24 30 56 51 -26 55 28 53 -30 43 31 36 -34 -35 -36 39 -38 -39 -40 40 -42 -43 -44 48 54 -47 -48 -49 -50 -51 -52 -53 -54 -55 -56 -57 -58 -59 -60 -61 -62 -63
leaf_value=-1.059556623020798 0.84078753490304126 -1.494727033416841 -1.6614314884194905 0.29206923752312125 -3.5356897300707213 0.80471002472206699 0.54106067899729049 0.69006127337067236 -0.46849828970490465 -0.07970940841582036 -1.5762936471017284 0.23806463793288019 -0.10479320422321409 -3.8941697410073512 0.42006240296466218 -1.2905942849699885 -0.58399177972760519 -0.3530447928982291 0.33468170737204872 -3.0163313935167069 0.8637484230842688 -0.11105150671267588 0.32316304133890361 0.066281516548608727 -0.45497796381144373 -0.41493133415174199 -0.061255160043092373 0.13399643930959571 0.1822466060458002 -0.030249905961274082 0.02774722863245245 -0.057028751600664673 -3.8864307472180899 0.71280939043902913 1.6992581303980083 -3.8503308772839158 -0.13528930999346614 0.50959186690926905 -3.9470307472605586 0.41079998105727827 -1.041051512574358 -1.5382172682988253 0.7563680263755358 -0.85151725958862734 -1.4400179499913408 -0.088300481872724171 0.73575867971441444 0.2523228655411735 0.42627298003027791 1.4839357450539892 -0.2701789374215906 0.32342197754928748 -0.48606592312567615 -0.371872036788848 0.28177481788048458 0.78452926117775312 -0.8744966218299709 -0.021084962655661971 0.8606699994250967 -0.30476343239914527 0.73568473661410538 -0.22418006032411486
leaf_weight=1707.5909932486436 135.61813807527781 245.72599558028389 283.5023747240574 197.89903907720782 208.43765455024914 718.79593098489204 1926.9804191648082 303.87257102179865 46.786299722563882 182.03478790779894 169.84188019127657 651.2462920874973 304.14840126226636 354.56115210925452 61.081281215087984 105.73993667489049 312.14908684362501 497.68006485247179 511.62098985301145 103.87367856602259 1111.8542836131217 84.107168486884802 179.4769726718925 205.87663423705766 84.601713573264533 52.386538155052676 279.44558563275831 322.76238800702981 592.25802870041866 267.45065127313114 158.15453048958534 278.37629892408313 20806.091054359204 159.17973523959643 17696.518049340779 2475.7051481586609 253.39604971131257 166.81463865749538 96.786594521797838 78.87140333346926 336.38534995286068 592.66575318574905 1586.1858996478766 46.819830421999526 74.584546500145109 187.44493398080454 658.15868141637065 2309.9120314677252 325.686698913226 2632.0128184871187 669.56850396767732 487.83583483962587 189.5618266048541 203.47026055549247 70.141022273427268 589.25801820589732 1121.1596002982556 108.46599034965038 210.9361404137523 863.79008468873121 234.77079974376926 172.96727790989854
leaf_count=12418 41 58 105 217 57 2205 950 357 137 1689 31 2824 721 134 102 40 409 446 187 272 1061 135 1116 16 305 193 56 136 65 74 456 23 8548 94 9981 1780 579 24 119 25 575 57 285 13 274 43 163 1914 631 448 4443 307 57 58 19 592 894 16 326 5777 3067 65
internal_value=0.0002238 0.0141581 -0.0190674 -0.0209401 -0.00037853 0.0189334 0.0077203 0.000284601 -0.00927105 0.0212039 -0.000588931 -0.0114184 -0.00614569 0.00693185 -0.0159633 0.0177139 0.00233568 0.00808156 0.0112136 0.0199113 0.0116667 0.0153882 -0.00914302 0.0115831 0.0180069 0.00373071 -0.00183572 -0.00282671 0.00634802 -0.00473965 0.0163694 0.0168754 -0.0241915 -0.00546933 0.0233294 -0.0179972 0.0128114 0.0135246 -0.00173557 -0.0188577 -0.0056784 -0.0180238 0.0175001 0.00321549 -0.0209462 0.00924733 0.0142801 0.0117922 0.0127907 0.0219731 -0.000514035 0.0166371 0.00664227 0.00350517 0.00199957 0.0156105 -0.0130769 0.0147111 0.00825728 -0.0170196 0.0067963 0.00212973
internal_weight=68051.1 39511.4 28539.7 26900.5 9770.08 29741.4 5008.18 2871.59 5862.02 24733.2 2551.65 3892.2 2152.79 5877.88 3310.37 2136.59 1255.98 5669.44 4404.75 2030.85 1639.14 6619.84 1498.54 1053.12 1196.46 2011.03 1369.38 1264.7 871.704 952.106 6374.12 6290.01 21038.5 442.682 18113.3 3096.77 3499.84 213.601 232.405 3035.69 415.257 896.814 2393.72 639.957 2620.43 807.532 3246.45 2588.29 372.507 2790.17 1320.81 883.274 395.438 910.136 144.726 641.645 1300.64 620.087 706.666 2571.38 416.806 495.73
internal_count=68210 52363 15847 14282 28121 24242 5729 4467 5574 18513 2638 25462 2262 2659 2936 1262 1484 2602 1883 1222 1565 3776 2227 411 1366 1352 567 719 121 1127 3718 3583 8708 199 14737 2775 2679 161 160 2673 600 778 531 718 2073 246 2100 1937 644 904 7267 380 73 585 293 785 2010 203 527 18195 4756 201
is_linear=0
shrinkage=0.05


Tree=7
num_leaves=63
num_cat=0
split_feature=52 30 21 25 0 44 7 14 28 31 35 28 48 33 30 22 24 66 25 44 28 45 45 25 0 5 7 50 60 15 67 41 51 21 33 11 25 51 66 4 35 69 30 54 51 60 4 3 65 18 61 30 30 52 21 67 8 59 21 25 39 31
split_gain=7054.67 1034.78 634.812 433.267 367.872 243 145.964 125.105 133.109 124.327 98.9034 94.0719 97.0486 91.2216 80.2215 80.2033 74.26 86.4748 70.2011 69.7623 58.2247 54.8724 53.0821 52.748 51.4987 51.4059 50.3533 50.1007 49.5419 47.5465 45.6708 45.6381 43.4645 43.3685 42.9068 41.5577 48.2914 51.8143 36.0104 35.4495 35.189 38.038 33.0609 32.8521 32.6511 36.1372 32.4686 31.8674 30.7393 30.4624 33.6716 27.9627 27.4678 27.1479 25.8907 35.4886 30.8402 25.9561 25.6166 30.9405 29.069 26.1962
threshold=0.65329876370875162 118.62500000000001 2900.1250000000005 50.198640636463658 41.269500732421882 799.48475000000008 0.29012925520284133 12.595799941164952 0.44725357658090892 100.14500000000002 56.951762947971552 0.59402748290752083 232.12500000000009 57.588539365757093 15.030000000000001 0.56569015644027576 0.17416346335331967 21.628125000000008 5.7984229128285278 858.03287499999999 0.41769110951059735 1374.2708750000002 1370.3092500000002 97.939249724184023 33.098001480102546 3.5000000000000004 -0.93540483100319605 5963.7686250000015 104.93500000000002 1.0000000180025095e-35 7.9156145128208992 24.125000000000004 5457.5897500000019 3060.1250000000005 14.415036343086511 -25.230134036320226 24.352745697483048 6896.705750000001 24.853125000000006 1020.1250000000001 62.618049301603044 5.5009468067073444 85.075000000000003 0.43278854442124354 8933.1570000000011 120.69500000000001 2155.8750000000005 3910.1250000000005 2.8182025521560128 3.5000000000000004 -3.0299999999999927 73.365000000000023 93.795000000000016 0.45533363111103892 3646.1250000000005 2.1681585306782205 -0.3520614488341256 21.100000000000005 3615.2500000000005 30.074768585530702 473.04850000000005 119.66500000000001
decision_type=10 10 10 10 2 8 2 2 8 10 10 10 8 8 10 8 8 2 10 8 10 8 10 8 2 2 2 8 10 2 2 8 10 8 10 2 8 8 2 10 10 2 8 10 10 10 8 10 2 2 10 10 10 8 8 2 2 8 10 10 8 8
left_child=1 4 3 26 9 18 13 8 10 52 31 12 48 20 30 -8 -14 19 -3 27 49 -15 35 34 -20 -16 47 32 -9 -13 -4 42 -18 -11 -17 36 37 51 58 -34 41 -38 -6 -21 45 -29 -41 -2 -7 -5 -51 -10 -1 -12 55 -26 57 -57 60 -60 -33 -62
right_child=2 5 14 6 7 11 15 28 22 33 53 29 16 21 25 23 17 -19 24 43 -22 -23 -24 -25 54 -27 -28 44 -30 -31 -32 38 39 -35 -36 -37 40 -39 -40 46 -42 -43 -44 -45 -46 -47 -48 -49 -50 50 -52 -53 -54 -55 -56 56 -58 -59 59 -61 61 -63
leaf_value=-1.0065787918697582 0.79874815815788913 -1.4199906817459991 -1.6692137522569965 0.32465283141059875 -1.3536316822289214 -0.096912723334668938 0.58669168119505388 0.033150506461741079 0.037411727528228765 -0.21442409820294017 0.41784843075902317 0.90778435166087734 0.8603242854488542 0.14797879835759886 0.8205610019300551 0.21957232916796771 -0.60199064908354627 0.55545092603412205 0.12904735989180552 -3.7866671557066365 0.2707507108251434 -3.5759843513083931 -0.22335794319285399 0.27527166710050038 -0.13220440991095472 -0.43222906562087149 -3.6921092098571857 -0.045764107125800979 0.37146722534224241 -0.45676765336069014 1.2441347938981231 -0.96791538055937143 -0.49581182747629388 0.25574044347454078 -3.4913521189408989 0.96373435368000038 -0.14903856946111205 0.51982709221551515 0.70529181034171751 0.46535368771945829 -0.12459630079427414 0.57739774117724807 0.34843777797969228 0.00042633673756654233 1.7025614957331996 1.0647957121593579 0.051673690539553979 -3.6964592588183458 1.2941435049749019 -0.45869179563548673 -1.3915758603020572 -0.19535480464510849 -0.26616348289452463 -0.063223542513147962 1.9482956206066235 1.1377585040201723 1.0609387964767387 -0.8545124837091912 -0.18209512364109168 0.74394543222507681 -0.39418476744415476 0.28982556052663977
leaf_weight=1707.5909719175804 159.97059316385639 150.2650232762353 265.79670822718191 163.18477687019913 49.554553936839909 642.79396240628466 249.03111813302456 706.50664234161377 48.665941420408444 667.44424034963947 626.67966652330608 1595.4314548390066 1118.8976863070682 848.44581064188878 1111.8542836131217 53.684731399439443 163.44074695619861 667.88582763601744 351.4130080385512 337.54769710722616 284.61264715423044 95.785305197253592 408.60792217723701 184.99385681650801 74.499167267711528 84.601713573264533 20635.714808970344 246.31105244395073 2231.8516683578491 83.538136005401611 176.88540173647192 964.94930961375985 113.51570783546083 1079.991699303926 2822.6599834647386 1069.9361135086538 120.25874592085052 182.56367023992578 62.707372456179428 743.84439308540709 178.15149785192898 1356.7984943795777 169.01858756854472 163.58318384120236 57.491238680784591 46.808674304502375 250.88889804879784 242.81038482207805 60.094999548250371 438.31930328542876 721.30394477116943 279.9830592535975 1034.6871597315142 302.21668677004493 12783.134051621057 226.67564055122691 5692.1255663195006 97.87600162151378 160.15352998364392 82.030988949594985 284.23329760704735 68.783028879669132
leaf_count=12372 61 279 119 294 23 256 197 34 17 2774 241 1313 2138 154 1061 115 45 442 4310 190 252 278 172 332 51 305 8632 104 111 39 80 358 54 6656 2292 512 159 53 35 242 174 845 136 500 64 109 75 15 259 504 1156 507 6978 273 6829 830 1111 67 71 32 411 112
internal_value=3.83407e-05 0.0137205 -0.0189037 -0.0207445 0.00270236 0.0196628 -0.00872321 0.00834934 0.00443588 -0.00906229 -0.0038254 0.0111257 0.00743736 0.000263431 0.0113056 -0.0156502 0.0105121 0.00614959 0.0224351 0.00121397 -0.0069823 0.0125983 0.0107148 -0.0178699 0.0227012 0.0180339 -0.024094 0.00625096 0.0168936 0.0212596 -0.00687931 -0.0105353 0.0108646 0.00136084 -0.0195344 0.0128588 0.00887703 -0.00455555 -0.0134241 0.0144145 0.0130257 0.0155576 0.0109132 -0.0150922 -0.0104832 -0.0172407 0.0174353 -0.00658541 -0.00966772 -0.0113964 -0.0142427 -0.0164197 -0.0157041 0.0094762 0.0230543 0.0203716 0.0207962 0.00580472 -0.0149173 2.8779e-05 -0.0176637 -0.00538684
internal_weight=68051.1 39511.4 28539.7 26900.5 13843.4 25668.1 5862.02 9353.65 6415.29 4489.71 2770.33 6292.07 4613.1 2551.65 1639.14 3310.37 3910.22 2791.32 19376 2123.43 1607.42 944.231 3644.97 3061.34 19225.7 1196.46 21038.5 1622.3 2938.36 1678.97 442.682 1841.43 1271.69 1747.44 2876.34 3236.36 2166.42 511.213 1622.86 1108.25 1655.21 1477.06 218.573 501.131 350.611 293.12 994.733 402.781 702.889 1322.81 1159.62 328.649 2742.28 928.896 18874.3 6091.18 6016.68 324.552 1560.15 242.185 1317.97 353.016
internal_count=68210 52363 15847 14282 33056 19307 5574 4276 4131 28780 1692 5830 4478 2638 1565 2936 3963 1825 13477 1383 2206 432 2439 2739 13198 1366 8708 693 145 1352 199 1178 416 9430 2407 2267 1755 577 1019 371 1178 1004 159 690 277 213 317 76 515 1954 1660 524 19350 514 8888 2059 2008 897 984 103 881 523
is_linear=0
shrinkage=0.05


Tree=8
num_leaves=63
num_cat=0
split_feature=23 30 25 30 61 44 52 19 31 32 22 45 28 50 35 39 21 24 25 21 54 31 32 57 21 31 67 57 29 8 25 28 31 64 39 44 52 42 53 52 42 41 32 39 67 44 58 71 11 58 25 21 8 67 34 21 21 29 61 45 44 0
split_gain=6852.24 1022.65 680.566 390.856 224.521 196.64 177.887 162.49 142.737 111.663 105.775 97.7664 95.0059 87.4547 85.3083 69.9847 67.5273 65.8271 79.2356 63.2383 75.1451 63.1302 62.2066 59.3855 58.1532 55.5559 56.0385 53.239 51.546 51.1089 80.7782 49.6735 47.6483 46.5707 57.469 41.7109 40.7299 40.0648 38.1554 35.8107 35.1133 33.3433 35.7788 28.8202 28.7998 28.7103 28.0192 27.8157 27.7491 38.6792 30.8855 27.7155 30.4973 26.9934 26.8027 26.7492 26.7072 25.4354 25.3551 25.3438 25.101 23.6518
threshold=0.40597716019626895 130.10500000000005 59.441308712505595 89.915000000000006 -0.045000000000001698 831.51750000000015 0.53308998516535044 99.215850563049329 103.20500000000001 142.4822916666667 0.31798465745895682 1491.5812500000004 0.45386813673019455 4161.4097500000007 68.782990057171659 571.25000000000011 1537.7500000000002 0.35443209214415056 60.623707982141767 3762.1250000000005 0.32128021954773561 101.97500000000001 93.900312500000027 114.76500000000001 4050.1250000000005 123.65500000000002 2.7535961335436734 147.74500000000003 0.60756250000000012 -0.38268343236508956 0.010357880208673528 0.51250740401311989 99.205000000000013 8.4656250000000011 374.98600000000005 799.48475000000008 0.55017533328305812 87.125000000000014 1353.6669999999997 0.72985651217220981 75.562500000000014 5.1250000000000009 173.66093750000002 304.59700000000004 14.659396867519179 610.67600000000016 119.52500000000002 128.91692188569149 -24.361801367289718 142.77500000000003 9.3156193237331806 1919.3750000000002 -0.47114434510950048 13.339255195184656 98.522187500000015 4503.2500000000009 2265.8750000000005 0.74993750000000003 6.1899999999999995 1292.2702500000003 866.56162500000016 40.916000366210945
decision_type=10 10 8 8 10 10 10 2 10 8 10 10 10 10 10 8 10 10 8 10 10 10 10 8 10 10 2 8 2 2 8 10 10 2 8 10 10 10 8 10 10 8 8 10 2 8 10 2 2 8 8 10 2 2 10 10 10 2 10 10 10 2
left_child=1 3 6 8 22 7 32 21 31 13 36 14 24 -6 17 16 60 41 35 20 27 -5 61 44 33 48 -27 -3 -17 57 -31 54 -2 -7 -35 56 -10 -32 46 -33 -12 43 -43 -9 -24 -15 -18 -25 49 -22 -50 52 -47 -40 -1 -23 -19 -8 -59 -11 -14 -4
right_child=2 19 4 5 9 12 29 11 10 59 40 -13 15 45 -16 28 38 18 -20 -21 25 55 23 47 -26 26 -28 -29 -30 30 37 39 -34 34 -36 -37 -38 -39 53 -41 -42 42 -44 -45 -46 51 -48 -49 50 -51 -52 -53 -54 -55 -56 -57 -58 58 -60 -61 -62 -63
leaf_value=-1.1635424810710873 -1.4314747347457328 -0.038548801570156964 -0.30934726648796418 -0.27353426678368226 0.12887515914398337 0.050497416277606844 -3.5075037493643269 -0.054658456417860025 -0.03905312489689905 -0.13280260172988675 -3.2664356437176796 -0.5499586611422167 0.24518399545284716 0.43159992137229547 -0.038256487296902009 0.46825894215415503 0.055984653210595071 -0.19329917916052397 0.60880189788279948 1.9323810837169171 -0.022881435584192644 0.073451042777374201 -0.6010180911232702 -0.23514152807380456 0.49868423855424382 -0.083119175682497118 1.513380839576292 1.0115559265513903 -0.27050576927261433 -3.5124728931192486 1.1275559343477446 -0.38689089751719358 0.23158964906388421 -0.47042590407140672 -0.0033184128077220695 -0.14581983117683492 0.57535958095523587 -0.63083240233582749 -0.067466847395330265 0.55735709713530146 0.047603260998315737 0.5994400783632241 -0.0062017104384625068 0.0011114605698447522 0.49617851706151728 -3.1026912040218111 0.38083276009347672 0.32582002203682897 -0.13358223721024637 0.27923798392015209 0.83642368383454491 -0.4106176123398278 0.42720720188955269 0.28818709415158777 0.0056373095311109019 0.90611317243389211 0.054140486302864589 0.14392642063042657 -0.93962895784555878 0.055568500803298095 -2.6761814660555396 1.1935067461486992
leaf_weight=2060.350820332932 384.89817894994559 229.43827483203575 75.130989703823616 943.76524603268058 275.05792871397125 230.32514817199808 21022.963148098872 117.12505632453579 262.33319523952355 35.413352988386123 424.87502324205542 356.48084087728785 74.915604639343229 88.298468036694572 122.53837146784099 263.50156776368465 143.13145758361463 136.34073733449657 1006.8250492988209 11457.04960763093 314.44308571183467 959.27994943364797 427.12188774036548 136.20416879694176 276.99883429507531 186.50954225705573 4565.7666186334154 135.56141074006348 568.52939681984878 737.99076127837213 177.05034791491912 423.66063030490648 330.8979083199585 1085.2290885381681 623.46717719422509 341.30261420615352 712.96381267170864 92.086634127022791 168.69607211177168 171.18960660780806 285.13024932724471 6784.2475701331887 224.84930400030134 180.15046589314161 62.178306079034883 2272.3407105654815 1003.3210355422319 285.64088074847581 93.532919808251521 196.93571081350285 1431.6865489450488 483.23509129268541 38.964042570440142 74.479829077300963 159.00056414765459 389.09855533954851 478.93509408774264 89.240772879766155 80.969759117928334 338.20457848924934 143.58387925903591 809.64885554049522
leaf_count=6674 872 93 394 5031 33 188 10370 48 624 33 380 560 30 40 289 335 1219 95 433 10587 154 3223 1118 220 1309 50 1765 65 1485 101 19 2929 464 1201 1172 227 201 227 140 206 998 2248 36 32 63 2550 605 32 8 34 934 917 12 68 1458 2449 369 69 47 526 54 97
internal_value=-9.86906e-05 0.0132656 -0.0189348 0.00575627 -0.00283739 0.00928084 -0.0226771 0.012655 -0.007323 -0.0101573 0.00418488 0.0154715 0.000555137 -0.0132154 0.0164469 0.00736139 0.0134522 0.0169948 0.00886682 0.0218182 0.0181298 0.00067641 0.0115564 0.00238646 -0.00693954 0.019318 0.022279 -0.00397074 -0.00441068 -0.0234681 -0.012463 -0.0142146 0.00185621 -0.0100009 -0.0128459 -0.00143804 0.0148726 0.0109854 0.017515 -0.00138346 -0.0104963 0.019179 0.0198746 0.00277785 -0.00946591 -0.0157856 0.0213307 0.0161341 0.0124087 0.00232925 0.0157881 -0.0166726 -0.0189494 -0.000474434 -0.0176537 0.00761855 0.0063382 -0.0239911 -0.00474047 0.0156909 -0.0123867 0.0209997
internal_weight=68051.1 39807.5 28243.5 21196.6 5327.44 16697.1 22916.1 12040.9 4499.5 3531.51 1685.3 9748.8 4656.18 3157.9 9392.31 2440.16 1608.13 9269.78 1963.4 18610.9 7153.87 2292.14 1795.93 911.145 2216.02 6788.87 4752.28 365 832.031 22200.3 1007.13 2814.2 715.796 1939.02 1708.7 956.578 975.297 269.137 1389.63 594.85 710.005 7306.37 7009.1 297.276 489.3 2882.84 1146.45 421.845 2036.6 511.379 1525.22 2794.54 2311.3 243.176 2219.35 1348.38 615.276 21193.2 170.211 373.618 218.499 884.78
internal_count=68210 50006 18204 36316 6035 22846 12169 15040 13470 4111 2203 4337 7806 3552 3777 3936 2116 3488 1124 13690 3103 10703 1924 1433 3870 2945 1815 158 1820 10833 347 11267 1336 2561 2373 691 825 246 2032 3135 1378 2364 2284 80 1181 3519 1824 252 1130 188 942 3479 2562 208 8132 5672 464 10486 116 559 84 491
is_linear=0
shrinkage=0.05


Tree=9
num_leaves=63
num_cat=0
split_feature=23 30 54 30 29 9 31 33 5 21 35 30 34 58 26 63 55 21 29 29 63 52 23 1 5 29 2 40 34 68 24 54 33 52 56 29 4 53 4 48 31 67 59 35 57 33 31 34 7 16 59 9 67 33 0 29 52 48 21 66 64 7
split_gain=6610.17 976.594 523.596 281.443 200.159 172.659 142.768 132.223 125.787 112.267 109.156 101.58 90.8092 88.3171 88.0999 78.057 75.0091 72.6457 72.4303 66.9486 61.661 61.2836 57.1952 64.4659 79.9944 56.0102 54.6918 57.8377 53.3115 62.4042 51.2102 50.1915 48.6272 48.5549 48.4946 47.3339 74.2288 80.4697 47.0415 46.612 46.3283 45.8736 45.2262 44.48 41.6693 40.5886 43.1698 40.0645 39.9524 39.8562 38.521 36.1674 34.8663 34.5033 34.0836 32.3159 31.9815 31.3755 46.9363 29.7183 28.9616 28.4082
threshold=0.40597716019626895 121.03500000000001 0.31528046883112631 89.915000000000006 0.74993750000000003 0.99906486341235867 123.65500000000002 37.340852015512205 1.5000000000000002 3762.1250000000005 65.658375202047324 106.45500000000001 80.039851190476199 129.92500000000004 0.8562940924420811 -62.534999999999997 128.00500000000002 3728.8750000000005 0.63906586987312131 0.58777052551503561 33.290000000000006 0.38246537173137624 0.75035326591343199 65.100002288818374 1.5000000000000002 0.56784661193033126 5547.6250000000009 5527.8030000000008 95.426941964285746 90.531250000000014 0.60824921327240833 0.27916076598458933 60.332904191979814 0.45533363111103892 26.780000000000005 0.53510520361990965 1794.6250000000002 -666.29324999999892 1934.3750000000002 216.75100000000003 100.14500000000002 15.671011418797459 2.130000000000003 54.376962841940461 151.28500000000003 58.117204816465716 97.885000000000005 90.136071428571441 0.95642797789208711 1.0000000180025095e-35 40.645000000000003 0.98521098335796142 8.571148308048544 70.751250365754586 53.242000579833991 0.65025000000000011 0.23006470055918929 210.87500000000006 1442.1250000000002 5.4906250000000014 10.453125000000002 -0.13052619222005149
decision_type=10 10 8 8 2 2 10 10 2 10 8 10 8 10 10 8 10 8 2 2 10 10 10 2 2 2 10 10 10 2 8 8 10 8 10 2 8 10 8 8 8 2 10 10 10 8 8 10 2 2 8 2 2 10 2 2 10 8 10 2 2 2
left_child=1 3 4 8 5 15 9 16 13 18 17 -4 -12 48 20 43 60 32 21 33 42 38 23 24 47 31 -6 -28 57 -30 35 -14 41 -13 -15 36 -8 -38 -3 -11 -19 45 -7 -2 59 46 54 -17 -1 53 -18 -23 -33 -34 -9 -46 -27 -20 -59 -10 -5 -25
right_child=2 6 11 7 26 14 30 10 44 39 12 19 25 34 -16 22 50 40 28 -21 -22 51 -24 61 -26 56 27 -29 29 -31 -32 52 49 -35 -36 -37 37 -39 -40 -41 -42 -43 -44 -45 55 -47 -48 -49 -50 -51 -52 -53 -54 -55 -56 -57 -58 58 -60 -61 -62 -63
leaf_value=-0.44135820622032046 -3.0556692746017404 0.39313808251263327 -0.84528664449200264 0.83463137967722578 0.47163469193240326 0.30975322778547498 1.128761297109196 -0.24422216933839069 0.13554471426595499 -1.1907545426208823 -0.025793637895331508 0.22001016661069031 -0.24989342195502104 -3.4784737992979253 -3.3311285619184616 -1.9036304300196798 0.46453523999077506 0.014706894976860951 -0.028672866950149076 0.79488288991878742 0.065348857854438544 0.2537713643551186 -3.3321285618961101 -2.0482035316646341 -2.8326285733402017 -0.82159103613805728 -0.89765730206337313 0.19843371684877767 0.39046944917311754 -0.41719350418215129 -0.21517616375464677 0.53409088927152271 0.26712319907047366 -3.505428569716702 0.4790258847795883 1.814211788886837 0.053706521743859904 -0.079486330213351955 -0.24859297165377614 1.0652618464256023 0.66713616561931643 -0.50947790520442593 -0.30551639837002548 0.78430519855043102 -3.8679656583347448 -0.44108272037641244 0.094179461907925352 0.46539876074083825 0.4239605877724138 -0.14263501135477705 -0.068346782940541917 -0.48541706373227989 -0.11960317859433703 -0.20893746280763709 0.053386720323630156 0.84105328154339354 0.65787014229144924 -0.02927906963396959 0.50430185712249409 -1.1280726519287705 -0.37430960843156103 -3.3321285618961101
leaf_weight=721.06957520942819 193.2475987492528 559.43827438559742 570.1792701835293 73.884318566320758 198.35000900179034 218.38601445220411 988.01801132315472 586.21978736442406 97.060382792513337 58.413750735597844 384.87539291381313 102.21649193206302 113.87703806086256 109.32414121837041 490.94690092094243 164.55589201188724 423.16238576597607 551.53366158015046 253.17397713661165 1033.1250220308605 280.42355757951736 104.47845177957606 17266.281968787356 1007.0641133019863 925.81680810936177 79.830426086863554 527.40826670352635 426.0053469070192 434.00753138964444 261.8399799111304 119.54697409793152 293.3814982045127 1279.1071196906264 232.94823715430698 1049.6616571945412 14061.084143304373 207.51918137339436 374.13670191101477 161.48040292116661 3114.8434203510615 1603.949195498056 248.21075778551085 338.56235442124307 183.90645181045824 86.812055779235749 250.7874655624978 1958.583080436325 335.73351822551757 187.48740746974522 156.24875826016068 244.38369006407788 339.74510341882706 74.782321976930348 224.40328889362809 368.31044134683907 128.13267368157776 2553.3412720680512 167.46927060511484 1712.0111442046391 2119.9560085284215 921.96344582336349 3748.3789496700065
leaf_count=3732 193 446 2333 2028 73 45 852 1511 405 66 21 264 11 49 46 293 1167 1895 19 1157 21 417 5787 1829 1646 486 141 69 423 108 59 308 528 302 429 10517 11 258 274 3422 2415 188 117 134 66 276 1684 362 665 13 403 43 170 414 73 98 766 14 304 8026 4946 3392
internal_value=-0.000325886 0.0128002 -0.0188263 0.00367788 -0.0206744 -0.0216077 0.0195235 0.00756724 -0.00703273 0.0136731 0.00960111 0.00625201 0.0168487 0.00203412 -0.00406355 -0.0225858 -0.00554942 0.00609121 0.00809488 0.0136406 0.00579617 -0.00239654 -0.0229488 -0.0188217 -0.00949759 0.0196796 -0.000292091 -0.00526173 0.0124166 0.000399344 0.0221856 0.00400997 0.00282327 -0.00577715 0.0111837 0.022435 0.0141998 2.88081e-05 0.00660487 0.0206936 0.0137807 -0.000591304 -0.00383138 -1.99894e-05 -0.014741 0.00103252 0.00269415 0.00661168 -0.00963741 0.00984291 0.00741894 -0.0170047 0.012983 0.0123407 -0.00602466 0.00627846 0.0225481 0.0163376 0.0185635 -0.0167788 -0.0142425 -0.0216179
internal_weight=68051.1 39807.5 28243.5 16890.3 26305.1 25153.3 22917.2 12390.8 4499.5 7166.9 10727.4 1938.47 3500.09 2067.54 1328.32 23825 1663.39 7227.35 3993.64 1368.29 837.372 1165.14 23447.8 6181.55 1426.11 3115.21 1151.76 953.414 2828.5 695.848 15750.3 482.041 5071.87 335.165 1158.99 15630.8 1569.67 581.656 720.919 3173.26 2155.48 3412.11 556.948 377.154 2431.96 3163.9 2913.11 500.289 908.557 1659.76 667.546 444.224 368.164 1503.51 954.53 214.945 2633.17 2132.65 1879.48 2217.02 995.848 4755.44
internal_count=68210 50006 18204 32773 14148 13865 17233 19303 13470 5536 10759 4056 1762 4875 229 13636 8544 8997 2048 1723 183 1180 13309 7522 2301 1741 283 210 868 531 11697 489 4687 566 478 11638 1121 269 720 3488 4310 3732 162 327 8595 3544 3268 655 4397 955 1570 460 478 942 1584 164 1252 337 318 8431 6974 5221
is_linear=0
shrinkage=0.05


Tree=10
num_leaves=63
num_cat=0
split_feature=8 25 30 9 30 44 31 29 22 4 55 7 1 40 43 21 24 66 27 9 9 25 67 65 44 0 52 24 30 24 31 67 0 45 52 0 7 31 41 56 49 29 25 45 54 66 66 53 48 53 5 22 7 58 33 9 30 44 2 35 67 58
split_gain=6449.05 948.371 883.5 317.954 300.34 206.01 181.342 157.066 144.721 133.656 120.873 113.976 112.017 81.5641 79.9535 78.9866 76.4503 149.683 74.6942 68.4679 67.8928 65.746 60.1887 58.4589 57.8348 52.3323 55.5108 51.7866 64.1869 50.962 49.2452 55.4444 48.5817 41.6061 39.1426 36.0941 34.2502 33.8399 50.1191 32.9522 30.3371 30.1752 29.0999 27.8404 27.3119 26.9995 25.3434 29.5891 24.8032 24.5254 24.5049 24.2679 31.7424 38.3685 23.5316 23.2555 22.92 24.5856 32.5346 22.3353 21.9965 25.7292
threshold=-0.44228869021900119 37.714036189606034 130.77500000000003 0.99906486341235867 100.28500000000001 832.60275000000013 98.485000000000014 0.65581774475524479 0.69859040888524537 1530.1250000000002 125.00500000000001 0.25881904510252091 68.322502136230483 775.94887499999993 7779.7927500000005 4050.1250000000005 0.29819862167167088 14.503125000000002 400.40625000000006 0.9993981459635205 0.99699193743116299 41.213020308519525 13.928416321511014 0.85468987918299233 622.09450000000004 38.177000045776374 0.61279362817884264 0.33765674431066778 1.0000000180025095e-35 0.60824921327240833 33.13000000000001 4.4406913345006105 56.567998886108406 1398.7640000000004 0.65329876370875162 33.714000701904304 -0.58216583101416131 125.825 68.125000000000014 144.49500000000003 4413.929000000001 0.66637500000000005 53.65759652733697 1214.9410000000005 0.46402987190985562 19.053125000000005 8.3531250000000039 -682.85324999999955 220.12500000000006 246.71075000000158 2.5000000000000004 0.82805416059964265 -0.72947329433276231 125.35000000000001 48.015939150606535 0.73831951690629072 86.295000000000016 786.44250000000011 5142.1250000000009 67.198048154949788 6.8354163491142019 130.39500000000001
decision_type=2 10 10 2 10 10 10 2 8 10 8 2 2 10 10 10 8 2 2 2 2 8 2 2 8 2 8 10 10 10 10 2 2 8 10 2 2 8 10 8 10 2 10 8 10 2 2 10 10 10 2 10 2 10 10 2 8 8 10 10 2 10
left_child=1 34 4 7 6 9 24 36 14 13 27 33 15 -6 -9 19 48 23 -5 20 41 39 56 -18 -2 -15 46 28 -8 35 49 -32 -13 51 60 -19 -3 38 -23 -11 -30 -7 -29 44 -42 -40 47 -27 -4 -20 -26 -10 -53 -54 -22 -14 -12 58 -58 -17 61 -1
right_child=2 3 16 18 5 12 10 8 11 21 22 32 55 25 -16 59 17 29 30 -21 54 37 -24 -25 50 26 -28 42 40 -31 31 -33 -34 -35 -36 -37 -38 -39 45 -41 43 -43 -44 -45 -46 -47 -48 -49 -50 -51 -52 52 53 -55 -56 -57 57 -59 -60 -61 -62 -63
leaf_value=-0.74706008026055037 0.77022030268871766 0.095753189063128019 -0.099718806993195019 0.91758208130318275 -0.0024441674283544046 0.027148415299168251 -3.1699179657565479 0.60680301997238084 0.24382797134698464 -0.15727676699737148 0.38830330916176925 -3.2552772090781623 -0.075287825654312718 0.37428988854104689 -0.43076001198290187 0.5610235954820304 -0.0831579644839021 -0.41894936194561938 -0.01154220961007299 0.36179363694340061 -0.56622389386079264 -0.12608740343852623 -0.29778828105496885 0.14643775135023773 -0.26234788392516251 -0.15580577246089433 0.011158765602228692 -2.1639450980644535 -0.050968491130677765 -0.0023020454537934841 0.25597059818909806 -1.2569329044085606 -0.021338982960684639 -0.66372150563533339 -3.1655221338013044 1.1659417585367504 -3.1995971340874068 0.23469806310831987 -0.0036686239921074563 0.32917703121577091 0.6968199867662378 -0.14219482235672817 0.051472944956166868 -0.37682671569864112 -0.12325419547700207 0.53691217499018651 0.60907834558019625 0.2504929173830554 1.7221361160986453 0.14209651273472423 -0.66327289690792601 0.45017566426545436 -0.43072245974130258 0.41055280701698327 -0.1907555374523619 0.25724988068892074 -0.090923190646078969 0.44008991298831729 0.72636917371687071 -0.89623485931846969 -3.3523606730915825 0.34540323038739873
leaf_weight=275.90196060661299 128.68480619907893 175.05619157026149 100.85553434312897 931.80118078552186 548.71927043420783 779.76496650240324 197.414279181236 899.45307783405303 352.7177104112078 462.28734270906511 644.91370143282325 1364.9555219933018 117.37465548007549 928.75238165905466 349.13249977054227 362.23619047440917 338.01799930911386 93.216438895329702 224.24091806076467 177.00671327114105 762.19448670744896 307.95094223490446 116.99322456506002 304.70533026099326 1167.2516571884191 108.74542365903619 355.11235262526043 551.35972216004507 262.46229390396206 338.60124805149189 192.42784413695335 391.99504771456122 211.99656653776765 349.8431257137795 19584.82824205072 4294.6994345623916 2251.0519145868407 1122.2247079185818 272.72221056190551 86.378316808329259 531.03648282675977 474.9156451876861 140.63236527694767 208.80409679812419 106.43512761178704 262.86792689162985 5449.5032247119107 168.39229847408058 12908.461640762605 292.48777189478278 1622.1352743989166 145.10372658641847 504.79942396371121 183.24619731887537 341.31938195228577 523.40272183716297 124.78127250037195 1034.6266228445256 203.22250364771557 38.189943639167439 623.90686029180688 68.176039544526361
leaf_count=867 119 1984 41 125 894 1085 8 2179 299 1024 176 676 1466 3825 1589 719 15 510 44 43 83 484 113 319 5338 115 29 1341 456 74 27 59 23 844 6718 1567 7214 752 340 104 637 511 542 1084 587 398 1217 152 9282 33 7638 63 309 33 53 160 76 321 248 264 1076 149
internal_value=-0.000348122 -0.0180491 0.0129598 -0.0043347 0.0058735 0.0101999 -0.00251424 -0.00953016 -0.00385719 0.0138599 0.00423676 -0.00962582 -0.00010909 0.0171815 0.0105237 -0.00424329 0.0209377 0.0159181 0.0130112 -0.0075028 -0.00975399 0.00387394 0.0125396 -0.00672102 -0.0120521 0.0186346 0.0203228 -0.00459127 0.00126767 0.0189966 0.00419486 -0.00574765 -0.0190677 6.95698e-05 -0.0239347 0.0204388 -0.0197281 0.00814536 0.000578683 -0.0114298 0.00594471 -0.00179763 -0.0156502 0.0105507 0.0157409 0.0098202 0.0215123 0.00676261 0.0230095 0.0154399 -0.013564 0.00453962 -0.000114312 -0.00459618 -0.0188003 0.0188312 0.0145712 0.0108958 -0.00103236 0.0163935 -0.0141198 -0.00397037
internal_weight=68442.5 29373.1 39069.4 8820.31 20690.8 13650.1 7040.75 6787.36 4361.25 10073.7 4122.68 3112.66 3576.4 7559.22 1248.59 2935.63 18378.6 5369.24 2032.95 2535.2 2358.19 2514.43 2124.54 642.723 2918.07 7010.51 6081.75 1998.14 1306.15 4726.52 1101.15 584.423 1576.95 1535.71 20552.8 4387.92 2426.11 1965.77 843.541 548.666 1108.74 1254.68 691.992 846.276 637.472 535.59 5726.64 277.138 13009.3 516.729 2789.39 1185.87 833.149 688.046 1103.51 640.777 2007.54 1362.63 328.004 400.426 967.985 344.078
internal_count=68521 24311 44210 15501 32402 13718 18684 15213 6015 9334 5589 2247 4384 6232 3768 2758 11808 2485 288 1775 1732 3102 934 334 13095 5338 1513 4655 2772 2151 163 86 699 1548 8810 2077 9198 1974 1222 1128 2764 1596 1883 2308 1224 738 1484 267 9323 77 12976 704 405 342 136 1626 821 645 324 983 2092 1016
is_linear=0
shrinkage=0.05


Tree=11
num_leaves=63
num_cat=0
split_feature=21 30 25 30 7 7 33 35 31 8 25 53 21 58 29 38 25 38 0 1 54 58 39 40 2 25 39 40 64 21 64 53 13 32 22 65 2 5 66 10 25 7 56 33 42 36 68 52 31 67 66 61 54 7 30 66 31 13 5 35 59 29
split_gain=6194.59 916.336 790.567 276.86 253.109 208.94 152.917 142.123 125.876 98.6744 95.3632 90.4572 87.0337 85.0172 84.8642 99.6087 84.345 62.2545 59.8648 59.2661 62.5766 58.4289 53.0562 52.7631 51.9607 48.6348 47.7962 47.3871 45.3616 56.7912 45.2127 46.8681 44.7242 44.3565 44.0523 41.8666 41.0348 48.9541 42.3914 47.6236 40.8338 65.8848 40.6232 47.7835 45.9048 40.5885 39.391 37.2546 36.9189 36.0967 37.0368 35.3222 35.2688 34.8746 34.6583 32.9842 36.2364 31.4278 30.9451 30.6775 28.4403 27.4522
threshold=1630.1250000000002 129.69500000000002 67.584483233416449 90.445000000000007 0.065403129230143103 -0.8814490726585632 32.053271905106641 56.951762947971552 99.475000000000009 -0.19509032201612828 0.010357880208673528 330.01300000000089 4070.1250000000005 178.01500000000001 0.53510520361990965 1953.9080000000004 50.198640636463658 328.20000000000005 50.035499572753913 65.762500762939467 0.56571955759306258 170.01000000000002 635.12500000000011 1793.3760000000004 3750.1250000000005 78.423193334871925 141.06650000000002 775.94887499999993 10.021875000000003 2664.3750000000005 19.115625000000005 -544.55225000000007 31.074687114909288 100.26098958333334 0.82805416059964265 0.9558890883577188 4223.1250000000009 1.0000000180025095e-35 17.828125000000007 0.20088311396693925 14.480151466041553 -0.58216583101416131 107.94500000000001 66.42832752766833 55.062500000000007 1.0000000180025095e-35 17.531250000000004 0.57791562206169167 142.09500000000003 7.0323063998760675 9.7281250000000039 0.64499999999999613 0.33042041807250661 0.99892946161930185 107.23500000000001 8.3531250000000039 20.005000000000006 52.67386722710043 4.5000000000000009 63.688857379498408 44.875000000000014 0.56784661193033126
decision_type=8 10 8 8 2 2 8 8 10 2 8 8 8 10 2 8 8 10 2 2 10 10 10 10 8 10 8 10 2 10 2 10 2 10 8 2 8 2 2 2 8 2 10 8 10 2 2 10 10 2 2 8 10 2 8 2 10 2 2 8 10 2
left_child=2 3 5 8 30 10 11 12 16 17 32 -5 21 18 15 -3 -2 59 48 20 33 36 35 -20 -16 -11 46 -21 29 -26 31 -4 -1 -9 -32 -17 -8 -38 52 47 -7 57 43 44 -29 -12 -18 -40 -10 -45 -51 -36 -39 -43 -13 56 -44 -42 -31 -6 -56 -57
right_child=1 14 4 6 9 40 7 19 13 25 45 54 -14 -15 24 22 26 -19 23 27 -22 -23 -24 -25 28 -27 -28 42 -30 58 34 -33 -34 -35 51 -37 37 38 39 -41 41 53 55 49 -46 -47 -48 -49 -50 50 -52 -53 -54 -55 60 61 -58 -59 -60 -61 -62 -63
leaf_value=0.034391910905412007 -1.0157980795756978 -0.096871226562557589 -0.25178865219761026 -0.6148490772977887 -0.29906130769501366 -3.0072460271112393 -0.32845077983308713 0.70219918993640507 -0.31982173662659791 -0.04169105812030087 -0.48838719029022287 -0.15064732901524636 0.58180637505353727 -3.2764499481742875 -0.10177661489853443 -0.33435323108075571 -1.2649706565406817 -3.0935649199054933 -0.016035155903568299 -0.0023219590569368621 -0.42570872483426858 -0.41211815602546081 0.98621642644880447 0.50322514221040604 -0.067823971683202908 0.52372535382834828 -0.89533553461819082 0.8620072643912583 1.5947619078613393 1.533794556423743 0.37682021038986735 0.5864688732197173 -3.109421672169693 -0.063588984654444403 -0.40918633675423738 0.45641017263375616 1.4595369337240975 -0.36687485644997864 0.45684200519979967 -0.19236150658873805 0.39002516666613407 -2.3682460404626795 -0.20131334685016711 0.02847758662091664 0.047168151820672959 0.62991161601114443 0.47519779704093851 -0.116989844647199 1.0807672600796665 -0.057527685895931206 -0.1000827266451438 0.31741408240536373 -0.0038450540429785466 0.12369112276892472 0.32008999608721356 0.23224562742951138 0.11710990147680747 -0.40724602711123908 -0.15265447284165959 0.15149695491728871 -0.18693969867707008 0.34620381685668139
leaf_weight=276.35996839183667 2225.6554029910258 176.38886286126831 98.814501060151315 800.56522856604056 315.01692240402576 18072.513169871436 485.03296267970535 620.01968151688629 586.30929304670053 443.32754070087003 199.3734057518277 319.12451425612647 1352.8617695322891 279.01226108528135 144.37200546265501 290.8467449670311 102.28646986584926 1623.7170876784319 309.2149600982666 385.45704042776288 290.52768578694963 298.48284134519508 1562.2195778345133 939.07064800470835 199.25511000986887 355.65393884940568 340.91673653802513 643.03529608049757 15269.622520499073 812.72692714744164 138.45077480248062 1530.1458173955748 854.16927467355117 311.14487876443218 232.75036674696875 174.79964248923761 383.39129709471081 318.98795487240591 780.77024329670337 255.70114924698885 230.43252133720398 3114.0860575998277 87.804146114026565 244.84119303548118 435.59216880208078 553.03872816185799 386.52568694418648 79.418541087885387 170.46441588608468 49.683221010019452 244.60858634088436 137.33565679226811 1147.3160267025344 45.127451911785101 643.27664601013998 598.0579592824497 177.29662832326713 259.88636127084101 68.074698182069369 103.48947878207082 53.00974222752393 4815.0355913348949
leaf_count=46 10040 9 37 3696 150 4951 966 271 2701 236 578 2038 3670 49 7 53 824 1507 27 604 714 84 1009 112 145 111 818 62 10430 1761 155 765 141 857 283 468 303 392 602 748 553 5274 24 256 1104 59 636 49 290 16 241 159 2530 36 2142 574 262 413 387 9 42 1045
internal_value=-0.000549888 0.0121884 -0.0183129 0.00506193 -0.000206833 -0.0221318 0.00838445 0.0101545 -0.00478286 -0.00998522 -0.00615419 -0.00526667 0.00350085 0.00409628 0.0202532 0.0110389 -0.0114205 -0.0158135 0.00769474 0.0139675 0.00373825 -0.000422059 0.0141737 0.0144217 0.0214846 0.00491197 0.00218539 0.0155944 0.0217484 0.0118457 0.0127908 0.0168539 -0.0153339 0.0100591 -0.000224116 -0.000639952 0.00141377 0.00361887 0.00114352 0.00848723 -0.0235168 -0.0186926 0.016497 0.00950724 0.0155825 0.00763869 0.0122073 0.0141189 -0.00340125 -0.00264733 -0.0144481 -0.00922509 -0.00444521 -0.0213393 0.00464197 0.0184885 0.0012684 -0.00163989 0.0172989 0.00138176 0.0108957 0.0193318
internal_weight=68442.5 39858.8 28583.7 21160.5 4978.7 23605 15821 14005.1 5339.46 2841.2 1882.94 1815.98 5101.96 2284.07 18698.3 2204.25 3055.38 2042.22 2005.06 8903.1 1221.69 3749.1 2027.87 1248.29 16494.1 798.981 829.729 7681.41 16349.7 1080.06 2137.5 1628.96 1130.53 931.165 508.537 465.646 3450.62 2965.59 2582.19 1115.89 21722 3649.53 7295.95 1617.76 1078.63 752.412 488.812 860.189 756.774 539.133 294.292 370.086 1466.3 3159.21 1015.41 5678.19 265.101 490.319 880.802 418.506 696.286 5413.09
internal_count=68521 53058 15463 38789 3412 12051 23292 15374 15497 2013 824 7918 9344 3179 14269 1539 12318 1666 3130 6030 1842 5674 1530 139 12730 347 2278 4188 12723 2293 1399 802 187 1128 597 521 5590 4624 4321 1399 11227 6276 3584 1679 1166 637 1460 651 2991 513 257 442 2922 5310 4222 1905 286 966 2148 159 2184 1619
is_linear=0
shrinkage=0.05


Tree=12
num_leaves=63
num_cat=0
split_feature=8 30 9 21 30 44 29 4 55 28 22 64 31 0 24 66 29 40 51 0 10 21 65 30 31 9 66 61 64 48 69 64 27 7 21 61 1 35 22 33 38 37 13 56 21 7 31 33 11 29 21 28 39 66 65 4 7 5 0 43 64 51
split_gain=6168.86 838.445 672.531 271.929 245.838 181.224 158.37 155.747 127.099 120.274 115.53 96.304 94.0204 83.4739 83.3867 135.946 73.6503 69.5585 63.1538 68.215 60.8262 59.1736 57.5311 53.9262 47.7423 47.0433 51.1002 45.5583 43.0508 42.5449 42.1326 41.7193 41.8928 39.8977 46.0943 37.294 34.7083 33.4624 36.619 32.5825 52.2349 36.354 32.3408 32.3296 31.9692 31.4006 30.7878 30.693 29.2851 40.6061 29.2663 29.1662 28.7472 28.5036 27.6776 39.6714 26.7443 26.1396 26.0433 60.8534 25.6499 55.1535
threshold=-0.44228869021900119 130.77500000000003 0.9993981459635205 927.12500000000011 90.445000000000007 832.60275000000013 0.65025000000000011 1530.1250000000002 125.00500000000001 0.44725357658090892 0.56569015644027576 15.390625000000004 98.745000000000019 41.389499664306648 0.29819862167167088 14.503125000000002 0.74993750000000003 775.94887499999993 7787.7585000000008 51.470998764038093 0.064506059999340642 4144.1250000000009 0.85468987918299233 151.50000000000003 100.88500000000001 0.86095304316285726 23.140625000000004 -59.224999999999987 17.884375000000006 224.12500000000006 1.3683389432653417 12.196875000000004 277.96875000000006 -0.72947329433276231 1570.1250000000002 -65.439999999999984 67.652500152587905 56.776813217137992 0.1588815827606721 66.42832752766833 1552.3785000000003 219.50000000000003 57.743669260242648 90.335000000000022 4355.1250000000009 0.16280825711808991 139.43500000000003 48.26079591026366 -2.045801593576789 0.66441175203364133 2686.8750000000005 0.37409058175788873 235.01388888888891 13.803125000000003 3.1654836054363051 840.12500000000011 -0.72947329433276231 2.5000000000000004 54.737998962402351 7472.5432500000015 11.465625000000003 5772.3076250000004
decision_type=2 10 2 8 8 10 2 10 8 10 10 2 10 2 8 2 2 10 8 2 2 10 2 10 8 2 2 10 2 10 2 2 2 2 8 8 2 10 8 8 10 10 2 8 8 2 8 8 2 2 10 10 8 2 2 8 2 2 2 10 2 8
left_child=2 4 3 16 8 7 45 13 27 21 -8 -4 -10 44 29 22 35 -15 19 33 24 37 -16 31 -11 -9 46 -2 -18 -3 -14 50 -33 -12 -35 -1 -32 38 -7 54 -41 -42 -30 -39 57 -5 53 -40 49 -22 -17 -49 -36 -27 -19 -56 -20 -6 -37 -60 61 -31
right_child=1 14 11 6 5 9 10 25 12 20 18 -13 30 17 15 23 28 39 56 -21 48 -23 -24 -25 -26 26 -28 -29 42 60 36 32 -34 34 52 58 -38 43 47 40 41 -43 -44 -45 -46 -47 -48 51 -50 -51 -52 -53 -54 -55 55 -57 -58 -59 59 -61 -62 -63
leaf_value=-1.2012858272423621 0.70021370675372485 -0.12832622537980343 0.50185546567406758 -0.35328931580663936 0.25580748362330041 0.079140759537379785 0.81109482339894967 -0.38713957056607673 -0.57067099993176817 -0.24574049674564691 0.1396029231554948 -0.041540349694271637 -0.041607083363444132 -0.021459585140853932 -0.11413551734664418 -0.054744160634799505 -0.26775748962930451 0.68872626207719445 0.073337710033997902 0.56425914230326446 0.36984535880579872 0.49786245621110869 0.15506091740899708 1.5859344130635638 0.24938328092042783 -0.33815126102082643 0.49032777592685256 -0.61070766032790835 0.47194755357713802 -0.042009675999329948 0.42239396407891516 0.66209955806083376 -0.054789467832022022 -1.603960527738262 0.24940052624140421 -2.8568837257556776 -0.0050709045052272474 0.43399990493980956 -0.38790301681583306 -0.013385555990971297 0.22888639681094519 0.14243241801458881 -0.65301807762950503 -0.080462321986442487 0.65192641048653577 -2.9330478234024255 0.19833993699920496 -0.65128968235000151 -0.70235082109035862 -0.095112341863612934 0.50901592107346549 0.040540359371840397 -0.10903502949006355 0.0021762950153322519 -0.91604418109113162 0.59163216055529899 -2.2620222020981142 -0.22547704479632175 -0.27013033342430604 -2.8563837257668534 1.5846533035899171 1.2017063863008404
leaf_weight=223.85170741301306 168.48533179975266 151.82649727333956 1226.8187669143081 321.22512401449239 488.41634698859889 68.92164847384953 764.74276659527595 571.32952989555997 552.05631938862916 215.47879147916592 138.55994241356871 518.5638679061085 104.17241937748577 381.56690880066344 338.01799930911386 327.45461981401297 194.7442859262236 4453.7868709327468 146.36561427761285 310.55871104588732 416.2413888799797 242.85288656415719 304.70533026099326 2520.334628886299 922.70501443468447 272.61643103137612 420.2807984938845 2682.9907024132358 198.18268242986881 178.88893916763737 766.80137766417317 1327.2971058178316 116.05299563028484 597.85677209344328 237.28407807824044 18330.841223305699 155.23162448678806 104.62611147770319 1128.5085657605009 469.24338912963799 895.49697598814964 615.58440085319194 190.10680770874023 549.35473826637997 561.57399316573537 2379.0722343271382 794.57071444392204 78.662879945944084 145.9575720654052 531.31256269951928 435.37777136078478 115.8444286836254 76.075556446237897 1049.7186404014938 78.97800244989395 96.582204242717296 1113.3872526717196 590.86496359696866 539.0870623588562 1865.797365446575 11201.512654462529 1477.0890842022284
leaf_count=131 210 56 137 4334 1664 224 3070 4113 264 577 244 210 42 126 15 119 34 561 125 58 1064 1039 319 1116 575 42 114 11465 63 63 129 591 50 528 604 8791 158 114 893 29 42 102 8 430 3983 4212 91 130 121 1423 275 235 181 297 121 169 1398 1855 54 129 7135 2069
internal_value=-0.000804861 0.0122108 -0.0181171 -0.0200187 0.00530752 0.00815211 -0.0106853 0.0114274 -0.00513466 -0.000354505 -0.00348072 0.0119837 0.00624939 0.0148832 0.0199826 0.0147402 -0.0226551 0.0172653 -0.00847127 -0.00100108 0.00790488 -0.00840792 -0.00683508 0.017674 0.0159959 0.00183081 0.00474965 -0.0114356 -0.00512629 0.0221463 0.0152003 0.0119657 0.0169643 -0.00709099 -0.010892 -0.0231427 0.0186057 -0.0111778 -0.0155609 0.0184636 0.0130961 0.0176213 0.00449578 -0.00184886 0.0047341 -0.0197163 0.00158793 -0.0174119 -0.000516682 0.00269471 0.00250795 0.000932041 0.00464112 -0.00308624 0.0207596 0.0012869 -0.0165379 -0.000300173 -0.0233618 -0.0184697 0.022457 0.0166488
internal_weight=68442.5 39069.4 29373.1 27627.7 20690.8 16261.1 6085.13 11740.6 4429.74 4520.47 3384.83 1745.38 1578.26 8632.09 18378.6 5369.24 21542.6 6991.24 2620.09 1360.34 2231.7 2288.77 642.723 4726.52 1138.18 3108.52 2537.19 2851.48 583.034 13009.3 1026.21 2206.18 1443.35 1049.78 911.216 20959.6 922.033 2045.92 1391.94 6609.67 1980.32 1511.08 388.289 653.981 1640.86 2700.3 2116.91 1323.02 1093.51 947.554 762.832 194.507 313.36 1322.34 4629.35 175.56 1259.75 1079.28 20735.7 2404.88 12857.5 1655.98
internal_count=68521 44210 24311 23964 32402 20134 14754 13309 12268 6825 6208 347 593 8652 11808 2485 9210 1150 3138 1615 3760 3065 334 2151 1152 4657 544 11675 105 9323 329 1035 641 1557 1313 9105 287 2026 1482 1024 173 144 71 544 7502 8546 430 1258 2608 2487 394 365 785 339 851 290 1523 3519 8974 183 9267 2132
is_linear=0
shrinkage=0.05


Tree=13
num_leaves=63
num_cat=0
split_feature=8 25 30 30 29 21 55 44 7 28 24 24 30 62 39 7 53 65 25 28 14 46 35 24 25 52 42 45 28 61 7 41 61 0 57 28 2 31 64 57 52 58 2 0 40 67 7 32 21 34 69 25 2 5 11 57 69 52 65 67 33 67
split_gain=5987.14 960.925 808.657 250.803 246.818 234.635 149.324 148.293 110.823 109.228 99.1164 79.0905 86.225 76.4837 72.7584 71.1504 69.89 66.7976 65.2902 61.0711 59.8821 53.9607 52.1618 51.4419 49.2748 47.086 46.973 50.2012 45.7727 44.2902 43.9261 42.6182 41.6639 45.9816 39.5952 35.9544 35.6016 35.2665 34.6955 34.1932 46.5061 33.555 32.5117 32.497 31.7185 30.8537 34.2105 30.377 30.1523 31.4793 29.9397 28.8417 28.8148 27.5077 28.2988 63.1144 27.1996 26.8844 26.4654 26.2572 26.244 31.4986
threshold=-0.44228869021900119 37.398337095093808 132.20500000000001 100.28500000000001 0.65581774475524479 2320.1250000000005 121.19500000000001 832.60275000000013 0.29012925520284133 0.47500249737118833 0.30522848723028856 0.27807734061604034 152.59500000000003 125.15500000000002 116.50862068965519 0.93540483100319627 1657.4722500000014 1.865049988041785 10.790041715673265 0.66400047614512914 12.178626854930217 2190.6660000000006 56.1364436273523 0.16008292133694066 40.928988032202106 0.65329876370875162 115.43750000000001 1261.0018750000002 0.54962527340332468 -59.224999999999987 -0.47114434510950071 120.12500000000001 98.290000000000035 56.567998886108406 132.20500000000001 0.45125136399882493 3640.6250000000005 126.49500000000002 13.603125000000004 1.0500000000000003 0.9078845517534494 171.99000000000004 4699.1250000000009 36.303499221801765 1631.8732500000003 12.434189257689956 -0.60876142900872077 89.044270833333357 1537.7500000000002 89.898980654761914 1.0038911092686595 38.321191363661605 4940.3750000000009 5.5000000000000009 -18.333487590470181 -1.0000000180025095e-35 4.4965262879624683 0.32261196982019907 0.51976557215729413 6.8354163491142019 60.029134044666897 9.3825414106919585
decision_type=2 8 10 10 2 10 10 10 2 10 10 8 10 10 8 2 10 2 8 10 2 10 8 10 10 10 10 10 8 8 2 8 10 2 10 10 10 8 2 10 10 10 10 2 10 2 2 8 8 10 2 10 8 2 2 10 2 10 2 2 8 2
left_child=1 25 3 6 30 8 29 10 26 20 13 36 19 14 38 18 21 41 -8 51 47 -11 -7 -22 60 59 27 39 -19 -2 -3 37 33 48 45 -20 -4 -26 -5 40 -6 43 -25 -16 -40 -29 -47 -9 -10 -50 -41 52 -13 54 -31 -56 -48 -30 -53 -1 -12 -62
right_child=2 4 11 7 5 22 15 9 32 16 24 12 -14 -15 17 -17 -18 28 35 -21 23 -23 -24 42 31 -27 -28 34 57 53 -32 -33 -34 -35 -36 -37 -38 -39 44 50 -42 -43 -44 -45 -46 46 56 -49 49 -51 -52 58 -54 -55 55 -57 -58 -59 -60 -61 61 -63
leaf_value=-0.1921336120819902 0.66520302141603838 0.1439385468084716 -0.045455937780560167 0.24945432488497696 0.51336809462061128 -0.040992092035165233 0.29304682571354518 -0.95823424555155112 -2.7665479689780867 -0.035599820415669316 -0.18196150764812857 -0.34723129667223102 1.4305142640982014 0.95473767989731673 0.0076705641241989935 0.51010630557169356 -0.10467596084411 -0.021969872565045279 -0.045412188722035299 0.99585606197810783 0.050338574578496775 0.23969042158293066 0.98096101009233228 -0.42325997250625491 -0.04134504753017397 -2.7140395394678936 -0.68334714718910949 -0.18574035582629886 0.014646240244805143 -0.27182334471591002 -2.7745525841897809 0.61825819539156157 0.23693049992933413 0.009869989838825477 0.22719243260673069 0.072231485214352839 1.5122652493871662 0.16410185108465739 -0.12071464579106249 -0.29546245558733591 -0.35607611603505024 -2.0376554617970868 -0.079620230968037484 0.50085787364641943 0.45474659046377752 0.33141136358084516 0.25009673058402343 0.08645480740047945 0.41085053108178093 -1.5731894090643941 0.43077942877943154 0.042774528726959006 -0.12334925570481658 -1.921560127747634 -2.8282144123359347 0.23260610181470001 -0.14103794507977058 0.81878237262605547 0.073670560482124614 -2.8783532228283466 0.29118890143354648 -0.062709873741256514
leaf_weight=339.21560795589266 238.41567366067886 211.43562078505784 39.502981185929457 1098.5975991856701 168.41836208105053 304.43308421936626 345.27981087690011 118.32706813267106 1172.045721343108 94.441595611762068 332.54121372671307 100.56998929964118 3109.5344568622268 3162.8096303030861 324.05012134096592 761.88998096729392 380.1549269085433 1291.500063719363 992.79990715288068 842.5704697238657 144.32219963112493 1111.4035400940234 1359.5907827656852 719.1052878160092 669.09769161172176 19561.759055057795 349.93990839615208 593.84420768368341 236.29539677242906 1478.5018269645816 2252.0255602655716 514.7669438247915 114.82189316682616 231.61050365306437 194.86134202648941 1164.2165466608171 11745.828831852237 984.87451393721176 141.53406873856576 32.544639229774475 124.14267867803574 51.73771858215332 495.75640149378501 1226.8559901107651 195.25382077656857 192.26084000708602 160.13536354139887 574.28134702989405 159.85815910011866 286.44934747499246 523.40326448369808 184.04310226440407 234.33913961911537 813.80556312470935 388.9854195315595 856.85870159635374 418.36851112506019 270.83319844265861 1462.5545973125995 621.95736833310275 113.31580450673142 57.819019507571952
leaf_count=986 362 2485 2 218 41 2299 235 88 416 146 608 59 1502 2397 1309 212 106 1365 539 257 455 1816 888 184 761 6668 1115 283 477 10069 6850 544 78 27 122 1003 8596 531 402 4 39 3 588 479 197 32 34 1106 167 238 398 12 110 2543 81 3640 78 205 855 1063 86 62
internal_value=-0.000701841 -0.0177572 0.0121207 0.00556755 -0.00398561 0.00120019 -0.00215817 0.00936881 -0.00448849 0.000650806 0.0123406 0.0200169 0.015309 0.0151257 0.0111721 0.00567409 0.0105053 0.00718829 0.00160077 0.00898437 -0.00696651 0.0163986 0.0173454 -0.0130641 0.00400374 -0.0236959 0.00197634 0.0044639 0.000574088 -0.00892779 -0.0174302 0.00727566 -0.013563 -0.015377 -0.000861358 -0.00163057 0.0223872 0.0033654 0.0206122 0.0142512 0.00041484 0.0146113 -0.0164168 0.0159328 0.00657233 -0.00387201 0.00272724 0.00499944 -0.0183591 -0.00729922 0.0215324 0.00418974 -0.00918584 -0.0103334 -0.00792381 -0.00237242 -0.00334546 0.013303 0.00691026 -0.0128916 -0.0100846 0.00582519
internal_weight=68442.5 29373.1 39069.4 21350.4 8850.19 6386.73 7040.75 14309.7 4722.7 3637.79 10671.9 17718.9 5933.61 7999.47 4836.66 3264.19 1586 3401.27 2502.3 2824.08 2051.79 1205.85 1664.02 1359.18 2672.42 20522.9 2757.92 2407.98 1798.63 3776.57 2463.46 2168.74 1964.79 1849.96 1559.47 2157.02 11785.3 1653.97 1435.39 848.509 292.561 1602.64 1214.86 1550.91 336.788 1364.61 770.765 692.608 1618.35 446.308 555.948 1981.51 334.909 3538.15 2724.35 1245.84 578.504 507.129 1646.6 961.173 503.676 171.135
internal_count=68521 24311 44210 32817 15594 6259 18684 14133 3072 4489 9644 11393 2795 7052 4655 1989 2068 3838 1777 1293 2421 1962 3187 1227 2592 8717 2146 1031 2047 16695 9335 1836 926 848 549 1542 8598 1292 817 482 80 1791 772 1788 599 427 144 1194 821 405 402 1036 169 16333 13790 3721 112 682 867 2049 756 148
is_linear=0
shrinkage=0.05


Tree=14
num_leaves=63
num_cat=0
split_feature=21 30 54 28 22 28 21 33 4 7 61 14 34 58 0 52 11 1 30 21 36 71 7 43 20 45 68 65 64 33 54 35 22 35 54 61 20 11 28 48 20 53 30 18 2 68 64 8 61 32 0 30 64 34 46 53 60 39 11 7 15 67
